<?xml version="1.0"?>
<opencv_storage>
<opencv_ml_ann_mlp>
  <format>3</format>
  <layer_sizes>
    140 40 34</layer_sizes>
  <activation_function>SIGMOID_SYM</activation_function>
  <f_param1>1.</f_param1>
  <f_param2>1.</f_param2>
  <min_val>-9.4999999999999996e-01</min_val>
  <max_val>9.4999999999999996e-01</max_val>
  <min_val1>-9.7999999999999998e-01</min_val1>
  <max_val1>9.7999999999999998e-01</max_val1>
  <training_params>
    <train_method>BACKPROP</train_method>
    <dw_scale>1.0000000000000001e-01</dw_scale>
    <moment_scale>1.0000000000000001e-01</moment_scale>
    <term_criteria>
      <epsilon>1.0000000000000000e-04</epsilon>
      <iterations>30000</iterations></term_criteria></training_params>
  <input_scale>
    4.5804310112698676e+00 -1.6633025988095549e+00
    3.5908584604204834e+00 -1.7125033257238349e+00
    3.7405229236807420e+00 -1.9226613762019238e+00
    3.5922641933794583e+00 -2.0052681903088199e+00
    3.4278412223344636e+00 -2.2648037643416754e+00
    3.4860476553560691e+00 -2.6169293033797749e+00
    3.7573629961953841e+00 -3.0600000994803280e+00
    4.0664108310619786e+00 -3.3910555763778287e+00
    5.1803843866837189e+00 -4.3389309096596094e+00
    5.3463486053507143e+00 -4.4256063027489496e+00
    5.4101716340352697e+00 -4.4820422459079658e+00
    5.5353514662076124e+00 -4.7670699992135850e+00
    5.3860320152871788e+00 -4.7314768043114963e+00
    4.7998176937097137e+00 -4.0759579665661860e+00
    3.6915932413764989e+00 -2.8398244629173988e+00
    3.1967710778626874e+00 -2.0120457402770562e+00
    2.8801220290487763e+00 -9.3844010812030254e-01
    4.7235130973895236e+00 -4.2668437902857370e-01
    6.5189688839451794e+00 -3.4382853184310458e-01
    7.3691156645713782e+00 -3.3097345754969704e-01
    3.6551072114536520e+00 -2.5014627401046736e+00
    4.2080075159276431e+00 -3.3417320488224136e+00
    6.1858579044581017e+00 -5.1690650042082051e+00
    6.1233356104873566e+00 -5.0095068789481054e+00
    6.1157372796051561e+00 -4.8754131657953721e+00
    6.1659860937929514e+00 -4.8591919535585912e+00
    6.1745473700316973e+00 -4.8460273686878619e+00
    6.1103700840093067e+00 -4.7835396151426126e+00
    5.9864791287753034e+00 -4.6918429026077195e+00
    5.5430388264004167e+00 -4.3810512572787026e+00
    5.4107207959776540e+00 -4.2265498683668694e+00
    5.4519397729066865e+00 -4.1926092362398597e+00
    5.4751812105207769e+00 -4.1332715445411958e+00
    5.4896141313058386e+00 -4.1554246863943307e+00
    5.4702416703774022e+00 -4.1863484209632684e+00
    5.3934843534061381e+00 -4.1427306697695832e+00
    5.3989712970991546e+00 -4.2410970700495243e+00
    5.1964665656375306e+00 -4.1833688336597552e+00
    3.8841881244489800e+00 -2.9625331403298927e+00
    3.3606187176063536e+00 -2.3359519654047869e+00
    2.3861920587904642e-01 -2.0195626483309109e-01
    3.9942046094279808e-02 -2.5722808016176363e-01
    1.3444364136978306e-02 -6.8087675279143578e-01
    1.0402265303423565e-02 -1.3162747316193808e+00
    1.0217231995650273e-02 -1.6374558315721315e+00
    1.0425170241635072e-02 -1.7642296543185088e+00
    1.0824897037012360e-02 -1.5265624580243358e+00
    1.2600696943880989e-02 -7.5378711611732807e-01
    3.4875832496167158e-02 -2.5565443451873360e-01
    1.8435373830710222e-01 -6.2389708940286781e-02
    1.8325290777543557e-01 -2.2839169504505646e-01
    2.9551969760011607e-02 -3.1207792773484710e-01
    1.1355545411354730e-02 -9.0953088889735823e-01
    1.0142092745487290e-02 -1.6025747555061609e+00
    1.0933152235266218e-02 -1.5587152800510204e+00
    1.0993998015226176e-02 -1.6264428310137786e+00
    1.0562754155129915e-02 -1.7650221522152560e+00
    1.0695896507314820e-02 -9.8561493192439398e-01
    2.5873782480424937e-02 -3.3373900509420173e-01
    1.3894208119420079e-01 -7.3991560957702429e-02
    1.5832343854160863e-01 -2.0738051703796798e-01
    2.6680334156476894e-02 -3.2153214129419255e-01
    1.0667785855754666e-02 -9.0554529939381845e-01
    9.9847493288160588e-03 -1.3981778291995843e+00
    1.0370747329772409e-02 -9.9538673685291490e-01
    9.9956442108771939e-03 -9.2547980546838116e-01
    1.0090702901196489e-02 -1.3587949249047087e+00
    1.0150660402657408e-02 -9.0183472252547348e-01
    2.3364379551046210e-02 -3.4389634531217106e-01
    1.3444799273448774e-01 -7.6380702504685261e-02
    1.5116958477066597e-01 -1.8912831568629304e-01
    2.7092798964242847e-02 -3.1088976531912221e-01
    1.0624052253166124e-02 -8.8247777426935137e-01
    9.8295216566892853e-03 -1.4288451285047319e+00
    1.0121596787175887e-02 -1.1348629178990179e+00
    9.9925439135849312e-03 -1.0788883996909175e+00
    1.0171318941129574e-02 -1.3349775066941565e+00
    1.0390606829506682e-02 -8.1637010098027329e-01
    2.4362946958312977e-02 -3.2045788785675799e-01
    1.3535648366225850e-01 -7.3966905294645557e-02
    1.6088905797061312e-01 -1.7188013206668570e-01
    2.9075860447119042e-02 -2.8609870029268719e-01
    1.0956586692770465e-02 -8.3954803961845514e-01
    9.6744354607649994e-03 -1.5109362322502968e+00
    1.0165208307402479e-02 -1.5976709887565537e+00
    1.0797411310466585e-02 -1.8361230219539375e+00
    1.0814752999294247e-02 -1.7871229559560913e+00
    1.0837748251245144e-02 -8.4496811000591288e-01
    2.6884531706183816e-02 -2.9620723383550168e-01
    1.5610321169313940e-01 -7.1598636915788272e-02
    1.6826177257190239e-01 -1.9454549231991128e-01
    2.9236092087000381e-02 -2.8074457710254791e-01
    1.1138504499342396e-02 -7.8869917890746943e-01
    9.6303179212118024e-03 -1.3554283329751913e+00
    1.0438600023612910e-02 -1.3602829370237932e+00
    1.0248088358885733e-02 -1.5255643937972065e+00
    1.0537115578485343e-02 -1.7742304136727896e+00
    1.0475241377750105e-02 -9.2419243907398907e-01
    2.5650311540228562e-02 -3.1728246094616880e-01
    1.5484327235433890e-01 -7.5247861295886037e-02
    1.4529951100516389e-01 -1.8130463721455550e-01
    2.6950197929741952e-02 -3.0433293210060663e-01
    1.0760432230465003e-02 -8.1827093671149576e-01
    9.4555802671020799e-03 -1.1678554683892155e+00
    1.0947724680018811e-02 -9.0776330708111741e-01
    1.0287368265744100e-02 -9.7454488625859903e-01
    1.0331721805515422e-02 -1.5300989517194250e+00
    1.0032283805936433e-02 -9.7348648078643640e-01
    2.2223662293963255e-02 -3.5881526113334750e-01
    1.4030887695995720e-01 -8.3319708351050625e-02
    1.3803260292978137e-01 -1.7013686214815896e-01
    2.5440980563293674e-02 -3.3162563345960056e-01
    1.0668371281867614e-02 -9.7557875657348092e-01
    1.0060231290388922e-02 -1.4666390406067444e+00
    1.0850206363438633e-02 -9.8433079539333612e-01
    9.6661928290621597e-03 -9.2969861464045311e-01
    1.0197455294274464e-02 -1.4666537667178485e+00
    9.8997090096794669e-03 -9.8754010847833740e-01
    2.1663278405606029e-02 -3.7180970108110090e-01
    1.3833368088997466e-01 -8.3989056063187684e-02
    1.5405648899552982e-01 -1.7367887606329402e-01
    2.7884346486956771e-02 -3.1414272417917727e-01
    1.1059147954177817e-02 -9.8235328008667144e-01
    1.0275937407377487e-02 -1.7281396710340877e+00
    1.1647720028823624e-02 -1.6382366193841007e+00
    1.1415002841558532e-02 -1.5499248933382948e+00
    1.0080620512715384e-02 -1.5969860457033878e+00
    1.0483903533217596e-02 -9.5162845045254274e-01
    2.4818621895782714e-02 -3.4684720934240348e-01
    1.5801654886183725e-01 -7.6658051060382870e-02
    2.2313654830293217e-01 -2.1915317654786579e-01
    3.8537715050726271e-02 -2.5672119088200457e-01
    1.3049413069024737e-02 -7.1100065769448906e-01
    1.0375118637890552e-02 -1.4151674025325911e+00
    1.0058406141138817e-02 -1.5969727155959614e+00
    9.7500309838239145e-03 -1.4767455156012772e+00
    1.0089937920618360e-02 -1.2966705326869028e+00
    1.1857197702401694e-02 -7.3327855545975940e-01
    3.2502073478825499e-02 -2.7113383598706220e-01
    1.9254577894537864e-01 -6.3876309690731450e-02</input_scale>
  <output_scale>
    5.2631578947368418e-01 4.9999999999999994e-01 5.2631578947368418e-01
    4.9999999999999994e-01 5.2631578947368418e-01 4.9999999999999994e-01
    5.2631578947368418e-01 4.9999999999999994e-01 5.2631578947368418e-01
    4.9999999999999994e-01 5.2631578947368418e-01 4.9999999999999994e-01
    5.2631578947368418e-01 4.9999999999999994e-01 5.2631578947368418e-01
    4.9999999999999994e-01 5.2631578947368418e-01 4.9999999999999994e-01
    5.2631578947368418e-01 4.9999999999999994e-01 5.2631578947368418e-01
    4.9999999999999994e-01 5.2631578947368418e-01 4.9999999999999994e-01
    5.2631578947368418e-01 4.9999999999999994e-01 5.2631578947368418e-01
    4.9999999999999994e-01 5.2631578947368418e-01 4.9999999999999994e-01
    5.2631578947368418e-01 4.9999999999999994e-01 5.2631578947368418e-01
    4.9999999999999994e-01 5.2631578947368418e-01 4.9999999999999994e-01
    5.2631578947368418e-01 4.9999999999999994e-01 5.2631578947368418e-01
    4.9999999999999994e-01 5.2631578947368418e-01 4.9999999999999994e-01
    5.2631578947368418e-01 4.9999999999999994e-01 5.2631578947368418e-01
    4.9999999999999994e-01 5.2631578947368418e-01 4.9999999999999994e-01
    5.2631578947368418e-01 4.9999999999999994e-01 5.2631578947368418e-01
    4.9999999999999994e-01 5.2631578947368418e-01 4.9999999999999994e-01
    5.2631578947368418e-01 4.9999999999999994e-01 5.2631578947368418e-01
    4.9999999999999994e-01 5.2631578947368418e-01 4.9999999999999994e-01
    5.2631578947368418e-01 4.9999999999999994e-01 5.2631578947368418e-01
    4.9999999999999994e-01 5.2631578947368418e-01 4.9999999999999994e-01
    5.2631578947368418e-01 4.9999999999999994e-01</output_scale>
  <inv_output_scale>
    1.8999999999999999e+00 -9.4999999999999996e-01
    1.8999999999999999e+00 -9.4999999999999996e-01
    1.8999999999999999e+00 -9.4999999999999996e-01
    1.8999999999999999e+00 -9.4999999999999996e-01
    1.8999999999999999e+00 -9.4999999999999996e-01
    1.8999999999999999e+00 -9.4999999999999996e-01
    1.8999999999999999e+00 -9.4999999999999996e-01
    1.8999999999999999e+00 -9.4999999999999996e-01
    1.8999999999999999e+00 -9.4999999999999996e-01
    1.8999999999999999e+00 -9.4999999999999996e-01
    1.8999999999999999e+00 -9.4999999999999996e-01
    1.8999999999999999e+00 -9.4999999999999996e-01
    1.8999999999999999e+00 -9.4999999999999996e-01
    1.8999999999999999e+00 -9.4999999999999996e-01
    1.8999999999999999e+00 -9.4999999999999996e-01
    1.8999999999999999e+00 -9.4999999999999996e-01
    1.8999999999999999e+00 -9.4999999999999996e-01
    1.8999999999999999e+00 -9.4999999999999996e-01
    1.8999999999999999e+00 -9.4999999999999996e-01
    1.8999999999999999e+00 -9.4999999999999996e-01
    1.8999999999999999e+00 -9.4999999999999996e-01
    1.8999999999999999e+00 -9.4999999999999996e-01
    1.8999999999999999e+00 -9.4999999999999996e-01
    1.8999999999999999e+00 -9.4999999999999996e-01
    1.8999999999999999e+00 -9.4999999999999996e-01
    1.8999999999999999e+00 -9.4999999999999996e-01
    1.8999999999999999e+00 -9.4999999999999996e-01
    1.8999999999999999e+00 -9.4999999999999996e-01
    1.8999999999999999e+00 -9.4999999999999996e-01
    1.8999999999999999e+00 -9.4999999999999996e-01
    1.8999999999999999e+00 -9.4999999999999996e-01
    1.8999999999999999e+00 -9.4999999999999996e-01
    1.8999999999999999e+00 -9.4999999999999996e-01
    1.8999999999999999e+00 -9.4999999999999996e-01</inv_output_scale>
  <weights>
    <_>
      -2.8222146800962322e-01 -2.4894124880708097e+00
      2.2264773383210926e-02 2.5912110306157841e+00
      -3.4255427421373215e+00 3.9267304330579700e+00
      2.8000185166284535e+00 8.0583430237543681e+00
      -3.4895938069941628e+00 9.4526913248518502e-02
      1.4830551661095772e+00 -4.3286037174458913e+00
      -7.2502470792061153e+00 1.9874514106461143e+00
      1.9493653362298473e+00 -4.1230881542167488e+00
      1.2445163149172110e-01 -5.6136936747749839e+00
      3.1992958805815994e+00 -7.5769552096200765e-01
      9.3083216918105582e-01 1.0657634248802568e+00
      -3.6394334629709268e-01 2.1688924997300929e+00
      -9.1898681906719926e-01 -1.2675724771056569e+00
      -4.0504118313263354e-01 -7.7102171159506239e-01
      -1.3900547894160868e+00 8.4213820742823065e-01
      1.2568003863271210e-01 -5.2823760415202585e+00
      2.4617066263938132e+00 -1.5997450700954496e+00
      -5.7466738670150042e+00 1.7452780872142309e-01
      -8.1522766188029838e-01 -5.6337031723859070e+00
      -1.0215668475122937e+00 -2.7776761386982791e+00
      1.1491363426336521e+00 -4.0600459050721058e+00
      -2.2273489181020265e+00 1.4725476588877326e+00
      -3.3832673195362917e-01 5.8839057753585946e+00
      6.9091356873989762e-01 -5.3581924875023668e-01
      -9.2887361156854087e-02 9.4020228765443670e-01
      5.6577361447112464e+00 2.6940495153723267e+00
      -2.0499535000127671e+00 1.3097003297035876e+00
      -1.4774323489885961e+00 -1.2232988662969277e+00
      -1.3873610899957448e-01 1.1789385579071607e+00
      3.0941512640157778e+00 -4.6839991013204179e+00
      -1.7229635529654794e+00 -1.5170409210843743e+00
      -5.4599963129847948e+00 2.0079059843737399e+00
      -1.2871220221345951e+00 -1.4443169027007756e+00
      5.8966614245477689e-01 -2.6787135895657501e+00
      -1.7840464996005763e+00 -1.9203702182944449e+00
      -5.6897672329124136e+00 -1.3169309103102395e-01
      3.1579497883559942e+00 -3.1559665985286556e-01
      -3.1008283193860100e+00 -7.2974642234783704e-01
      -4.5477382513721226e-01 -3.4765431449935500e+00
      -1.2469363848334856e+00 9.7333608416162287e-02
      -1.4174105671476833e-01 -4.1270355955113516e+00
      2.7879208482042031e+00 -6.7299615768956578e-01
      -3.7582951765485606e-01 1.8021129642319174e+00
      -1.5105681754817988e+00 3.7366617907012775e-02
      2.7318194904550155e+00 -3.8590216209397170e-02
      1.6774479544527610e+00 7.0488080485095905e-01
      -3.7387018778477832e+00 -1.5325727984802830e+00
      6.9967483977591327e-01 1.2808368523013713e+00
      -1.8436917873791607e+00 -1.6088826279121817e+00
      5.3783068931028222e+00 -1.9262207214795670e+00
      5.2578756293374678e+00 6.0982793093675909e+00
      2.6196158098972411e-02 1.4509824079847418e+00
      -3.2417618346956867e-01 -1.0555427812560052e+00
      -5.1699466392653026e-01 2.5124927138231246e+00
      1.3423788949887248e+00 6.7132400032989548e-01
      -2.0393850799844881e+00 4.1140056533190936e+00
      6.0476432062364216e-01 -3.5247701828709177e+00
      -7.4384218528840806e-01 -4.9224723965461553e-01
      2.8822625032302476e+00 3.6699162493339815e-01
      -1.4440934708430457e+00 -2.0022842282790578e+00
      -9.8145834765431517e-01 -1.5891130410628767e+00
      1.4436680349220048e+00 -2.3149198501456358e+00
      2.5280106738026586e+00 5.3697286729307931e+00
      -2.0375698201007575e+00 1.9776138247799985e-01
      8.9442588494208197e-01 6.4533943290950779e-01
      -3.4337037932738501e-01 -1.9058154263629214e+00
      -7.5705011094095953e+00 1.4364356016561040e+00
      -2.2876531979047106e+00 -4.4401212762227232e-01
      -5.3704132371915083e+00 -2.1724466613702473e+00
      1.5497053644891601e+00 -1.9621227126151475e-01
      2.5492247789784495e+00 2.0194046096569607e+00
      5.4319165532577243e+00 6.0618573543994825e-01
      -2.5317058138499999e+00 -8.3305200304066818e-01
      3.8077824508406954e-01 1.5884280057589697e+00
      -2.5078695326953491e+00 -7.4210629413703799e-01
      -1.7717863246323760e+00 -7.0945630860435627e-01
      1.2016115292310978e+00 -1.3422468277979054e+00
      2.6234537681424580e-01 -4.8233642442880376e+00
      2.0010805040142912e+00 -6.2900756732161700e-01
      2.5671162741468825e+00 3.0767870861926010e+00
      -2.8461803394256910e+00 -5.9721691272216004e-01
      2.9586217236048595e+00 -3.2391201848074216e+00
      6.2572341845879975e-01 -2.6583350969372690e+00
      -9.4484230868190500e-01 -1.9350187046179264e+00
      4.3751803370340636e-01 4.7868903217179781e+00
      -6.4931760913711889e-01 7.4057360840481823e-01
      -1.4364475917335984e+00 -6.9498718590551856e-01
      -1.4246479854586402e+00 5.3162715568379948e-01
      -1.4351392464958539e+00 -2.9332831986211358e+00
      -3.7823371586195247e+00 2.4548421070972624e+00
      7.4628362809612581e+00 2.5416775804443033e+00
      -1.3330083508008803e+00 -8.5281463352366615e-01
      -2.2926470537435786e+00 -5.9585956252691252e-01
      4.9752970004035174e-01 9.9228068120257740e-01
      -4.9325485939508500e+00 -6.8617186073785497e-01
      -3.0620737498690285e+00 2.3161726369077105e+00
      -7.6800253226546333e-01 -5.5107516193060526e+00
      1.9644915891705031e-01 -3.5107260126912232e+00
      6.5347602508100451e+00 1.6746598051496062e+00
      1.6818762182047302e+00 -1.6870806604762967e+00
      5.3581156133835757e+00 2.8544505965750661e-01
      1.0230300304874491e+00 -5.2456135812510887e+00
      -1.5552294916653187e+00 1.2878586166048920e+00
      -2.6406379029659441e+00 2.5787166445701231e+00
      -2.7417367210015431e-01 3.1133438028531879e+00
      2.4632978959682537e+00 6.7749949009832022e-01
      -2.2244441193479689e+00 2.0991084817295933e+00
      7.4680656455140115e-01 -2.2872106031879751e+00
      3.6667908494869099e+00 -1.7132356821226857e+00
      -3.2732151964719175e-01 4.4452694515285546e-01
      5.0963369953216997e+00 3.0002545819866340e+00
      1.4722523980430857e+00 1.0613050967374229e+00
      -4.6411570958263075e+00 7.1907932631226790e-01
      1.9739865628784450e+00 1.5283772174338111e+00
      -1.8248332604041146e+00 -3.8456069188693442e+00
      3.8418192758430468e-02 -4.5066419128723467e+00
      7.3896016048516822e-01 -2.7042958358742175e+00
      -1.3336373386455929e+00 -6.9843240859264821e-01
      2.9630159897252857e+00 -1.1206310170499136e+00
      -3.5769043391254938e+00 -8.0521210639424918e+00
      2.8983827270179301e+00 -1.0379445913610099e+00
      -8.1839213702183067e-01 7.4879590243498295e-01
      -2.4467622519531633e+00 1.8990112670502915e-01
      -1.2675993548247673e+00 -3.4962184567910204e+00
      -4.5338367827414017e-01 2.7609145522871321e+00
      5.1962728668099274e+00 1.7827482313371082e-01
      -1.8037707491377106e+00 6.1505635517473669e+00
      1.6042408196454239e+00 2.2608600681873278e-01
      1.8860135416357642e+00 -4.2444979995728804e+00
      3.6995043386468068e-01 2.2410991524855599e+00
      7.3664975442335683e+00 -4.6547728189987803e+00
      -2.4161716209699962e+00 1.7896902894535469e-01
      -3.2885791971264497e+00 -8.0670072665031095e-02
      -2.2241673521304559e+00 -3.7476965800141699e+00
      3.1137443086191419e+00 -7.6937140021096271e+00
      6.4390883807991595e-01 -3.8945762270137898e+00
      -3.3625247439710333e+00 -5.4143366554632721e-01
      -4.4388890050603607e+00 -5.4299272714750693e+00
      -2.4199914452324278e+00 -5.8319437499614191e+00
      1.1764997009167504e+00 2.5763344396190995e+00
      2.1202255729826729e+00 2.1078193061927157e+00
      2.8382818767929097e+00 1.6887706206697400e-01
      -1.5105979461150201e+00 5.0498061798858567e+00
      4.9044407471369006e-01 -7.3432419515898728e-01
      2.1095676803288295e+00 2.2341072082017126e+00
      3.2834198797554226e+00 -1.3264127381807209e+00
      -2.5671062411378043e+00 4.6835493507671302e+00
      -1.4787415681737779e+00 2.1413574012813581e+00
      -2.4626600283805948e+00 1.1153667276324326e+00
      6.3027265624920004e+00 1.7830370522117436e+00
      1.8354806442485799e-01 -5.2133070758055151e+00
      1.9919815272737464e+00 2.6599001772343955e+00
      2.5350871926336938e-01 -1.2514877790410726e+00
      3.3842128997129933e-01 -4.0681264231165642e-01
      -4.0865945741952316e+00 -5.1745116309187562e+00
      4.9389836939379350e+00 -2.4497490337243666e+00
      2.9590834633367962e+00 -1.5765639982777904e-01
      -2.8957424976057800e+00 -9.7795705946838085e-01
      1.5307797074634140e+00 -4.5806023716929865e+00
      6.1885664809555339e+00 -8.1677181146624260e+00
      3.5527935450882455e+00 -2.7610557301892173e+00
      1.1223418559072917e+00 2.2610268529936439e+00
      -3.6979601137893527e+00 2.9621261035273392e+00
      1.2555162805797853e+00 7.0673204992241323e-01
      -7.7486540656388359e-01 8.4926374336291610e-01
      -6.6786653510038629e+00 -5.5569930921068114e+00
      -2.8841301938660080e+00 1.9612318028512652e+00
      -1.9532766340312142e+00 4.3930815540311219e+00
      1.7476459249114025e+00 -2.1612568693134389e+00
      -1.7549213109226671e+00 5.2229149218916915e-01
      2.0139643451664160e+00 1.0400355379440342e-01
      2.5082538593926649e+00 -1.6111222835276588e+00
      1.1506151361550341e+00 -3.6453359045117595e-01
      3.4320642839740775e-02 -4.8390682919050514e+00
      2.0070396389271252e+00 -2.8498886388682303e+00
      3.7397803814161241e+00 -2.3931106287134898e-01
      -3.3528734125116268e+00 1.9780570798841228e+00
      -5.0909158896981133e-01 -3.7728888198111190e+00
      7.6011373618844558e-01 -1.4998141251798620e+00
      -2.7661861933199789e+00 -3.3560002577569161e+00
      -3.4993421187789995e+00 -7.4331640134118826e-01
      -2.4483841602837950e+00 3.2300460537350086e+00
      5.8049133518895513e-01 6.2429553916612441e+00
      4.3674416685918149e-01 4.2751117154547451e+00
      3.8254241690555997e+00 -1.0268363683461394e+00
      -2.4079371843187385e+00 -5.4909006538615310e+00
      1.0422930405934590e+00 -2.4516513663535324e+00
      -8.1966343791778506e-01 4.6430136040430930e-01
      -6.2052454719011081e+00 4.8941550320121108e+00
      1.3296408616076252e+00 -1.9842588691320608e+00
      2.9102828339728672e+00 -6.0140794782412668e+00
      -5.1879651843539278e+00 -7.0077373108053731e-01
      -1.9433358772540894e+00 -2.8786465469438527e-01
      1.3879205471708083e+00 -1.5126067972626305e+00
      1.0629274780713076e+00 -3.0353811783375635e+00
      1.5203255806518818e+00 2.3468168931836719e+00
      1.9208439268332851e+00 1.4995738321851466e+00
      1.2482524962086208e+00 -2.7970694871168011e+00
      -5.3109899619854266e+00 -2.1589151624295155e+00
      1.8509191193758683e+00 -3.5486512938703023e+00
      -2.5975181959791884e+00 -8.9273793743090479e-01
      1.9201005563635978e+00 -1.6486909426106662e+00
      6.2156514279878239e-01 1.2774894237744565e+00
      -6.4662937295796796e-01 7.2409424192222904e-01
      2.7672209603219304e+00 -4.6841781167654606e+00
      -6.6877473674929999e-01 -2.3695507543633854e+00
      3.1900636152451223e+00 1.5122503724797032e+00
      1.0928807219174712e+00 1.0384042575541232e-01
      -2.6237791866404836e-01 -2.9600127540966104e-01
      -5.6610283567927633e-01 -3.2206945504531186e+00
      -3.5149800628657468e-01 -1.7650720033412379e-01
      -1.1789353883826514e+01 4.4902985373459553e-01
      -3.0809955376345932e-01 -5.1618249738390853e-01
      1.0698040116403646e+00 -5.6605220206494389e-01
      -2.1829806949659258e+00 5.3149463151905829e-01
      -2.1531489894118541e+00 -1.6045765998913168e+00
      -9.8104833233300226e-01 2.2725678031640304e+00
      2.9279585271413472e-01 -3.2811933576124414e-01
      -2.1041774756597760e+00 9.3889497280249656e-01
      2.6369764061644534e+00 2.8637809508826790e+00
      4.4815512548718397e+00 5.1449519138968047e-01
      6.2204224135830124e+00 -2.9020980850139599e+00
      -7.4100026550411358e-01 6.3981686412005958e+00
      -2.5367520885973099e-01 5.7017126767612192e+00
      2.0512406927681512e+00 1.4321766207228217e+00
      -3.0881038350867662e-01 -1.1628451300569254e+00
      1.6260850609580479e+00 -2.1251225095031270e+00
      3.5436854411160916e+00 -5.2104072758636537e+00
      -5.0151703584121432e-01 -4.8770006684203132e-01
      1.5532915908938754e+00 8.7192827440771292e-01
      -5.0713622942208954e+00 2.3629902851649831e-01
      -1.7713117775059910e+00 8.1758516818405569e-01
      -7.6858141163873650e-01 -4.5010403391520226e-01
      1.4343417045534577e+00 1.8993206738931916e+00
      -8.6806142398010919e-02 -1.9752177346032767e+00
      3.8393619679567386e+00 7.9718796002583092e-01
      4.1152657739776460e-01 2.2306065664054917e+00
      6.4922147896321478e+00 -6.0591248799772313e+00
      1.2836231764677697e+00 -4.1389828426194821e+00
      6.9557711637418036e+00 -4.9189966248566357e+00
      3.9769889974668713e+00 -1.9559009246388503e+00
      3.4963039983783819e+00 -2.0878178482514769e+00
      7.9197783720099046e-01 4.7932832093937972e+00
      5.9151085510240653e-01 -6.6646207080988495e-01
      1.2477686888947228e+00 -1.1005999429625755e+00
      1.4063177446345845e+00 -2.9136188246645944e+00
      1.2199553505963306e-01 -3.9596898172877842e-01
      1.5322672127881984e+00 -2.3288596304127718e+00
      -4.8138842264478132e+00 9.8174969915993351e-02
      6.7528006478976090e+00 9.9724318346459040e-01
      -3.0758461205357452e+00 -2.1840201969679871e+00
      -1.6250297756161731e+00 -3.0503838909405081e+00
      -1.6744760579704019e+00 -1.8410891222953054e+00
      3.5793153752428610e+00 -1.5037421265863709e+00
      3.6663340566832932e+00 5.1486453589375070e-01
      7.9409157379616402e-01 4.1668390117463785e+00
      -2.1834066071775400e+00 3.2625414601040621e+00
      2.9507896231896931e+00 4.2553141845660092e-01
      -1.7401592444372918e+00 -5.4292396452224934e-01
      8.8319323296238339e-01 -1.7303677339071473e+00
      -2.7286254006713845e-01 -3.5279816318041590e-01
      2.7298501713957726e+00 3.2814728024215789e+00
      7.3509383098621637e+00 4.5405672412133162e+00
      -7.7951290274387419e-03 9.7186928346724077e-01
      6.9400241730038537e-01 -7.0544961841903675e-01
      1.2806794013728642e+00 -2.2070263088402702e+00
      3.4003848857390068e-01 1.9048615387864225e+00
      2.6425690742511341e+00 -1.3581753460273658e+00
      -2.9544055079022464e+00 1.4095225195904231e+00
      4.4837519630156258e-01 -2.2819172983903426e+00
      -2.6334923453028491e-01 -2.5762518304061954e+00
      -1.7971809429643149e+00 -1.9184756076440761e+00
      5.0858012338124023e+00 -5.0786540297385618e-01
      -8.1319063448430429e-01 -1.4949768461808808e+00
      1.1236532052401016e+00 8.9253803748568195e-01
      5.4921967595148047e+00 2.8945178131684002e-01
      2.2783585006951239e+00 -3.3718659886801561e+00
      3.1462160225568612e+00 8.5461471106962750e-01
      -6.5099902360041617e-01 8.6425382295646891e-01
      1.7366810551299992e+00 -3.5276626366584012e-02
      -2.2136447410217932e+00 2.5456785857516357e+00
      -2.5130594780550268e+00 -2.0682831272110451e-02
      5.3033247471509162e+00 9.4865636881159143e-01
      4.7217671256367888e+00 -6.0221788043258639e+00
      7.4685803170683551e-01 5.1032096140692973e-01
      -7.7608165506919402e-01 3.0378272737599046e+00
      2.4194028810997317e+00 -4.2991972453761615e+00
      4.6923003413519968e+00 5.7472354778778749e+00
      -5.0636771547748687e+00 -1.9024863762815367e+00
      -1.4296888300208190e+00 -3.6247826608751543e+00
      5.4915581478599620e+00 2.5714348284833197e+00
      5.0859287035589258e+00 -1.7651019937277455e+00
      3.9778877869809004e-01 4.7953353265256687e-01
      2.3081305949575404e-01 1.4159820814942550e+00
      8.9705296181316161e+00 8.4353012902052871e-01
      5.8525193347278694e+00 9.7059217190768865e-01
      7.5105202551370909e-01 -4.7815456926880735e+00
      -9.7631242967586707e-01 8.1361605526485121e+00
      -1.6768875021534735e+00 -1.9992489108780904e+00
      -9.3535708414648262e+00 -1.9890236932745267e+00
      -4.8607337157399009e+00 -4.6458964379931222e+00
      -1.0908915113971553e+00 -3.8907476615844760e-02
      2.8412651113289167e+00 3.0472568434377600e-01
      -1.2971015966829513e+00 -7.1662444312336824e+00
      2.6075693077513029e+00 -3.6976412798063025e+00
      -1.5553545906496746e-01 5.9647926759947412e-01
      2.0946503235182510e+00 3.7027928743431286e+00
      -1.5619402729657996e+00 1.1262935821419113e+00
      -2.7873365221056989e+00 -2.8607540373056874e+00
      6.9594749639575593e-01 -6.0304024903747055e-01
      7.6471477664100087e+00 5.0890537935030524e+00
      4.4997158457965885e+00 -5.1748355500292505e-03
      -5.6048477481879089e-01 2.0500266766888081e-01
      1.4636248876295135e+00 1.0276612322018057e+00
      5.4956666159975931e-01 7.1304296360728359e-01
      5.7327934602408603e-01 -2.1414618123368880e+00
      9.6757780215319256e-01 3.1278800412168843e+00
      -8.6373964673963166e-01 2.5846365018106314e+00
      -2.5806585485834312e+00 1.8769109422045815e+00
      -6.2705817295404183e+00 -1.3968088080813543e-01
      -6.6981670374415825e-01 -9.5124240159609230e-01
      1.0795993970271742e+00 -5.2970427713316823e+00
      1.3921921285253580e+00 -1.0493332672075326e+01
      1.8345365946098076e+00 -4.6055405401351379e+00
      1.1752438689816092e-01 -2.9069598676282475e+00
      -2.4151356856681332e+00 5.3494926846760320e+00
      7.0532194305261875e+00 -2.9968848777821013e+00
      1.0704624918298284e+00 -2.5854878740535696e+00
      8.1344069149937570e-01 -2.8344767923516172e+00
      -4.3724559553106035e+00 -1.7456204478211514e+00
      7.2539745211874038e+00 8.1548586213911527e+00
      -6.6974466401358446e-01 -1.7266092505705726e+00
      -2.2208398980012025e+00 4.0302886097530105e-01
      7.0040069454161225e-01 5.3681286698282369e+00
      1.4637398766755869e+00 3.3582981816388493e+00
      -3.4780050546729577e+00 6.0948201874177705e+00
      4.3698071599084487e-01 1.8874118300194134e+00
      1.5630415972185527e+00 -1.4489083972427705e-01
      3.0065383891068271e+00 1.4917726015255357e+00
      -2.7322611297464952e+00 3.4729201117552404e+00
      -3.7176540180682851e+00 -1.3196765961766859e+00
      2.1834723684618940e+00 3.8757112889996743e+00
      4.2195192819159484e+00 1.1842019970935045e+00
      -2.7066180425922832e+00 -7.5049871949301235e+00
      7.0581854520370912e-01 -2.4275068448922550e+00
      2.4618268045145149e+00 3.7735173303094456e-02
      4.5496959665253796e+00 3.2312473572287534e+00
      1.9863379919450610e+00 4.3050288827191824e-01
      3.7770155746697993e+00 4.5522013745034318e-01
      -6.1627301763692319e+00 -1.2808403755240054e+00
      7.7077474031342419e+00 -1.5529326920690587e+00
      1.4484581050261560e+00 -2.6644418264084071e+00
      1.2007174959182418e+00 1.2064707702632033e-01
      -1.6012963389594281e+00 2.2726797840179405e+00
      1.3700183457368402e+00 -4.0543419052477336e+00
      2.4584914725815166e+00 2.4225814479097738e+00
      8.4581540093177920e-01 4.2045467759596047e+00
      1.0159019361671062e+00 2.5372498631550879e+00
      -5.7731207352089475e-01 -8.0244500317877487e-01
      1.5288343302348952e+00 3.6010738620669447e-01
      -2.5353396015329408e+00 -7.8323009270188271e-01
      -4.0638900695194613e-01 3.0319059890383313e+00
      1.4652338931477622e+00 9.7323031341061828e-01
      2.6653839891846558e+00 -1.8676688314686056e+00
      1.3999450465608981e-01 2.6319256095804139e-01
      1.2797239426546316e+00 3.7105131065852150e+00
      -2.7516459432583207e+00 -6.1299902120844674e-01
      1.5896258673524815e+00 2.2124705948051839e+00
      -1.6234281127728467e+00 -3.2012178325687385e-01
      2.2674986761006055e+00 -3.6954062319032834e+00
      -3.1483739945231961e+00 -2.9230951957829374e+00
      -1.8383700379247794e-01 -3.6143676342307081e+00
      2.6763783588165829e-01 -4.0411321690724755e-01
      -2.3163458947535617e-01 1.2334524247828320e+00
      2.5325788336148531e+00 3.0810715748583370e+00
      -4.1519132843747659e+00 -4.8186482829137915e+00
      -4.7955965493908972e-02 -1.4976397798548171e+00
      -1.6704963715554224e+00 4.8805882146617883e+00
      -2.4398744210264351e+00 -3.5526775066305722e+00
      -1.4758950875508596e+00 5.8366551834998459e+00
      -5.6460633063620247e-01 1.8192139404868335e+00
      6.8773523545096790e-02 8.4162422640227696e-01
      -9.1525825090583179e+00 3.0619974205103468e+00
      -2.3578491548953000e+00 -2.1913189837049987e+00
      5.9145343113489757e-01 -1.9519198537233373e+00
      4.3548180466323355e-01 6.5855338980925247e+00
      -1.4589983567055049e+00 -3.0054964537665851e+00
      -1.2246658686194412e+00 2.6218528236433536e+00
      -4.3397476624875386e+00 6.1475098815801443e-01
      2.8795007424396890e+00 -7.0532213163068436e-01
      -5.2559830005676662e-02 -1.5180797774228723e+00
      -3.2681634519243898e+00 2.1146448758387865e-02
      -1.0349044591750181e+00 -4.8898732174779830e-04
      3.2264213419381038e+00 5.5222551081713434e+00
      -5.2459811368244376e+00 5.6381272723503006e-01
      1.1313306410391964e-01 4.5629909533538600e+00
      -2.1172491300079090e+00 8.3001205264128275e-01
      -2.9830541526234584e+00 2.1059913180720100e+00
      -4.7671529926766949e+00 7.4932644072400190e-01
      2.0711948781662981e+00 4.6120353824448799e+00
      -1.1268252925484941e+00 -2.2252926220319065e+00
      2.7077473157110421e+00 -2.5243179596053662e+00
      1.2288523779206266e+00 -5.9901376193953757e+00
      -6.6217783276545017e-01 1.5576510464939047e-01
      -3.0760471065659312e+00 -1.9689399303572858e-01
      -1.3374608389550635e+00 2.6074372389199474e+00
      1.0844856932978615e+00 -3.8630501130288719e+00
      -2.6064304238382423e+00 -2.2941131178301863e+00
      -1.5460696805153484e+00 6.5739846977037093e+00
      -2.9799425168704499e+00 -3.3246305817949892e-02
      -3.3681467870917783e+00 4.0376852430505045e-01
      1.6647883633292385e-01 4.1402388843431401e+00
      2.0275803839212516e+00 -1.4246341182625823e+00
      1.6101309957255339e+00 -1.5426007078790629e+00
      9.5724294151991560e-02 2.6461879919980476e+00
      1.6290306728705499e+00 -1.1231139453052461e+00
      -4.7575690513830710e-01 -6.1453383805443573e-01
      -2.1574225718293407e+00 5.6864991492604444e+00
      4.0388420126484625e+00 -7.4188651116567350e-01
      -3.3708250110639981e+00 1.7782797765782148e+00
      1.5182503450087879e+00 -7.3790164218532228e-01
      3.5579650045975053e-01 -1.6856439048952327e+00
      -1.8306267251048973e+00 -1.7423098699093634e-01
      -2.3410400482803007e+00 -2.5104504144265785e+00
      1.5732556497424025e-01 -7.5307458081599221e-01
      4.9844943758064977e+00 1.4969727059591386e-02
      2.4651925173537412e+00 -5.6968732128099626e+00
      -3.3594967354376576e-01 1.8285486501341786e-01
      3.3025202995634237e+00 7.5519818444501761e+00
      2.0500939083335505e+00 -1.8286131132949404e-01
      -3.7513805168214925e-01 -3.0347158632791471e+00
      2.5002447244036952e+00 1.2956295943990968e+01
      6.0783265408333698e+00 -7.9129534082462583e-01
      6.2954607170949295e+00 -2.8853349580943357e+00
      5.5973358022534656e+00 -1.8085770784639807e+00
      -4.4607836195714139e+00 8.2147775559132497e-01
      7.0389292778068535e-01 -5.5675248274501747e+00
      -4.2793282256890457e+00 -2.4812224352953383e+00
      2.7607495268581430e+00 -3.4608720977890178e-01
      -3.3969971672900261e+00 7.4597225358929053e-01
      -8.0870874929322334e-01 -9.3181435177709743e-02
      2.7228781978813434e+00 3.8579240233334156e-01
      3.6362764371836503e-01 -8.0220371310617955e-01
      -8.1822851941183317e-03 -2.1489646975468535e+00
      1.1647912796915634e+00 -7.2128251426292900e-01
      8.1254372520456641e-01 -2.1080153701279323e+00
      2.4878664354401208e+00 3.9338804633015938e+00
      -4.2898023119791464e+00 4.0707859515447670e-01
      3.6113418623441203e-02 2.5448357585249943e+00
      -1.3400001340717460e+00 3.4906297938695916e+00
      -4.9040976006112558e-01 1.3127771196765277e+00
      3.7909428628581904e-01 3.7018395697824086e-02
      -7.9062745296169704e-02 -2.1374298502644060e-01
      -5.9694435723730184e+00 2.1415025746788352e+00
      1.4144619709999295e+00 7.0572650049316288e-01
      -2.3306269907747108e+00 3.2572777637958645e+00
      -1.1753528279180088e+00 3.7240305536199680e+00
      1.7746072070327883e+00 2.6267836833959035e+00
      -4.2992988562477724e-01 -8.2120242159781065e-01
      2.1624006803433553e+00 2.4139444697996986e+00
      -2.6825720938381630e+00 -3.6692142050149505e+00
      -2.2194818363597149e+00 -1.8110821391677162e-01
      2.4560005363762540e+00 2.6919970907863564e+00
      1.8481697880299148e+00 -8.3172890248362352e-01
      1.5404443239781981e-01 2.4136562493682705e+00
      -2.4151651971025010e+00 -8.5045727586622355e-01
      -1.6731447635787744e+00 5.2964570708891046e+00
      -8.1830821179153701e-01 -2.0495748665788032e+00
      5.9487760073285534e-01 -1.2524195095452162e+00
      -4.3019318639246213e+00 1.7585676679901618e+00
      -1.5072443946366203e+00 -3.7749514864195405e-01
      -1.2367246612975107e-01 -2.9194853351515739e+00
      1.5760076588585037e+00 -1.6245585930931292e-01
      -2.0999292605159453e-01 2.8367415394277957e+00
      -2.7013072626330010e+00 -8.9451625309559901e-01
      -1.4338982204010386e-01 1.9496070857481556e+00
      -5.7439541822806603e+00 1.4407621454933290e+00
      -4.7695537663165290e-02 1.0065747651586070e+00
      -1.3356373596955207e+00 3.3091651894437085e-01
      1.6017695623993256e+00 6.2087418761158686e+00
      -5.3925602804131483e+00 1.7355998408796955e-01
      -1.0536086087395706e+00 4.5719909792823993e-01
      1.0950571106249707e+00 1.1955269418032084e-01
      -1.3256888390725021e+00 1.6583868662461081e+00
      -2.3707936741631461e+00 1.3476715200189802e+00
      -2.3750338216251259e+00 4.4989539454605476e-01
      1.6534330434942474e-01 5.4546192670239713e-01
      8.5718612807099137e-01 -1.2565386222778308e+00
      1.0777839987596585e+00 -7.3364674260499224e-02
      -1.1084960147278711e+00 1.2910324492088263e+00
      7.2315608651649743e-01 -2.8307187792714211e-01
      -4.5944691262619533e-02 -1.2291105801426105e+00
      3.5989153314506841e+00 -4.3422635513411267e-01
      -3.6042351157690580e+00 -3.8957208832055268e-01
      -1.0659158061686282e+00 2.2537381230541151e+00
      -3.3917280059028481e+00 7.8978110169868054e-01
      -4.4860554835678554e+00 9.0561089835175815e-02
      7.0272418129857550e-01 2.0097770589530413e+00
      2.1892254926824437e-01 4.3303090407859407e-01
      -1.1965170179338622e+00 1.8125927311693990e+00
      1.0596148820796392e-01 1.1139452641869365e+00
      -3.0801512479397569e-01 2.3144093992312960e+00
      2.9004943740557781e-01 -7.9588956807921774e-01
      -1.5560098876441379e+00 1.4847495151693222e+00
      2.9745782549063060e-01 -2.3564052204310168e-01
      -1.1237051345569575e+00 -4.1887199937734820e-01
      1.6891170903208605e+00 3.1446904006544218e+00
      -2.4271332117183333e-01 -1.3304069019716784e+00
      2.7512598514504663e+00 -7.5986661334508876e-01
      -8.4051067732475027e-01 -1.8012820672916360e-02
      -3.9163676000811520e-01 2.0630761926839822e+00
      6.6557272847413118e-01 1.6326940807305121e+00
      1.4957107155077516e+00 -1.0180155474877099e+00
      -4.1369973103931301e-01 1.0969280562793193e+00
      -1.0960760806685881e+00 2.9536089341188938e+00
      1.3262395147955852e+00 2.0596975434692815e+00
      -5.7496179667922682e+00 1.2600019438560883e+00
      -7.8314889693956702e-01 2.5642000537144258e+00
      -1.9842198385535397e+00 2.1482617581374055e+00
      1.5347938434785047e+00 2.2104258523935614e+00
      -9.1131144229986505e-01 3.8433465936303781e+00
      -2.3253957951492215e+00 -2.9537153203649424e+00
      1.6675322524914035e-01 -1.4666836465577435e+00
      1.3955161839617911e+00 1.0249260130752867e-01
      2.0026065826897335e-01 1.7924660543828766e-01
      1.6194690534019449e+00 1.5157231262554356e+00
      -8.4215987266572334e-01 -2.3496581246994470e+00
      -1.4967463370886763e-02 -3.8327295132207402e+00
      2.9736932789405337e+00 8.5884443850989578e-01
      7.5359309801489582e-01 -1.9898935083127554e+00
      -2.8905882968080254e+00 2.2865866376653514e+00
      -1.5591296383192321e-01 4.4564141547323660e-01
      -7.9359895941120340e-01 -4.3511651090718700e-01
      1.4154500726185306e+00 2.0040658038696013e+00
      -7.8796260746904268e-01 -1.6115749569091968e+00
      4.2641067814480644e+00 3.8375474639482228e+00
      -4.3043192584924466e+00 -6.2824576714248903e-02
      6.1997992005762548e-01 5.0442959517759645e-01
      7.0757209077674008e-02 1.8095586917587432e+00
      -2.3441647640850793e+00 -2.1452876424686322e+00
      -1.6413965736454325e-01 2.1057047015068500e-01
      1.6120211965744013e-01 -2.3916924459776845e+00
      -1.3056805453381646e+00 -2.7653274916959640e+00
      -9.3199949683947791e-01 2.1641091299308348e+00
      -2.2845870752712636e+00 1.9077256107103508e+00
      -1.9842304492271083e+00 1.6916510259307735e+00
      1.3304956949045299e+00 3.2799029569877036e-01
      -5.1794961629687497e-01 1.9003199401139501e+00
      7.4898531622314124e-01 1.1799698637267220e+00
      -1.8539757445386718e+00 7.1090138541729841e-01
      -4.0495235128873546e+00 -1.6807049958821435e-01
      -2.2709234179848288e+00 -5.6415317612967397e-01
      1.6069558047016832e+00 2.4470386379005608e-02
      2.1638272885770191e+00 -5.8872698388116174e-01
      1.3180207480843660e+00 6.4012287724410111e-01
      3.1668120268895428e+00 4.0859633763079986e+00
      2.0779894159701606e+00 1.4881045355583689e+00
      -1.4951387255523454e-01 -2.1281187564171571e+00
      -2.2403826052633873e+00 2.6116066644480478e+00
      -5.8043796850851193e-01 3.2169746630745815e+00
      -2.1018542455305678e+00 -1.3119877999569304e-02
      -1.1721454530305060e-01 6.7096094249756499e-01
      1.6207367080838748e+00 -2.2133272038842091e+00
      -3.7243744595789448e+00 8.9437395392355779e-01
      -1.5151231272486709e+00 2.3882188107163631e+00
      -2.7594598017681171e-01 -6.9384088875534655e-01
      -2.3205061410036745e+00 -5.5487074585877654e+00
      1.6552082610592243e+00 4.3084054864558624e-01
      2.8985572091626124e+00 3.9169039590361945e+00
      1.5795643021079002e+00 8.9106361441236792e-01
      -1.9062712081370075e+00 3.0678501502347544e+00
      5.0625083534502746e+00 -2.4920539272969684e+00
      -2.4242551556839720e+00 -4.7345089431188209e-01
      2.7805284051592398e+00 1.9795356078913444e+00
      6.4577749740415091e-01 -1.5861731841708735e+00
      -7.3410072470564539e-02 2.9972588856534998e+00
      -1.1577769480978388e+00 6.2971139341355786e-01
      8.2640871222764545e-01 2.5412212585689669e+00
      8.1403286255414375e-01 2.5120364958159076e+00
      1.8181668445572825e+00 1.1591653762783796e+00
      6.9674856034344383e+00 -2.4202149956732508e-01
      -8.6499948511770919e-01 2.0811178750018957e+00
      -3.5139252970932477e+00 4.8338568161224765e-01
      -1.4840879060092365e+00 4.9036653852216867e+00
      -2.2433375147201216e+00 1.3605060458579712e+00
      1.9881508093342628e+00 -1.4376398294924808e+00
      -1.9433860137551160e+00 7.0542899505170875e-01
      2.0936490461164983e+00 -1.3908885497637506e+00
      -1.9400979045834130e+00 7.0707098421001353e+00
      -2.6040896394226478e+00 6.8022705866825739e-01
      -3.9211548320158078e+00 -4.0719051631028608e-01
      1.0074216479643421e+00 -2.8119344313652056e-01
      -3.0367225315767271e-01 -5.5089251757203950e-01
      1.8631451576274385e+00 -2.2951223130094554e+00
      -1.0880995507476832e+00 1.5498623119427077e+00
      2.6920409248295920e+00 -1.2961692618191707e+00
      1.0011364914527938e+00 -1.2728247265783723e+00
      1.3201248976436855e+00 -8.1104630288923696e-01
      -1.8655730624395839e+00 -6.8329464314075961e-01
      1.0227118320117992e-01 2.1639517085031690e+00
      -2.1936170114111732e-02 2.8490407154367658e+00
      1.2894996589459857e+00 5.1881711456651458e-01
      1.6366988284540793e-01 -4.5764826830701943e-01
      -2.2893639724738022e+00 -2.0213853238498274e+00
      1.9530081467262568e+00 2.1123389516886197e+00
      1.2561174320422304e+00 1.0849607561488157e+00
      -2.7547241843359427e-01 4.1324269323276303e-01
      2.5832620918217311e+00 3.6888424929325652e+00
      2.2161319435207125e+00 4.3974974071072470e+00
      1.3171640590407090e+00 8.9568716970271953e-02
      -1.5929182554166406e+00 2.7636816489166982e-01
      -7.1169386035452487e-01 5.5062526321941663e+00
      3.9523712075167655e-01 -6.9231681086249419e-01
      3.7932417907714666e-01 -3.7945918077673624e+00
      1.8152923233120892e+00 -1.1930152896038477e+00
      8.1686622692302233e+00 7.8878777796996857e-01
      1.0296032868479372e+00 -1.3808535378186898e-01
      3.6706516301948006e-01 -2.8247230132539318e+00
      -1.6554431617463445e+00 -2.2669907576611741e+00
      -5.1065557000519779e-01 -1.6595642093183338e+00
      1.3533700486260578e+00 9.0665377399398772e-01
      1.4882072893616387e+00 -1.4623677970629065e+00
      -1.1773297725031366e+00 1.3722559300071566e+00
      1.6415654613392285e+00 5.2114520532657203e+00
      1.6022588161193194e+00 2.2326178292981878e+00
      -2.2566450704560794e+00 2.3626875454669660e+00
      2.7254748999560419e+00 -3.5147375036511130e-01
      2.1462214180953501e+00 1.6934490243441316e+00
      -1.6410480552515766e-01 -4.8036397336647801e-01
      -2.7658638443494059e+00 -3.1619323633980329e-01
      3.1578760664319494e-01 1.8245875339040512e+00
      3.8519895694181030e+00 2.3390042624404819e+00
      2.8111234627222745e+00 2.3906912843687826e+00
      -1.9114232410763925e+00 1.1430669566032770e+00
      -3.7475068273669541e+00 5.7515761133468257e-01
      6.2604269817847280e+00 -1.8359384211015164e+00
      7.6566648580379626e-01 5.7224420109545948e-01
      2.9203797672173315e+00 -6.3957308223478986e+00
      -3.2384695876360423e+00 1.0825454639119123e+00
      1.5955204153294620e+00 -1.3681981992584811e+00
      2.7991922648800993e-01 3.2688990528674271e+00
      -2.7199901466711274e+00 -2.1073514503847517e+00
      1.9437436804248274e+00 -4.3245976828808832e+00
      -4.3469287626963277e-01 2.5485874715382306e+00
      -1.7543501027957291e+00 1.0429020585725997e+00
      4.1569214836162605e+00 5.8527311755914158e-01
      -1.0951139679957764e+00 -3.7465218624019969e+00
      1.9861660052586922e+00 4.4009369714718144e-01
      -1.8875463151989802e+00 1.5829063296634172e+00
      1.9201916135225239e+00 -7.7063870338889084e-01
      -5.2441261055494683e+00 -1.3131778031178973e+00
      8.0432397048557547e-01 1.0034986029865809e+00
      -1.0821980956201531e+00 -3.6600535407573664e-01
      -2.6056279689332311e+00 -1.3671229138442327e+00
      3.2889135309029509e+00 3.2070359958564854e-01
      3.6438877167788939e+00 -1.7850794834678951e+00
      1.4066467488209802e+00 -1.3884244697625482e-02
      2.7870704914925404e-01 -2.1488896198632372e+00
      -1.2051897860492893e+00 9.5218936408032995e-01
      4.2697103039511236e-01 -4.7884701560849952e-01
      -4.3395996657091080e+00 2.5460019513068075e+00
      -1.7003938224032300e+00 -3.4076033385976072e+00
      9.9651636914218678e-01 9.9404698726270960e-02
      2.0998415885800066e+00 9.0809275516101284e-01
      -7.9695267197668362e-01 -4.3201131416931267e+00
      1.7515457880911889e+00 -1.2132754821313454e+00
      2.4984117590655117e+00 -2.4463202895225602e+00
      -9.8373328963621287e-01 -1.2700004556714928e-01
      -1.3132331899178626e+00 -1.3328997129187588e+00
      4.2456968670107367e+00 -2.5584658156325797e+00
      -1.0345977268827387e+00 -7.2445925665971682e+00
      -7.2002562672303327e-01 1.0818733892359009e+00
      -6.8186653330238711e-02 1.1630018397604216e+00
      -3.6845806845440920e+00 7.8567304916494296e-01
      1.8941631582454042e+00 -1.0324792352290763e-01
      -3.6333442584418241e+00 -4.1253922731380968e+00
      1.7238451785513644e+00 2.0629534880853656e-01
      -1.8214647643537610e-01 -3.2625052004838850e+00
      -5.1152907224033850e+00 1.8038833197379672e-01
      2.9020337040396216e+00 3.8320169396969375e+00
      4.1025491070357811e-01 1.3226094720731534e+00
      -1.8651859147605004e-01 -3.2634734600015038e+00
      -4.2953137127842620e+00 -2.8637647640187858e+00
      5.2451877402822156e-01 -1.6543178323554260e+00
      -2.5922263013863373e-01 -9.9148456429280063e-01
      -6.9118458251997794e-01 2.2349694455619029e+00
      1.9617626588859531e+00 -5.1714642984987247e-01
      -2.8243244999192552e+00 -1.1169630489732383e-02
      7.5685789256909969e-02 -6.3192856879742387e-01
      4.5449424567553298e-01 6.0977902978995779e-01
      -7.2867586353209834e-01 -1.9840973941779263e+00
      -2.9055512478255654e+00 -2.2279302608986620e+00
      3.4943647498166999e+00 7.2452060145071140e-01
      -7.9651614301578300e-01 -1.3955459140110213e-01
      2.0362426256969366e+00 -1.2072830437047881e+00
      -6.0270128955585101e+00 -3.3050339569197984e-01
      1.5090148925386915e+00 2.0778440831841154e+00
      -5.1934961665729573e-01 -1.3839837801430865e-01
      9.0934831395668081e-01 8.4774455912260860e-01
      2.5588930462106046e-01 -1.0005486372353429e+00
      2.2537226684217724e+00 4.5067481855914152e-02
      1.9931834737689720e+00 2.5563881351128011e+00
      1.1751017860778263e+00 -6.6164510548388344e-01
      -2.1134895581287791e-01 2.5352368528968165e-02
      -2.8305403180513024e-02 -1.9834763521387648e+00
      4.8585953826693178e+00 1.5684105025701400e+00
      4.2639954195084588e-02 1.3781750853938441e+00
      6.5849781606546573e-02 3.7526549204144195e+00
      2.0811585774631043e+00 5.1503158957057926e-01
      -2.1624925872882002e+00 1.8579232311848646e+00
      5.6237038776459869e+00 9.7557931841517087e-01
      -1.7279176063317623e+00 -3.9908543697002572e+00
      1.8355581703008350e+00 2.2017800457957243e-01
      2.3436096373638575e+00 -1.3242288049434083e+00
      1.8508538226079099e+00 -2.6220420872173920e+00
      -1.7022786937123041e-01 -2.4115101987474947e+00
      1.2783354586691980e+00 -2.2323271594162875e+00
      5.9790640640427151e-01 1.1399238723518206e-02
      1.8123913001945389e+00 1.1995388910961344e+00
      1.5103263443812891e+00 -1.2740120710927677e-02
      2.2961568657941003e+00 2.5395822268535468e+00
      -1.9733067859042726e+00 -3.2965257371886707e-02
      -1.8540612029346297e+00 -6.4329173993127204e+00
      1.7671914167810234e+00 -5.7730156586371717e-01
      1.4586449587109089e+00 -1.2244462949691566e+00
      -2.8861284374138299e+00 -3.5312931428147678e+00
      7.5424854954652332e-01 2.8733408405192423e-01
      -1.6626240330559365e+00 1.3987413191963163e-01
      -2.5341822832351859e+00 1.2111484195483033e+00
      7.4939725922544753e-01 2.0294421217583185e+00
      -3.9927693114077849e+00 -5.2981115567822901e+00
      3.1334081836424894e+00 -3.1733456830638951e+00
      4.3731210246007585e-01 9.1687011917608385e-01
      1.8534964999974750e+00 2.1786172639100760e+00
      1.0386874865934876e+00 -3.3919433175270268e+00
      -5.1547116354098126e+00 1.4736761849403754e+00
      1.9526271845503522e+00 -6.6033074290049065e-01
      -3.4327848027426784e+00 4.2813945593820799e+00
      4.2794598842789480e+00 1.1692208075069388e+00
      3.6726647232810765e+00 -6.5512485146880310e+00
      2.9464091674415225e+00 -5.0647762597135437e-01
      -3.7348212089750970e+00 7.9862398541218638e-01
      -1.1638914672581102e+00 -9.5267355022890428e+00
      2.1648272656997132e+00 3.4728970196137641e+00
      2.1358391759790347e+00 5.3214129126820742e-01
      -4.6065898693979994e+00 -1.0447573055531270e+00
      5.7812215912814824e-01 -7.2763831799276861e+00
      -5.8516786296968959e-01 4.6392242827282942e-01
      2.0672419227319692e+00 -2.7162319314186663e+00
      -1.1617774113891988e+00 7.7022085971624743e-01
      -1.2117496842769511e+00 -1.6063664943637210e+00
      9.8237247174989095e-01 -4.6127049569935492e+00
      1.2845992960274621e+00 8.9037728189181509e-01
      -2.5577821297822769e+00 -3.2841527864833524e+00
      -2.6175572524127690e+00 -5.8892150968238299e+00
      -3.1565843291129831e+00 -2.2511796036242009e+00
      4.0117513567483636e+00 2.6752867201009412e-01
      2.2851501413754773e+00 -3.5980690746398114e+00
      1.9981548668474824e+00 2.4282073456019631e+00
      4.1071647545015710e-01 -2.0378153677506852e+00
      -2.4277081096124831e+00 1.0925912482775140e+00
      -4.3904926918173341e+00 -2.6294799361107453e+00
      -9.2780835838454312e-01 -3.6928940577829290e+00
      7.5685350783812178e-01 -1.1049270866007055e+00
      2.8126418228629073e+00 -1.4258970127722674e+00
      1.1524519260186726e-01 1.6880488263578128e+00
      -6.8829648805959964e-01 -5.3778180636594781e+00
      1.2386876520965604e+00 -3.8066871245599843e-01
      9.2737705647792301e-01 2.4513289832433522e+00
      7.2522588006680266e-01 1.7749820135240510e-01
      -2.7117796473933322e+00 -4.4343892058807137e+00
      -2.4751930674744776e-01 6.8393619866593767e+00
      -1.2609077428219886e-01 -2.8124345706527726e-01
      1.7156100978237865e-01 3.9850399091235922e-01
      -3.3139487642112337e+00 2.2599662562682576e+00
      -5.3114924921495088e-01 2.6295846368455749e+00
      -5.7050028857237853e+00 -3.9756537928581857e+00
      8.7750123511288280e-01 2.1180631699919483e+00
      1.0702842580145326e+00 -2.9759103738859785e+00
      -2.2764654729549996e+00 4.7239039275964179e-01
      -1.0470470642404124e+00 3.1416406592268467e+00
      -4.1976335375403524e+00 -1.7020958357909813e-01
      -6.6606224643674441e+00 -7.3234185952019004e-01
      -1.9511352019427899e+00 -2.5863236968622130e+00
      1.9412489525778309e+00 -3.1460815109587731e-01
      -6.3348904295459729e-01 -7.2794054216601856e-01
      7.0372724486617244e-01 -8.6369803185375416e-01
      2.2419944110064089e+00 -7.9630827437728213e-01
      3.1502217359010580e+00 4.4440607010080493e+00
      1.1139253905792550e+00 -5.3568126279605621e-01
      7.9274786015334631e-01 -4.7366234548799326e+00
      -5.2656950369519695e+00 6.3051726875100629e+00
      -4.3903108106369731e-01 7.7575454631370089e-01
      -7.4715249469740159e-03 3.1032991426765406e+00
      -3.4946430274953255e+00 2.2335768362164155e+00
      2.6388600262972511e-01 -4.5006744743129490e+00
      2.1188024957293048e+00 -3.2907752415299800e+00
      2.7113513208534532e+00 -3.7103157200677592e+00
      -3.2802169908919199e+00 -3.3356493157855640e+00
      -1.8559889923036124e+00 -2.9251471531337749e+00
      1.0774539410254642e-01 -7.7267790476290965e-01
      2.2282290456710530e-01 1.6294021934405720e+00
      -2.8158217364634108e+00 2.9981332573459838e+00
      -8.1136244513730083e-01 2.9595437766710755e+00
      4.7610772647463078e+00 -1.4308690377367110e+00
      4.0910311226410370e+00 -4.1649279460801560e+00
      4.4338642957691754e-01 -1.0103081868823067e+00
      -3.5585168981263702e+00 6.1922285042292913e+00
      -7.5177376097027038e+00 1.2905081292322695e+00
      -5.9774006555033388e-01 4.7275248573918005e-01
      1.5393573566391003e-01 5.0618179903830418e-01
      -1.4225955740786165e+00 3.7213534111995390e+00
      -2.6424979777700126e+00 1.2731685657943816e+01
      -1.5605358078336946e+00 3.8872629028945971e+00
      -6.6479467951250504e+00 1.5529409326305368e+00
      3.8827339889190955e+00 -1.7483831103195593e+00
      4.5000131767331677e+00 1.1185178909455831e+00
      2.9325702491371399e+00 -9.0368505887756501e-01
      -3.2552457092176037e+00 2.5422871289725331e+00
      6.3327079822690546e-01 3.7792838958892832e+00
      3.1827652398446089e+00 2.2104375290685212e+00
      1.0286621501580380e+00 1.9169741658711009e-01
      2.2912218430534988e+01 3.8312996220640683e+00
      2.9061129050820644e-01 5.4944554445315381e+00
      -3.0322478778243500e+00 -1.3956435600068270e-01
      1.3330508156000209e+00 -8.3739032419141834e-01
      4.5903264495169277e-01 -8.9461895393278323e-01
      -5.4108418960332800e+00 2.1146943469263307e-01
      -1.4232874573792178e+00 -6.4341373830921145e-01
      -4.6008131925138800e+00 -1.3255805913107217e+00
      -1.1435551587249762e+00 2.7626732283912636e+00
      -1.1954649186066615e+00 -2.1607847546349666e+00
      2.5246591400253902e+00 4.4925924633218206e-01
      -7.9466642420571332e-01 1.4557447520359026e+00
      5.7833982236719779e+00 5.9381242595558055e-02
      6.0676834103284216e-01 1.6193843708880284e+00
      1.7696253798435084e+00 -7.7626483559064696e-01
      -3.8248868813769370e+00 6.8658277834437760e+00
      9.6589233743202907e-01 -3.4174161435230976e+00
      -1.6866398849865918e+00 -2.6902068399476409e-01
      4.2939066896581988e+00 -3.2953747984621540e+00
      -2.0961812429197002e-01 3.0808437878501254e+00
      2.8632018425931410e+01 1.5886160305755750e+01
      4.9832524763890005e+00 7.5713360425725202e+00
      -3.3332392260137356e+00 1.4063727345227657e+00
      -1.5473768895375071e+00 -9.4740039381018015e-01
      1.7493274019073948e-01 8.0801813939309541e-01
      -7.7158606227492372e+00 1.1403241441194827e+00
      2.4172745518017145e+00 2.3893045857095432e+00
      -2.1126804133684280e+00 -1.8892123862670880e+00
      1.8111884012092800e+00 8.0180355850892457e+00
      -3.6804353440453004e+00 3.6726623829505212e-01
      -2.8639524937494527e+00 -9.2253293868980915e-02
      -6.0113638306665793e+00 1.0646441741498118e+00
      1.3146215752334292e+01 8.4538363211719769e-01
      -5.4947585120690681e+00 3.3613504185575924e+00
      2.3868466590591919e+00 -1.7334851503972831e-01
      3.7542662292691942e+00 9.8195139983113968e+00
      -2.6157380919824282e+00 4.0317109703367207e+00
      -5.2350650342284651e-02 1.9046610162986131e+00
      4.4693749690512288e+00 -1.1885777693424535e+00
      -4.9589717215968649e+00 2.7572101916638192e+00
      2.0165491766448604e+01 1.2690080840383288e+01
      6.7077126722530460e+00 3.3814635849890249e+00
      -7.8071162701717816e+00 4.3344784334160164e-01
      -4.6058665925151141e+00 -2.1441202001555424e+00
      1.3691767414934748e+00 9.3357690900106061e+00
      -4.7128964394568440e+00 -8.3232951549636380e-01
      6.5127473932037159e+00 -1.5509042477568610e-01
      -4.9203642407131243e+00 8.9115084435836089e-01
      -3.7881371349281463e+00 5.7596380563559011e+00
      -1.0861345665141606e+00 -2.6110243072557946e+00
      3.0644613936675764e+00 -1.2154612078981537e-01
      1.5807849519569819e+00 6.2453964140162812e+00
      7.6048550447756567e+00 -1.7819468137866228e+00
      1.2417736198093008e+00 3.2424592763350275e+00
      2.1318172823441341e+00 5.2340081148614557e+00
      3.1421344320068547e+00 2.5829559875228780e-01
      -3.5279303670382340e+00 2.8070151679873812e+00
      2.3821352506979836e+00 1.3114512399427463e+00
      -1.5891308556461876e+01 -9.1367189484408362e-01
      -3.7472173478278874e+00 6.5824509475144959e+00
      -7.6164584657146479e+00 3.2001788176757691e+00
      9.9634840335446313e+00 -8.8672287851439862e+00
      -5.6458698860412584e+00 -1.3870701180443412e+00
      -2.1165021016296808e+00 1.0689095809619891e+00
      -8.1772218968820598e-01 1.7659202330905092e+01
      2.1517439189866985e+00 5.0096378540879245e+00
      1.1311358639056279e+00 -9.0307180728343273e+00
      -3.8221690889345674e+00 3.1616241708617192e+00
      -2.0675858410712480e+00 2.1859732812950474e+00
      2.2821205046957860e+00 -8.0378092425150243e+00
      2.7294817143872177e+00 -8.9656298396369349e-02
      8.5398053136976557e+00 4.4942795699096125e+00
      -4.5956267403350308e+00 9.9767274661859795e-01
      -3.7412743419246848e+00 6.2181009437860213e-01
      -2.4482379487998958e+00 4.0603214476561647e+00
      -4.7112890491389481e-01 -2.0765488775234826e+00
      3.8860714726290879e-01 -4.4304040699072961e-01
      4.2443201220883484e+00 -4.3718142124588484e+00
      -7.6428990961954435e+00 -2.5555105980223911e+00
      1.3154790586004669e+01 7.3855751616422181e+00
      -5.1660862205833666e+00 1.2798013897274094e+00
      -1.2859550912492963e+00 6.2189994180306041e+00
      6.2021598731364891e-01 4.5168589069075633e+00
      -1.2502858437221853e+00 6.5181897699231852e+00
      -4.3893173248819588e+00 2.1840972177245920e+01
      -7.0810869883733893e+00 -6.7747051099079592e-01
      -6.3862854054230160e+00 -4.3930616594395637e+00
      8.5670498213813229e-01 1.3455617829040547e+00
      8.3961885066063824e-01 5.5128380854654369e-01
      -6.2575267309226112e-01 -9.8244440227633358e+00
      1.9679042465516938e+00 -7.9276100853733864e-02
      6.1367436223234231e+00 6.4511434371675271e+00
      4.7674340014517496e+00 -2.1978152651425624e+00
      -5.4854327429125116e-01 4.4154636755467963e-01
      -1.4796786446532402e+00 3.7680843394870078e+00
      2.8395937443339081e+00 -3.6461738434136404e+00
      -8.6967758198531016e+00 -1.2299735770658031e+00
      1.5204352744953514e-01 1.0523819403231025e+00
      9.3848196738466250e-01 -2.8470276386163453e+00
      -2.5442024031870800e+00 -1.2418608204705654e-01
      -3.0870218809712662e+00 3.7612456246509551e+00
      -3.9255961620021842e+00 -2.0456291408884240e+00
      -2.6800982264625692e+00 -9.0072942808191281e-02
      7.7310643778985899e-01 5.7161812406867851e-01
      -1.1694648461093593e+00 9.0529844701607036e+00
      -1.3291255966222881e+00 -7.2680443026353503e-01
      -1.3538404128967725e+00 -1.4370370534101158e+00
      -4.6251094613351134e+00 3.8049547227459959e+00
      -9.9957973901763930e-01 4.7789191370352384e+00
      -2.9530553984903500e+00 -2.7713221526027981e-01
      -3.5924551941280320e+00 1.4728907230864405e+00
      -2.3018791920845708e-01 6.6499777135490818e+00
      3.8956073825324511e+00 5.9729531800070959e+00
      -4.3217322087500225e-02 -1.6044784361903870e+00
      2.1137108411510526e+00 1.8208510730857843e+00
      2.0377281547299462e+00 -4.0235717894957368e+00
      6.1557525001426496e+00 3.6515700790281245e+00
      -2.3297148489324512e-02 6.3611497966895358e+00
      -2.4577910591609737e+00 2.5741333655295495e+00
      -1.1512514174629747e+00 -5.2115425058934246e+00
      -2.5819806599128325e-01 9.1233272678574515e+00
      -7.3812457567667722e-01 -4.7876432982001234e+00
      3.6230519247232009e+00 -6.1722441169167279e+00
      3.5510237034293346e+00 1.5224429993352337e+00
      1.2744951890802632e+00 -2.3742937781263436e+00
      3.6708283055997897e+00 3.2466324041555019e+00
      4.6654568929256168e+00 3.0014669453249493e-01
      2.1659519457617762e+00 9.4055744891379278e-01
      -8.5445219227238556e-01 2.3535980909827425e+00
      -9.0468564656654282e-01 -1.7190504439011702e+00
      -3.1755860457262881e+00 1.3328184568720967e+00
      -3.4796467340141546e+00 5.2926477287174638e+00
      4.4365274167637594e+00 7.4630121093357138e+00
      -1.2162494916694102e+00 3.1226605336216173e+00
      4.5890712149522752e+00 3.9724616005088191e+00
      2.8809332420461833e+00 -1.3777663355640599e+00
      9.0559762850560173e+00 7.3747389465082347e-01
      -1.2217722551059291e+00 2.7219710733741684e+00
      -1.0081110061576376e-01 -2.9570707437989380e-01
      -3.0372914521806904e+00 -5.1853825358503682e+00
      -1.7853959788062670e+00 2.3086315657875603e-01
      -3.7485898433441003e+00 -3.6763930424412855e-01
      2.8280698468932868e+00 -6.3409444919915190e+00
      3.1969390031885339e+00 4.4601741519425508e-01
      -8.4203460708910927e-01 -9.2502730325188836e+00
      2.8034429942995125e+00 1.4466312734874911e+00
      7.1147214511072931e-01 -2.5112414516569128e+00
      1.8421397341369183e+00 3.5029620498119318e-01
      -5.1691272982683245e-01 6.5921206781929103e+00
      -1.4776249922912348e+00 -1.0839103576937708e+00
      -3.6571562590301654e+00 1.5950685711505133e+00
      -3.3547135333415734e+00 -1.9183775729304176e+00
      2.6302887213771990e+00 7.1915914649112196e+00
      -1.2717273689539852e+00 2.0536730016186362e+00
      -4.4615978111602193e+00 3.7285068657761360e+00
      1.4736699319724592e-01 1.6099805126513016e+00
      5.2728285347979460e+00 -2.4259329739836857e+00
      -5.6534817843271519e+00 -5.9416067148919660e-01
      1.6688446641185326e+00 -1.7575582586377021e+00
      -1.3254953690483209e+00 -7.2081253471307560e+00
      1.8777415983288019e+00 -2.7096002748470477e-01
      -4.4669112206812747e+00 -4.8884515528381094e+00
      -3.6412353309075627e+00 -4.8200417533842197e+00
      2.0477368201066466e+00 1.7406256855650015e+00
      -2.1387977820182438e+00 -5.5808882564057205e+00
      -4.7610518787224905e+00 -3.0416241513705535e+00
      -1.2104804538119409e+00 -4.7158436725431967e+00
      2.1490676846708419e+00 3.8671285607978323e+00
      8.9518027234809749e-01 -7.4293342439171772e-01
      3.4897662399333595e-01 3.4163014500415723e+00
      -9.1317507673983958e+00 -6.2480406283955736e-01
      5.6289147755360730e-02 -8.3418370115411455e-01
      -5.9877965168478244e+00 2.6576424635949554e+00
      -2.2981618278666116e+00 7.7166129502716290e+00
      2.7013770664696461e+00 2.6564646709263245e-01
      3.7108056095038955e+00 -8.4945600265884480e-01
      -5.5728375981999045e-01 4.6755480589665133e-01
      -4.9813727616271315e+00 -4.2637179983064172e-01
      -2.8613305033718456e-01 -2.3688864192668442e+00
      -7.8010639058445641e-01 -1.9902223862267587e+00
      -1.0886326787052576e+01 2.0814692162410120e+00
      -2.3330144964464270e+00 -6.5566014526825489e-01
      3.5456496585973807e+00 -6.8461123643291832e-01
      3.7644820593164763e-01 -4.4765730278007415e-01
      -1.0421190779648128e+00 -2.2526980940371475e+00
      -6.6086370764643068e+00 1.2131577007946464e+00
      -3.2229088147101210e+00 6.5459526805323562e-02
      -1.6554683926603966e+00 1.6426253203615526e+00
      -3.7044631584268789e-01 8.4479438417682573e+00
      1.5032075496512263e+00 1.3920351044106924e+00
      -4.8125931069489836e+00 9.5808171776601547e+00
      -4.2177175386513994e+00 -7.0764790698866847e-02
      -5.5255947623886676e+00 1.8844245447749927e-01
      2.7957613675429296e+00 -2.2217686264908671e+00
      -1.1624863591493901e+00 -8.4919664951686151e+00
      -5.3446101363271525e-01 -1.7151803228697344e+00
      -5.0302333792067455e-01 -8.9769134149290064e-01
      6.1980868527263866e-01 4.1542699040992721e+00
      3.7632783525740421e+00 -4.7370144386939952e+00
      -5.6168188027728816e-01 1.7487739261178490e+00
      8.2833856474010705e+00 -5.1802726608050664e-01
      -1.4515548281191635e+00 1.7620667045127565e+00
      -2.1275360576721205e+00 1.0107477358262646e+00
      3.6408500731676305e+00 -4.5525109052158247e-01
      3.0938021968553651e+00 -3.8281856358284050e+00
      -2.1861725149454556e+00 5.2265591753428409e-01
      1.4854827876347934e+00 4.6786288313715652e+00
      -5.2519384651524481e+00 1.8551567464608991e+00
      -4.2181102232000462e+00 2.8502591695283850e+00
      3.7392203819048899e+00 3.0926601154086431e+00
      -3.9047061137198895e+00 6.5705772550851582e-01
      -2.2613223129761275e+00 3.0671057798654022e-01
      -6.1355110412392244e-01 9.0227276963224889e-01
      3.8856232865212510e+00 3.9489598534726684e+00
      2.9927180439479284e+00 3.6085371992290076e+00
      2.8526091598817631e+00 3.0426848698022848e+00
      -3.1222258377079837e-01 -8.7289760623641772e+00
      -1.5424540465484418e+00 -2.9671061653609482e-01
      8.6849184501414882e+00 -7.3651163071826335e+00
      -5.1361412244341131e-01 6.2832126393783199e+00
      1.4697588678954384e+01 1.1958201443288452e+01
      -6.4024547427588829e-01 6.6338060491881352e+00
      -4.3121228679060550e+00 1.8262998111365877e-01
      8.5942223063254530e-01 1.7163285887794493e+00
      -1.0798953516822249e+00 8.3201496785169193e-02
      -6.5569321820225390e+00 2.4255020670658332e+00
      -3.7759603696714343e+00 -3.0564973627021924e-01
      -7.3098600688349471e+00 -2.9820938122235940e-01
      -2.1399015092282796e+00 5.4766949002254108e+00
      -1.1105645802472406e+00 -8.1355201400378920e+00
      2.5354997938540715e+00 8.4626832162668253e-01
      -2.0833101952524076e+00 8.0546472588548284e+00
      -3.9576129895601131e+00 3.0016083750893179e+00
      1.9672986962877106e+00 9.7382863140841671e+00
      2.1771470785308513e+00 1.1431689416397082e+00
      7.0715794718761176e+00 9.1433552124221578e+00
      -7.7550178366000144e-01 -1.5670383078469399e+01
      -5.4094410067897218e+00 2.5244012160101978e+00
      2.8597638194969974e+00 -2.5581058107396757e+00
      -7.1818946044427463e+00 2.0612297548433096e+00
      2.5214779631195043e+01 2.9959177421060992e+00
      8.1884199793528705e+00 2.7404548488581919e+00
      -1.1163576745935024e+00 -1.5096786997142366e+00
      -2.8219992306840376e+00 1.7873175240131765e+00
      -4.1400672051536693e+00 2.5387087124964296e+00
      1.4659029741368725e+00 2.6778982770347080e+00
      -3.3138260725535931e+00 5.2430119167716205e-01
      -9.4565171948819806e+00 -9.9818783569211955e-01
      -4.3766574131264724e+00 7.0194702899557742e+00
      -6.5291732396636826e-01 -3.9970666866969573e+00
      -1.0461225657472255e+00 -8.4890679528279153e-02
      6.7417719325436289e+00 5.2778539993912030e+00
      4.2258398572271938e+00 3.9848929580137499e-01
      -3.8416434716985139e+00 8.9658111175906647e+00
      -3.1328927915863152e+00 5.4728879329597628e+00
      -2.2107685809621991e+00 7.0110574982729021e+00
      3.2296705976119595e+00 -7.4580346650279123e+00
      -3.6394415019665853e+00 1.0087635617005868e+00
      -1.0460086126328111e+01 1.0262224964205569e+00
      -5.3945429662746989e+00 7.0358423952977311e+00
      1.1074269650331740e+01 -7.2117236304212118e-01
      8.1405791354436996e+00 -7.0211136512625361e+00
      1.3966090950916061e+00 1.2017591045737996e+00
      -8.8933604928294638e+00 4.7857764612369387e+00
      -4.4386685114685971e+00 1.4326678086454226e+01
      2.9195446406997054e+00 1.2876660513583855e+00
      6.0927547289219701e+00 -1.7305658171821068e+00
      -1.3755450304203671e+00 4.4459440006908011e+00
      5.1495086557982255e+00 3.7358135803108912e+00
      1.1045609744837852e+00 -5.9266029653979109e+00
      -1.0627387004244626e+00 9.9493743658194755e-01
      4.5722095807456009e+00 6.3366862245516611e+00
      3.5180455938744903e+00 -1.0868892473543561e+00
      -4.0750150411226826e+00 -3.8668345323013678e+00
      -2.8329209166932947e+00 3.3717757066535414e+00
      -4.4767497987530733e+00 3.7730368107252006e+00
      4.6017058092966734e-01 -1.2667209796171974e+00
      -1.8861918731387501e+00 -3.6222462540687839e+00
      -8.4409542477028126e+00 -4.7259914244894030e-01
      1.1023721044976824e+01 3.5467158341803375e+00
      -2.3800717593169045e+00 1.8298910583590748e+00
      -4.4334753780175342e+00 -7.3982386341799478e-01
      2.5136172922385129e+00 5.3069149935706861e-01
      1.8498364492733825e+00 3.0807493383486295e+00
      -7.8555259745132089e+00 1.2460985842239769e+01
      -5.2003642930396177e-01 -1.5508882305617906e+00
      -5.3712527343983361e+00 -1.5001394220948578e+00
      -4.3999883591216866e+00 6.2776433396448219e+00
      -1.1970346861650034e+00 1.0089514869150282e+00
      -9.0831805246115813e+00 -3.1333054710062407e+00
      -2.3886518784198776e+00 1.8669930422853959e-01
      -1.7121109920986077e-01 -1.7900507926818054e+00
      7.7598943409583443e+00 8.0134976719872952e+00
      -3.0324452684884493e+00 -5.1323172131971484e-01
      -4.9350939208942615e+00 4.8488060073179327e+00
      2.2802074019032794e+00 3.8477039218852438e+00
      -3.5725896274685814e-01 -1.9779525718153856e+00
      2.1247675810689994e+00 -6.0485285005100042e-01
      -9.3628805322259883e+00 5.6060131217344402e+00
      -3.8225301618538339e+00 -1.6908222613243176e+00
      1.4038992311435616e+00 6.9917587566477755e+00
      -3.2694379694677709e+00 1.2268512041996658e+00
      1.9307143495942862e+00 -1.8033533011702669e+00
      4.8067751298711379e+00 -4.6613578525201116e-01
      -2.9222357111278243e+00 1.6851781826721446e+00
      4.6800246173742668e+00 7.4661321708455308e-01
      1.4347834932154235e-01 -1.8686734824866662e+00
      -5.8662878795854301e-01 1.6475563520171947e+00
      4.2247195381963500e+00 8.0666505941426596e+00
      -3.2254399925516974e+00 8.7713827656125631e-01
      -3.0473104837374426e-01 1.3172952194387049e+00
      -2.9941183125440882e+00 1.7799637544528664e+00
      1.8410575122893186e-01 6.0659980387168453e+00
      -8.4624573414917919e+00 1.2251706917271239e+00
      -7.1836703558442105e-01 4.4853739940438579e+00
      1.8649701813445674e+00 -3.3530504209397294e+00
      9.5590800059050318e-01 -3.0358222680402097e-01
      3.0671746616372158e-02 8.1961673219662567e-01
      -3.9505643268739905e+00 -1.7883797053307682e+00
      -7.8547716358657940e-02 -1.1082122756107921e+01
      2.5468642344284800e+00 9.8934891706626455e+00
      -6.2221217430953084e+00 -1.9302514200212819e+00
      -6.0543118295170091e+00 -1.1503144594871275e+00
      5.6319786818752426e+00 -3.7187635902241825e+00
      -3.1066404924030784e+00 -8.9722407985448136e+00
      5.9300724322861385e+00 6.2176191378772727e-01
      -5.8689887852400773e+00 -5.1304414450422344e+00
      1.6444526991570763e+00 3.1189310103063366e+00
      -2.1715364616655859e+00 3.6878098528170598e+00
      -1.6627755455640223e+00 -8.6533712138520769e-01
      1.0081550067067626e+00 5.9108176299616899e-01
      -6.8157879497264870e+00 7.0537747554423138e+00
      -2.1508477299094029e+00 1.1621054343813457e+01
      -8.8295330754788388e+00 4.3264643714943203e+00
      5.5229313750959372e+00 7.3023531539044448e+00
      3.4954432853663597e+00 5.4812244924241114e+00
      -3.0286201383458704e+00 -1.5435305155706565e+00
      -1.3438173547448296e+00 3.7646364455507415e+00
      1.0351188318186615e+00 2.0090730127694516e+00
      -1.0695928412783284e+00 -3.4042703562728702e+00
      5.1429452622843472e+00 2.8010587855232600e+00
      -3.5392209183964467e+00 -1.4552200483941735e+00
      -8.5639711693099425e+00 5.6433709084999926e+00
      3.4631354791496688e-01 -1.6300853702184133e+00
      2.4036555916914319e+00 -7.6125115779058721e+00
      -7.5273916762016446e-01 2.1019674292388646e+00
      -3.3267572115543795e+00 -1.7708144834919981e+00
      -2.7109452389291984e+00 3.2926748205637342e+00
      1.7446104279414945e+00 5.4320309416959853e+00
      -1.1995948749331271e+00 3.3552416749498954e+00
      -3.1625518592081009e-01 8.9125458386141965e-01
      -4.1602047455990004e-01 7.0650827441643544e+00
      9.4875145964748975e-01 8.4264432970443597e+00
      4.5739828773552489e+00 1.3393190266655270e+00
      7.5068571515407996e+00 3.1309889160751192e+00
      8.1284633125195924e+00 -2.5511199539468050e+00
      -2.1594273098493763e-01 1.8652197906261876e+00
      -5.0457013062147285e+00 1.0312521387622260e+00
      -7.2213227047685380e-01 -3.4773627171302737e+00
      -1.0746431087247426e+00 7.4430108608285162e-01
      -2.0343832508989146e+00 1.2409578096285363e+00
      -4.7125134964333277e+00 -1.7994065211605006e+00
      -2.3917223868567818e+00 2.7339272606598514e-01
      2.1830851671139246e+00 -2.8083150142791804e+00
      -4.5776839186041807e+00 -1.4533362919939090e+00
      -2.9782636793932835e+00 -2.7127305074126067e+00
      2.8273073231771728e-01 -5.6452607429527575e+00
      -2.9419817132281794e+00 2.0256331453161374e+00
      3.0429087051264530e+00 2.1848943989740217e+00
      -4.9281925448309893e+00 -1.8836189085613702e+00
      1.6300787263965446e+00 1.4796335636976821e+00
      7.8588359425216761e-02 -1.5401395664256099e+00
      -3.8820657983287905e+00 1.0196900838714067e+00
      4.6885654043747635e+00 6.1750018058619114e+00
      2.9344246987981122e+00 -3.0304883737569148e+00
      4.4100789800813223e+00 -4.3972030067274508e+00
      -3.4937500422628193e-01 1.0514467454105050e+00
      -8.2378851326380487e-01 1.6012488143160111e+00
      4.4394903117330820e-01 -3.6994516823280934e+00
      -5.2051688237191096e-01 -2.3363349694407791e+00
      -3.6713685039195685e+00 3.0958107297799495e+00
      2.6585392965780175e-01 -1.8179962845051583e+00
      4.5102115067393350e-01 2.6805263103572239e+00
      3.2135609164769603e+00 3.6248300078183475e+00
      3.2457222121965673e-01 5.6923161824830988e+00
      -3.4422992951828557e+00 2.3404627682099979e+00
      -1.6833621819832343e+00 -4.5448087628405993e+00
      -2.6078696196041231e+00 2.4170204848479746e+00
      4.1921093462720309e+00 2.6684121225875286e+00
      2.5306486106841408e+00 -2.3041080313653826e+00
      2.2857803943765447e+00 8.4656715296889296e+00
      1.0076016919424104e+00 9.8898027755733053e-01
      -5.9553810100394831e+00 7.2651141987420553e-01
      1.6997544290907045e+00 -1.5207693250185270e+00
      -3.3593370345202227e+00 5.9242392105389963e-01
      2.7540702024569601e+00 -1.3209830173680441e+00
      -2.8192830131403932e+00 -5.2282271502382276e+00
      1.0763824583956412e+00 3.7372705243414539e+00
      2.2948796744419906e+00 -6.7952609795848395e-01
      9.5007087072799812e-01 -1.7184841973974663e+00
      -7.7106094942232473e-01 -3.1334911095883433e-02
      -4.8763993724250900e+00 6.2481360503516681e-01
      -6.9193770852099865e+00 5.6407408716065799e-01
      6.3778944283092693e+00 4.6237960006262897e+00
      -1.4165472356684896e+00 -8.4647220179253342e+00
      -4.3925149708415159e+00 -1.3904428900419288e+00
      -5.6516643852600579e+00 -8.8077227438699923e-01
      -8.1609938516897196e-01 -3.0585174099998745e-02
      -2.4457525176858808e-01 1.2187692662513336e+00
      1.7696727810734487e+00 -2.5288955909491224e+00
      8.1270655006768688e+00 -1.0369844389416503e-01
      2.5936168232248260e+00 5.1961235689240377e+00
      -7.6267462271149542e+00 -2.2084802081931607e+00
      -1.4863993680051750e+00 -1.1818080079123683e+00
      -2.8639247175860882e+00 8.6395190654757159e-01
      2.2692843983762607e+00 -2.0240298576501985e+00
      -4.5444544132263696e+00 -3.1176069500717811e+00
      -8.0553676690105303e-01 -1.8021366585673931e-01
      5.2646467297346886e-02 -6.2744789009890456e-01
      4.1983919503853101e-01 -4.8960254921687589e+00
      -9.6884347235322181e+00 7.8729406791901049e+00
      -3.8861628101141630e+00 -7.9953897919583214e+00
      -7.5698476302269349e+00 -2.2343183121601804e+00
      1.7461885373421091e+00 9.4898628401728846e+00
      -4.6763411461316737e+00 -5.4845734181994086e+00
      5.5006902886780951e-02 -1.2125297963255197e+00
      -3.8173409541463208e+00 -1.2317279444677792e-01
      -1.7675595282861862e+00 3.0712619057180729e-01
      -1.8624016145464308e+00 1.4708922131432467e+00
      2.5213131340707373e+00 -7.6264187172279352e-01
      4.9080680073368983e+00 1.1409046200715647e-01
      1.4031508025250325e+00 8.9772371119554535e+00
      -1.3314363690131982e+01 -5.9192477224959328e+00
      7.7815213576271436e+00 -2.3517014314949027e+00
      -5.3637979748344993e+00 -2.3248769140614622e-01
      -5.7385648776143305e-01 -4.5722009401362804e+00
      -2.9300808798117113e+00 -9.1286582253784765e+00
      1.8210213978685661e+00 4.8317298684032541e-02
      1.4969268329036645e+00 8.0759597164368802e-01
      1.2429842381170912e+00 -7.8770439493813180e+00
      -6.7061309795340600e+00 9.7692805606812205e-01
      2.1644915416641131e+00 -1.5342555649192029e+01
      -4.7879080003694394e+00 -5.5291586303927041e+00
      -6.1721816156104659e+00 8.6736614893268715e+00
      -5.9607202521258840e+00 -1.3639589600029871e+00
      -3.0126537960056132e+00 2.4468849362779812e+00
      2.1745806486123529e+00 7.4584816150175337e+00
      -1.0478686629072458e+00 -1.9987373451486329e-01
      3.0447231530901864e-01 6.7398369233595297e+00
      -8.9244724499986761e-01 4.1265367703814837e+00
      3.8959552633919738e+00 -6.9561288764215168e-01
      -7.8277198764656646e+00 7.6213286091391232e+00
      -8.0442983481916706e+00 -2.7788210107157014e+00
      -2.9358180194058727e+00 1.1084491039601962e+00
      -6.7131338626866377e+00 -8.9633842340499292e-01
      8.8425219702244391e+00 -2.9476925836092640e+00
      2.5702228465605708e+00 -1.0516551457417620e+01
      1.2642661280560121e+00 -1.1277330353083486e+00
      -9.6575226150710396e+00 1.3193539941812626e+00
      -1.2012253835496745e+00 2.5991016573840571e+00
      7.1211822139026930e+00 -1.7857005625926634e+00
      3.1483173151467665e+00 -1.3724031390899283e+01
      -1.6703838119345196e+00 -6.4236886324374103e+00
      -9.7376617601634363e-01 2.3065981696257114e+00
      3.0306511415746682e+00 1.0625283896575075e+01
      1.8477393109682935e-02 5.4032671176783191e+00
      6.3046449646728995e+00 8.6281750130824904e+00
      -7.0521556313233091e+00 9.2434818544438890e+00
      -2.3104774772588224e+00 6.7585175486097455e+00
      7.9984454943440584e+00 1.1736291987314253e+01
      -5.3268851174130889e+00 -8.8435069781219655e-01
      -1.6202191402828312e+01 1.6123896756950395e+00
      -2.7340585797651982e+00 4.6666392133550918e+00
      -8.6361605710730878e+00 5.7677930547118106e-01
      -7.8088735913064227e+00 -2.9085873111974396e+00
      -3.1082096479989434e+00 -4.4490766634944832e+00
      6.0445589718336867e+00 -1.8111620008854945e+01
      -1.8580023870458302e+00 2.3139685046224896e+00
      -1.2741393088649589e+01 1.3300920703969523e+00
      5.3735815283370050e+00 1.6601280424075213e+01
      1.6601977855729552e-01 1.9303849693379809e+00
      -2.6177127227648449e+00 1.0293726948879065e+00
      6.7872678209937201e+00 3.9938688795022634e+00
      1.1438700239506586e+01 -3.7934955440237039e+00
      -3.4875058723617805e-02 -6.2192766962329715e+00
      8.0999889294100598e+00 -8.8486130553812892e+00
      -1.0137037561211244e+01 -3.6134219464870978e+00
      -1.5080636754610103e+01 -1.5915791181839261e+00
      -5.1508508458789164e+00 -1.5248729265535774e+00
      -4.9436964486138653e+00 3.6910008124753606e+00
      -1.3226190181843123e+01 -5.1825926920831022e-01
      -1.3253901710337241e+01 6.3177624880524519e+00
      5.3197848061499524e+00 9.8286418001880644e+00
      -1.1735089527968913e+01 -6.2461978693483386e+00
      -1.0561736627692637e+01 -8.9853015923636170e-01
      2.0537931520448320e+00 -4.4596606868299995e+00
      -3.1459306695527220e+00 -7.6872132226745178e+00
      -3.4590549895921199e+00 6.3748538528449048e+00
      -4.2421473348885206e+00 2.2485616810719922e+00
      -1.0011403748915384e+01 9.6829745220095127e+00
      8.9827832971917712e+00 5.1034100710872705e+00
      -7.1621342546085769e+00 1.5963030670036330e+01
      1.6401919404373395e+00 1.1433755765053114e+01
      8.4500548367953936e+00 -8.6393762948271533e+00
      1.4382442597259794e-02 -1.2242467648553294e+01
      2.7999518770589678e+00 -3.8346845411464288e+00
      -5.0148276471606499e+00 -4.2702400312352884e+00
      4.7699220391658104e+00 2.7737599547916290e+00
      -1.2540393371944369e+00 4.9618374101751526e+00
      -8.3687440312189629e+00 4.4827907252133157e+00
      1.2682677585882210e+01 -7.6690513450678366e-01
      -8.3883835954586665e+00 7.1671699481514199e+00
      -6.3426743968975527e+00 7.0130605876298500e+00
      -4.5868122950530390e+00 -2.3026980698726334e+00
      -1.3110739161499136e+01 1.9390177767921866e+00
      -5.3889399544966354e-01 2.0653966678985114e+00
      -7.8469259443925283e+00 5.3998269175449352e+00
      -8.5975819111269747e-01 7.1874246187568624e-01
      -6.3744711469173643e-01 5.0453679953719286e+00
      1.5891469723230598e+00 1.0253755455355067e+01
      6.9572785658408414e+00 6.9172523056400106e+00
      -1.2155747383948762e-01 1.7532174400333489e+01
      -2.5379690631323402e+00 1.2622826782740031e+01
      -9.6574340707068482e-02 -7.4578652991501060e-01
      1.8079663318815951e+00 -7.6847559337762394e+00
      -1.9042198999383229e+00 4.7084023540567171e-01
      -3.7532122260935297e+00 -1.0483613765811896e+01
      1.2101004893405566e+01 2.1699343387294006e+00
      4.2000079662063055e+00 6.6543435640833914e-01
      -9.9956020472390126e+00 5.6677255085633496e+00
      1.1253960845018753e+01 5.2160524205263181e-01
      1.4259677907776209e+00 5.7745709004443055e+00
      -5.9724679207061513e+00 -1.3164688183283855e+00
      2.5206071884935262e+00 6.3921922375878326e-01
      -1.1361495958327779e+01 -2.7880372695878175e+00
      4.3994361526083336e+00 3.9160072982710141e+00
      -1.2162466219209534e+01 2.6669458469227716e+00
      -6.6290250688502261e-01 1.6248834381203365e+00
      3.4688396258948079e-01 2.7266984744657718e+00
      3.7808169495028654e+00 7.1779652756113430e+00
      3.2367129468959244e-01 5.7118218253608157e+00
      -2.1434661320080073e+00 9.1400808819376476e+00
      -2.7499550580155323e+00 5.8531144047868482e+00
      -1.0784967752605923e+00 -2.1231776561140081e+00
      1.9130751756088917e+00 -6.0359456604202144e+00
      -6.7857647430636492e-01 -2.8419472448514851e+00
      -5.8063826995622199e+00 -8.2388413137622010e+00
      6.5069933447244717e+00 2.9636062960325229e+00
      3.1461139599239805e+00 -3.4763392578334291e+00
      -2.4932979981257408e+00 2.5569674931797564e+00
      5.3211900103768368e+00 -1.0371371989983937e+00
      5.7893846413981298e-01 2.7983538486864803e+00
      -2.8300749607819184e-02 -1.7075559350145324e+00
      -2.9604715623863254e-01 -4.1872063281905936e+00
      -3.6476639398505450e+00 1.5899946920427646e-01
      5.9472567492736399e+00 1.0787151427171695e+00
      -1.0560410733354942e+01 3.9755834863663968e+00
      -1.1712533332719950e+00 1.8315711787451885e+00
      -5.4277748350622912e-01 2.6889959089398583e+00
      2.7169249325929563e+00 2.4033553889724724e+00
      4.1092469176531399e+00 1.8229529361833170e+00
      -1.7319039286942004e+00 -3.7727694385013093e+00
      8.1413582026127446e-02 1.8035760036802131e+00
      -2.4598538916952593e+00 2.1400315282103741e+00
      1.6345783713885229e+00 9.2083945103617348e-01
      -2.6769221187515813e+00 -1.0233282199661247e+01
      -6.7992182292964887e-01 -2.2082454529853049e-01
      -3.4974563228264293e+00 4.4883381961928617e+00
      2.4476385041663504e+00 -1.5397469596533513e+00
      -6.2015600641796169e+00 1.0668023511331888e+00
      8.7849069955641834e+00 9.5940866565555616e-01
      1.2991120476692462e+00 1.0950289344392390e+00
      1.9839010043461582e+00 6.4767565760131673e-01
      3.6344981415470684e-01 1.0852967394694109e+00
      -3.1689526407314217e+00 2.0587717977893393e-04
      2.0279260303071278e+00 -1.7296691880539437e+00
      -6.1261024819143461e+00 -1.5504295861283746e-01
      3.0800850512720177e+00 -3.5856782800502591e+00
      -1.0515001987747976e+00 7.9237608054895539e+00
      -3.3805523269801445e+00 -1.3321060746840716e+00
      -2.5025774854835827e+00 2.1164073469096287e+00
      3.4936279508680075e+00 -6.9523421777638517e-01
      8.4984825880259987e+00 1.7514918505743400e+00
      1.1210780396098536e+00 5.6704146228585861e+00
      -4.4076025533682204e+00 8.6927861097923209e+00
      -3.7718380684738395e-01 5.2480795690063902e+00
      -8.9924916256237726e+00 9.9706779458627914e-01
      1.9168028362992835e+00 6.3732820246138528e+00
      7.3386916922559626e+00 4.5684297381200931e+00
      3.9097541709143897e+00 -8.3848820666380955e-02
      9.1471733703820612e-01 8.0479727371948915e+00
      3.0240146934580641e+00 -1.3879587052683531e-01
      -2.4069002500622302e-01 -2.1291176097912468e+00
      6.8074003642719827e+00 -2.1146103258717521e+00
      -1.3410129571892173e+00 1.8543017023666140e+00
      2.2114905588208453e-01 1.6061252785498124e+00
      -4.9644494261779233e+00 -2.0100788644430527e+00
      4.2018363703357418e+00 5.8458977574010057e-02
      -6.7233260560324615e-01 9.7029021718019681e+00
      8.6079039059185636e-01 -4.6705461347447885e+00
      -1.1016036485400310e+01 4.3466091508239328e+00
      1.0591763815497703e+00 -3.5710706494421753e+00
      -6.4443222613794147e+00 -2.0290544566271604e+00
      -1.1387332729003730e-01 9.0106847704004025e+00
      -9.8799867402555392e+00 7.8919616698492518e+00
      4.4017466557196148e+00 -1.0465778982503402e+00
      -4.7291421790994619e+00 -5.1012927058297750e+00
      3.7130821488399213e+00 -2.6587378362884699e+00
      2.2381263908767743e+00 7.3542741784431787e-01
      1.5063941037271866e+00 1.3384725908596342e+00
      3.3486818509420067e+00 8.6379439205565636e-02
      6.1950732674702609e+00 3.0851457270008162e+00
      -6.3921849825988737e+00 -4.2922580383546256e+00
      1.2409730286532636e+00 4.0786601932404203e+00
      -4.6847858660390012e+00 -1.3523384828482559e+00
      -5.4482091168161523e-02 5.8332203815269934e-01
      6.3846107416107838e+00 -4.3437926447384587e+00
      1.7206360037811004e+00 -5.9459451359856863e-01
      -7.2502270155891568e-01 8.4616117726690661e+00
      -6.2779303426961575e-01 -6.8668017505480092e+00
      -1.3034417584331402e+01 4.4333006129366499e+00
      7.8559753528242204e-01 -1.1202161033120857e+01
      -1.0260421403867248e+01 -3.4297230711945650e+00
      -2.5940377944822623e+00 1.1154480706749670e+01
      -7.4700159945936013e+00 7.0738106052599803e-01
      3.1257834186154807e+00 1.2004952373577304e+00
      -2.4315362592755889e+00 2.9094666535836528e-01
      1.5178004359009472e+00 -2.3276003334745758e+00
      9.5809202007473671e-01 -9.1085869085741145e-01
      3.7042127236364535e+00 8.8024279292865817e+00
      -1.7226683384339783e+00 -7.0321639485473361e-02
      3.3611754808927001e+00 3.1720093410182062e+00
      -5.8332465615091538e+00 -5.6319469452169342e+00
      1.2311679911962816e+01 2.8639518100729306e+00
      -2.0745685039750961e+00 3.5364502816257843e+00
      -1.8286220997205058e+00 -1.8344643289428910e+00
      3.9325379729016734e+00 -5.4806905137039967e+00
      6.4315310807689352e-01 3.2535521920678576e+00
      4.5070345940671519e+00 -3.0675195251668090e+00
      4.6356252163725484e+00 -3.4759592081847779e-01
      8.6205677399413072e-01 -8.1625169203203718e-01
      -1.1165069352791930e+00 -1.7165189517356435e+01
      4.8029668436938650e-01 -5.4740224885408297e+00
      -3.7530157563292925e+00 4.2785227654423101e+00
      -1.9739920828188726e+00 -6.7608802614518577e+00
      -5.3334105902605113e+00 -2.4808630811441454e+00
      2.4520952488290195e+00 7.6666271683324645e+00
      6.1896610548682085e-01 -1.8812509938717922e-01
      -4.3295337500628088e+00 -7.0930049915348086e+00
      5.9550948490780820e-01 4.8857791871021634e+00
      1.0329398954840117e-01 9.6924792024763992e-02
      -1.4474331100021658e+00 2.4605594657619472e+00
      -6.1789996633871889e+00 -5.8704639919480481e+00
      1.4594728668975193e+01 4.7682629045862219e+00
      -2.7803592737485623e+00 -8.3678209390117653e-01
      9.4555363307455439e-02 -1.0836506015902034e+00
      2.9918068610925670e+00 -6.6444261448589508e+00
      6.5518593645500482e+00 4.4532951034283661e+00
      7.8042644151499463e-01 -3.2177622704385445e+00
      3.7047249705984258e+00 5.3621861634018435e+00
      6.8914884838251114e+00 -7.9024679950696983e+00
      -1.3258114460115669e-01 -1.0739132278638834e+01
      2.2529534209486419e+00 -5.2673420322755424e+00
      -1.4309977165766992e+00 -1.9060153947001885e+00
      7.4373315640916138e+00 -8.5219402263546886e+00
      5.3682297485078578e-01 1.9496256736474336e+00
      4.5596615856280485e+00 1.9445885996571352e+01
      -5.1224968630676919e+00 6.5961680597917194e-01
      -8.1117019147945086e+00 -3.5201332082544363e+00
      8.1642135463907159e+00 6.7763884041197309e-01
      7.7734030728876546e-01 5.7530552520470501e-01
      -2.6253129089522877e+00 4.6061970196134334e+00
      7.4149947793394422e-01 -3.6954026453593940e+00
      1.5864615788852840e+01 -4.2475656242315951e+00
      -1.2739740518137956e+00 -3.9798011411629464e+00
      -4.7867822135635123e+00 -1.2794398774279392e+01
      -1.8246175799074409e+00 -9.2514026235808764e+00
      1.0728482148617020e+00 9.5188838039333028e+00
      -7.8607288650443587e+00 -5.1280810938242176e+00
      5.6424751234686799e+00 1.3523566734661372e+01
      -5.3493895275732957e+00 -1.2312181058423202e+00
      -9.4939647697693577e+00 -9.3345182693016182e-01
      4.0100758328206831e+00 4.6739313989102831e+00
      8.2366866154446381e+00 -6.7667761801090123e+00
      6.3299829563697960e+00 -1.7558394443709176e+01
      8.5466675355535759e+00 -5.8734737610530594e+00
      -1.0406344503991780e+00 8.5681023423487055e+00
      -1.0785215230467742e+01 -7.8697357172517517e+00
      -8.0117664451610544e+00 -5.3448773606425615e+00
      -5.1173440467815978e-01 -1.5946961536065045e+00
      -1.6989475901532348e+01 4.4262904205613829e-01
      5.3431868961897389e-01 7.0993433912563084e+00
      -3.7024450467204413e+00 -3.6877526501854136e+00
      1.1378387218848202e+01 2.3921169243352995e+00
      4.5965230378902600e-01 5.4013619584873371e-02
      -3.3007673405336506e+00 -4.3840507367744852e+00
      -6.4679475061394820e+00 -8.5774453691160808e+00
      -9.2717903645511479e-01 6.8739192893926386e+00
      -1.2951309285962496e+00 -4.2505836741493592e+00
      1.1592150716034216e-01 2.0348824744301698e+01
      4.7530421986393643e+00 5.1805383010189585e+00
      -1.3103727325235908e+00 8.4272232341746438e+00
      -4.6303511297318654e+00 6.3988662771021252e+00
      2.4043372241578709e+00 -1.5557894718982248e+00
      -4.0114004132062568e+00 -9.9962384236387596e+00
      -2.2425819309128381e-01 -4.5942368051210423e+00
      -1.5426685408919947e+00 -4.2392517244760732e+00
      -1.3463210300516777e+00 -1.3990231045116341e+01
      -1.1835865770870621e+01 3.1562014956510605e+00
      -3.8158161071915231e+00 5.9576424102293180e+00
      -8.4910476830869364e-01 -9.0283501325517967e-01
      7.0522651434193078e+00 4.0628856650895866e+00
      -7.6806126989574341e-02 -1.0443901800046531e+01
      7.9733434933071496e+00 -2.0327418372026260e+00
      -8.9345359323808555e+00 -1.0598079060546575e+00
      8.5380921583317926e-01 -1.5056898882025100e+00
      -1.1295507237839020e+01 -1.4961667468481008e+00
      -2.3281576594266848e+00 4.0133410052577547e+00
      1.2638439182402114e-01 -1.1888344270475488e+00
      4.1197679061456940e+00 2.4171947304644203e+01
      4.1407414413464467e+00 1.1779840945098689e+01
      -5.6333716797483413e-01 1.5589941849670009e+01
      -1.3552975327615400e+00 1.1532730210387969e+01
      1.7761885176945187e+00 4.3827931040693970e+00
      1.6331373546182166e+00 -1.0053418595896410e+01
      -7.5238387699955638e+00 1.3986680549810888e+00
      -8.1597201877360037e-01 -7.6318126851619867e+00
      3.9396781541782215e+00 -1.0740597270213380e+01
      -2.6461099251138944e+00 4.2496005800796013e+00
      -1.8268450496835544e+00 7.3155811666639261e+00
      1.1754059783236684e+01 2.5552996388958688e-01
      9.2507512399950098e+00 -9.6632571011487189e-01
      -7.6418790658787588e+00 -9.1592460233126278e+00
      2.4323781867885303e+00 1.8414843982236628e-01
      -9.3141410545297116e+00 -5.4481766809969958e+00
      2.2035648787559730e+00 -1.1300307398814284e+00
      -1.4176387331278322e+01 3.1716917225427133e+00
      -1.9355535950595228e+00 -5.8833588819565519e-02
      1.7396820643969217e+00 3.4869485156290816e+00
      3.6884239811007689e+00 1.4652393853546567e+01
      1.0162987797732730e+00 4.6450654143233150e+00
      3.6396270793538044e+00 9.0090176643781792e+00
      7.4983603631688656e-01 1.3257185697535689e+01
      -1.2087591462917324e+00 1.4693995580653858e+00
      -7.6471833329519756e-01 -2.5602134914629415e+00
      -6.9133669544116430e+00 5.1445879335828038e-01
      3.6659030556230414e+00 -9.2733037843397224e+00
      2.8632758308907915e+00 -7.0500101049334045e+00
      2.5165066005635950e+00 2.7845334851697126e+00
      -1.3658240037106271e+00 2.8470456239670865e+00
      1.0625313248182538e+01 -3.7478268548749066e-01
      -1.1471196741306498e-01 1.0166907925580695e+00
      -3.9797344520299949e+00 -4.2782930900980150e+00
      -6.9825681895247549e-01 7.8792900025601784e-02
      -9.3267659712021089e+00 -5.4980379142316149e+00
      6.7647279148503054e+00 5.3183386936666655e-01
      -6.7632298411451419e+00 -1.6261371640446656e-01
      -2.7209049469320354e+00 -1.9489404263731911e+00
      -1.4414457989301430e+00 3.3971726763782120e+00
      5.8101676298817262e+00 -2.3607731773928022e+00
      3.3559745918044914e+00 1.4575416612709473e+00
      2.8227892790447755e+00 -2.4128912249296968e+00
      7.4270136448009338e-01 6.7261892299446160e+00
      1.0307437055603335e+00 -1.8234842236445908e-01
      -1.1044347899382188e+00 5.5875905594012361e+00
      -5.1691791883260461e+00 -1.0917651026738856e+01
      -4.1720694328584411e+00 -2.0543506836307053e+00
      -2.9568830270511022e+00 4.4977752775239601e+00
      -5.1147390426354089e-01 1.3557506379282644e+00
      6.8677588974346759e-01 1.6651157985039291e+00
      1.9403672388140338e+00 4.6702358376011499e-01
      5.5795247277590860e+00 6.6576700459594633e+00
      -3.8399868626304605e+00 -2.4439265023572236e+00
      1.4964630621865289e+00 -2.3900832282107509e+00
      -3.7639913448227840e+00 -3.5396543788487191e+00
      9.0178874100624051e-01 -1.3236543885225109e+00
      -5.6606828770620412e+00 3.1563023485819008e-01
      1.1518814067529477e+00 -6.3932928097319071e+00
      -1.4935057575421009e+00 6.2574750235846235e+00
      -8.1119468771502490e+00 -2.6703756874780251e+00
      4.0324499277533143e-01 -1.9904941467252157e-01
      1.3785787798831075e+00 -5.5581014837403604e+00
      6.7140035930175053e+00 -4.1381163748927001e+00
      -2.0699041378624510e+00 -1.6264609924500386e+00
      -9.4679904300089646e-01 1.5229273816887527e+01
      3.0859318954040864e+00 4.3676341280014510e+00
      -7.3092378045665960e+00 2.3180080985263438e+00
      -1.9890388823297371e+00 -4.9283721288087384e-01
      5.6359766568736100e+00 -3.6010600531292469e-01
      2.5785360470290790e+00 1.6408501834801676e+00
      -1.1223719150863904e+00 8.7414728311090197e+00
      1.2206277315544858e+00 -3.3917390900604336e+00
      1.4389096435050222e+00 -5.8201922341924495e-01
      2.8941626732368433e+00 2.9615283690023839e-03
      -1.4837033910701980e+00 -2.0423652101522856e+00
      2.6659144881544994e+00 3.1085197708932005e-01
      2.0960603813262946e+00 -7.5943690578520862e-01
      1.1483455325603997e+00 1.0230968314154503e+00
      -1.3486091746912037e+00 4.3004433634956936e+00
      -2.1419374137605938e+00 -5.8712542675469797e+00
      9.4646896452667695e-01 -9.5958881272263186e-01
      -2.8267302428902974e-01 -4.3613013233644722e+00
      5.1236581774531684e+00 -9.0852211701868657e-01
      -1.0423637230559244e+01 3.6235093876596536e+00
      -2.1848701365309355e+00 5.1205976944353564e+00
      3.5559798975389296e+00 -1.2536120973403344e+00
      6.6106626243650126e+00 -3.1102233856809005e+00
      1.7289144824926717e+00 4.0323201567498348e+00
      1.5552527514154320e+00 -2.3837866683167346e+00
      3.4300102043072584e+00 4.5434973174331796e+00
      -2.4303817760528590e+00 9.0838154624954981e-01
      8.0130245969205072e-01 2.0793984425474379e-01
      5.7555935553405497e+00 -1.4458229568516345e+00
      2.4441920265694348e+00 7.2131112118194940e+00
      -2.0013252167500872e+00 1.8391578429965503e+00
      -1.7876553929707630e+00 2.0616546437266399e+00
      7.8671731463144683e+00 3.0168851183523735e+00
      6.0062974088905741e-01 5.1168757504570888e+00
      9.2456890482049070e-01 9.0143621632146296e+00
      -2.2393783074133511e-01 -4.8121531383830298e+00
      -6.6581840451459073e-01 -5.8966455099671466e-01
      -3.6462372179395248e+00 -1.4502337706511796e+00
      3.6832092053877394e+00 1.1664281813605453e+00
      -1.6503348246216724e+01 2.3380105541732483e+00
      1.5005182008127720e+00 7.2537210214536207e+00
      2.6088372391176224e+00 -3.7001868588235594e+00
      1.1776493194211008e+01 -4.1330952708554247e-01
      4.6334675879439278e+00 -4.1911848215291503e+00
      3.1791333173578518e+00 -3.6989923372545261e+00
      2.5336713579525290e+00 1.8145204581203660e+00
      -4.2812167597881476e+00 -7.7098329726262094e-01
      4.6003338395942865e+00 -3.0406853465008079e+00
      8.4965218110453939e+00 2.3854239326788291e+00
      9.0016872789588547e+00 7.2304399052868522e+00
      2.8661472496798730e+00 4.7744219240915813e+00
      -4.3949686869901088e+00 4.3210206487522862e-01
      3.1002480797590302e+00 4.9168209569950356e+00
      5.7507254814087749e-01 1.0101308399750852e+01
      4.5586655813933952e+00 5.3350072980560750e+00
      -5.3478793671235469e-01 -1.4144594742916730e+00
      -1.0385870801247583e+00 -2.3354323228966734e+00
      1.7902799845288792e-01 -2.3915359993346814e+00
      4.1190264295273913e+00 -8.8415811088454421e-01
      -4.1001064188197081e+00 1.1138369826936760e+00
      8.5917782874604409e+00 -7.2612455616060982e+00
      1.9956759122670342e+00 -3.3774057514267506e+00
      1.3542851165887004e+01 2.7774028034913139e+00
      -3.4072748424356253e-01 -1.3591948723544249e+00
      2.4977342413000836e-01 -1.0014295075819318e+01
      8.7822955473538489e+00 6.7591209224970381e+00
