<?xml version="1.0"?>
<opencv_storage>
<opencv_ml_ann_mlp>
  <format>3</format>
  <layer_sizes>
    140 40 31</layer_sizes>
  <activation_function>SIGMOID_SYM</activation_function>
  <f_param1>1.</f_param1>
  <f_param2>1.</f_param2>
  <min_val>-9.4999999999999996e-01</min_val>
  <max_val>9.4999999999999996e-01</max_val>
  <min_val1>-9.7999999999999998e-01</min_val1>
  <max_val1>9.7999999999999998e-01</max_val1>
  <training_params>
    <train_method>BACKPROP</train_method>
    <dw_scale>1.0000000000000001e-01</dw_scale>
    <moment_scale>1.0000000000000001e-01</moment_scale>
    <term_criteria>
      <epsilon>1.0000000000000000e-04</epsilon>
      <iterations>30000</iterations></term_criteria></training_params>
  <input_scale>
    7.1768733952011887e+00 -5.1046510700305747e+00
    8.0536149482471249e+00 -6.4746794342985448e+00
    8.5840270389051874e+00 -7.2051064758703545e+00
    8.7450821047102760e+00 -7.4401613682335324e+00
    8.7046505759624466e+00 -7.4210604020269706e+00
    8.6799595837877845e+00 -7.3923484968304196e+00
    8.8501046908408547e+00 -7.5954319471599039e+00
    9.1318456237885730e+00 -7.8745784654604547e+00
    9.3698066138969782e+00 -8.0566998750280288e+00
    9.2447758160326980e+00 -7.8616499858567952e+00
    8.9495253692192449e+00 -7.6039436284885822e+00
    9.9284092604434768e+00 -8.6084860532915606e+00
    9.3298800199349383e+00 -7.9930855661004010e+00
    9.4589366666909260e+00 -8.0750583089567556e+00
    9.5550207433458407e+00 -8.1454534733892796e+00
    9.2699514492962809e+00 -7.8443361995479783e+00
    8.0511848896386358e+00 -6.7035969696834155e+00
    7.9111398434202069e+00 -6.5083208882428938e+00
    7.4061716106683626e+00 -5.8801740749755815e+00
    6.9179042191490874e+00 -5.0150776045541718e+00
    8.7232372142725261e+00 -4.4757443976726927e+00
    7.2292148689766433e+00 -4.2009025809152956e+00
    6.2224633695741449e+00 -4.0059198897199462e+00
    5.8022321776216543e+00 -4.1052668878743619e+00
    5.9890673488703197e+00 -4.7287472606588326e+00
    6.9674226898418459e+00 -6.0174700729908812e+00
    8.6780002898189412e+00 -7.8749871897387420e+00
    1.0063894809437743e+01 -9.3676939522600300e+00
    1.2378234939830003e+01 -1.1670479906380509e+01
    1.2743160210203614e+01 -1.2032870268688617e+01
    1.2939702214525635e+01 -1.2250106223866711e+01
    1.2853220505969171e+01 -1.2193324354680188e+01
    1.2488199539007693e+01 -1.1793191200960386e+01
    1.0102749296071568e+01 -9.3247208089842619e+00
    7.6059549417686627e+00 -6.6491001245170178e+00
    5.7725588521484603e+00 -4.5466317931645701e+00
    3.1571012130865661e+00 -1.7920638174588284e+00
    3.3861873105661857e+00 -1.5412452196255229e+00
    3.7118919079956174e+00 -1.3228414686561432e+00
    4.4198982469985140e+00 -1.3455514191850513e+00
    6.6822664435417928e-02 -2.2635050415972827e-01
    2.7813085215918135e-02 -3.9062626146884233e-01
    1.7310763940163010e-02 -7.0307685342799853e-01
    1.3746702083576865e-02 -1.0653444236337499e+00
    1.2718743435527504e-02 -1.2539946434899449e+00
    1.2298681849035691e-02 -1.2798012828512910e+00
    1.2610979346244507e-02 -1.0694313558464510e+00
    1.4769000904252495e-02 -7.2006455471606834e-01
    2.1599824006743734e-02 -4.0884078735840496e-01
    4.1115725066586770e-02 -2.1740571941467124e-01
    4.6157439960740454e-02 -2.7830508354499323e-01
    1.7647812672400877e-02 -5.5759758803464943e-01
    1.2173807170131123e-02 -1.0063475559327630e+00
    1.2264100927047559e-02 -1.5227594073420219e+00
    1.2783885107352002e-02 -1.7750915614103357e+00
    1.2757353154813836e-02 -1.8886107505773007e+00
    1.2094266734513429e-02 -1.5895771968264167e+00
    1.2012244700953910e-02 -1.0112068798634859e+00
    1.6228162060135387e-02 -5.4056308806769660e-01
    3.5081641453056291e-02 -2.6714777689413971e-01
    5.9303729694912093e-02 -2.7997616376639189e-01
    1.8250095850765240e-02 -5.3743415441367948e-01
    1.2339409024387599e-02 -9.9847784964946462e-01
    1.2608598457787537e-02 -1.5115756120645774e+00
    1.2873380250376347e-02 -1.7455668504194914e+00
    1.2876095315696589e-02 -1.8615895071364523e+00
    1.2634387495461126e-02 -1.7164438347806541e+00
    1.2037525185763006e-02 -1.0755312539381541e+00
    1.7014794499766020e-02 -5.5218175110819723e-01
    4.5843502816993176e-02 -2.5368960392853096e-01
    1.0140486669224402e-01 -2.8037080370618533e-01
    2.2111102445833485e-02 -5.2281287777294305e-01
    1.2674530536635052e-02 -1.1479640973056819e+00
    1.2941227748668746e-02 -1.7591223761656216e+00
    1.3176158616161735e-02 -1.9126880120407157e+00
    1.2998332379899759e-02 -1.8992470627145481e+00
    1.2610682821406840e-02 -1.8225667894058544e+00
    1.1930615399096454e-02 -1.1950393162541748e+00
    1.8148907169929659e-02 -5.7067161724475746e-01
    6.4529208732512583e-02 -2.2818027614349001e-01
    2.4343324541252029e-01 -4.4178681574464368e-01
    3.0356736067779482e-02 -4.8848238787383275e-01
    1.3217134776463085e-02 -1.1032842204162570e+00
    1.2875357572854263e-02 -1.7257556805717962e+00
    1.3648609355574652e-02 -1.9767566281404343e+00
    1.3001543109467379e-02 -1.9102801681590724e+00
    1.3855637842445902e-02 -1.9403564778101527e+00
    1.2560478665318151e-02 -1.2058658042140911e+00
    2.0436637734160358e-02 -5.3849136347247861e-01
    1.0285889257740964e-01 -2.2914291713868190e-01
    4.2308425592240312e-01 -7.6727307857679838e-01
    3.4190864829375840e-02 -4.1288522350767970e-01
    1.3107909838828390e-02 -1.0448600933569849e+00
    1.2873438501094596e-02 -1.8361055321200319e+00
    1.3941313021378405e-02 -2.1637566668532018e+00
    1.4153752700184246e-02 -2.3377553356122109e+00
    1.3814579427456359e-02 -2.2093285430800225e+00
    1.2437554651513048e-02 -1.2656386332774558e+00
    2.2325826169525435e-02 -4.9616921215005882e-01
    1.5474530919376520e-01 -2.5515955844630950e-01
    2.8395489861970608e-01 -5.3046673340022488e-01
    3.1233847883503880e-02 -4.3470777692452056e-01
    1.3149012817116133e-02 -1.0659272478456900e+00
    1.3218389536823966e-02 -1.8254471876083180e+00
    1.3766662572795121e-02 -1.8516872298010247e+00
    1.3208328355360328e-02 -1.7823913006107717e+00
    1.2756202365959963e-02 -1.9013199930775055e+00
    1.2487796946224646e-02 -1.2106791791383120e+00
    2.0887514969825671e-02 -5.1801182990698291e-01
    9.8487752329961639e-02 -2.2755127183529597e-01
    1.1756919204091504e-01 -2.8551586645613058e-01
    2.3465407572169347e-02 -4.6047807910108379e-01
    1.2519902364541761e-02 -9.9279274497880998e-01
    1.2697057475727847e-02 -1.6409340976147180e+00
    1.3348401924844707e-02 -1.7748979652103862e+00
    1.3054815245240313e-02 -1.8546369786617067e+00
    1.2853081838972978e-02 -1.8694569544084820e+00
    1.2118060422930113e-02 -1.1790332435580706e+00
    1.7084007249027925e-02 -5.4976627973500114e-01
    4.9461022797990500e-02 -2.3891684473444266e-01
    6.5402410333605623e-02 -2.5156023529778637e-01
    1.9900319650876786e-02 -4.9624048883312966e-01
    1.2788109946694045e-02 -9.0622382854180183e-01
    1.2651448036328136e-02 -1.3912222117674280e+00
    1.3380609274749246e-02 -1.6255361185920105e+00
    1.3313014539936515e-02 -1.7638055768182861e+00
    1.2663907065100528e-02 -1.6236776905503825e+00
    1.1766612640411218e-02 -1.0645136299045790e+00
    1.5427841286747835e-02 -5.8723648829365893e-01
    3.3197253436734700e-02 -2.7241289652359452e-01
    6.1954035314155199e-02 -2.2850473492787557e-01
    2.5784417391674027e-02 -4.0603718288813717e-01
    1.6819847715784757e-02 -7.0182193878972443e-01
    1.3662304325080117e-02 -1.0184325071796791e+00
    1.2789264074281837e-02 -1.1917260438383426e+00
    1.2461326738982969e-02 -1.2520832024861048e+00
    1.2576442427384581e-02 -1.1319619617203460e+00
    1.4112161907188350e-02 -8.3195378497286776e-01
    1.9118847683894151e-02 -4.9754006133619572e-01
    3.7339540555747522e-02 -2.4733582206275048e-01</input_scale>
  <output_scale>
    5.2631578947368418e-01 4.9999999999999994e-01 5.2631578947368418e-01
    4.9999999999999994e-01 5.2631578947368418e-01 4.9999999999999994e-01
    5.2631578947368418e-01 4.9999999999999994e-01 5.2631578947368418e-01
    4.9999999999999994e-01 5.2631578947368418e-01 4.9999999999999994e-01
    5.2631578947368418e-01 4.9999999999999994e-01 5.2631578947368418e-01
    4.9999999999999994e-01 5.2631578947368418e-01 4.9999999999999994e-01
    5.2631578947368418e-01 4.9999999999999994e-01 5.2631578947368418e-01
    4.9999999999999994e-01 5.2631578947368418e-01 4.9999999999999994e-01
    5.2631578947368418e-01 4.9999999999999994e-01 5.2631578947368418e-01
    4.9999999999999994e-01 5.2631578947368418e-01 4.9999999999999994e-01
    5.2631578947368418e-01 4.9999999999999994e-01 5.2631578947368418e-01
    4.9999999999999994e-01 5.2631578947368418e-01 4.9999999999999994e-01
    5.2631578947368418e-01 4.9999999999999994e-01 5.2631578947368418e-01
    4.9999999999999994e-01 5.2631578947368418e-01 4.9999999999999994e-01
    5.2631578947368418e-01 4.9999999999999994e-01 5.2631578947368418e-01
    4.9999999999999994e-01 5.2631578947368418e-01 4.9999999999999994e-01
    5.2631578947368418e-01 4.9999999999999994e-01 5.2631578947368418e-01
    4.9999999999999994e-01 5.2631578947368418e-01 4.9999999999999994e-01
    5.2631578947368418e-01 4.9999999999999994e-01 5.2631578947368418e-01
    4.9999999999999994e-01 5.2631578947368418e-01 4.9999999999999994e-01
    5.2631578947368418e-01 4.9999999999999994e-01</output_scale>
  <inv_output_scale>
    1.8999999999999999e+00 -9.4999999999999996e-01
    1.8999999999999999e+00 -9.4999999999999996e-01
    1.8999999999999999e+00 -9.4999999999999996e-01
    1.8999999999999999e+00 -9.4999999999999996e-01
    1.8999999999999999e+00 -9.4999999999999996e-01
    1.8999999999999999e+00 -9.4999999999999996e-01
    1.8999999999999999e+00 -9.4999999999999996e-01
    1.8999999999999999e+00 -9.4999999999999996e-01
    1.8999999999999999e+00 -9.4999999999999996e-01
    1.8999999999999999e+00 -9.4999999999999996e-01
    1.8999999999999999e+00 -9.4999999999999996e-01
    1.8999999999999999e+00 -9.4999999999999996e-01
    1.8999999999999999e+00 -9.4999999999999996e-01
    1.8999999999999999e+00 -9.4999999999999996e-01
    1.8999999999999999e+00 -9.4999999999999996e-01
    1.8999999999999999e+00 -9.4999999999999996e-01
    1.8999999999999999e+00 -9.4999999999999996e-01
    1.8999999999999999e+00 -9.4999999999999996e-01
    1.8999999999999999e+00 -9.4999999999999996e-01
    1.8999999999999999e+00 -9.4999999999999996e-01
    1.8999999999999999e+00 -9.4999999999999996e-01
    1.8999999999999999e+00 -9.4999999999999996e-01
    1.8999999999999999e+00 -9.4999999999999996e-01
    1.8999999999999999e+00 -9.4999999999999996e-01
    1.8999999999999999e+00 -9.4999999999999996e-01
    1.8999999999999999e+00 -9.4999999999999996e-01
    1.8999999999999999e+00 -9.4999999999999996e-01
    1.8999999999999999e+00 -9.4999999999999996e-01
    1.8999999999999999e+00 -9.4999999999999996e-01
    1.8999999999999999e+00 -9.4999999999999996e-01
    1.8999999999999999e+00 -9.4999999999999996e-01</inv_output_scale>
  <weights>
    <_>
      -1.6911570425830131e+00 1.6889856274799413e+00
      -1.2204104595078809e+00 2.4670332404895432e+00
      4.0590746246763947e-02 -3.3068154747039979e-01
      -2.9768121431714306e-01 -7.6230542998844903e-03
      2.6114008327561701e-02 2.0434100855078963e-01
      3.5647886319171807e-01 -1.7796892259682374e-02
      -1.9151623838793952e-01 3.5790823821547663e-01
      -8.1517369281519403e-01 2.6100320023024870e+00
      -5.7325673225677935e-02 -8.7422233978728703e-01
      -1.9939485727791462e+00 -5.4915617983798360e-03
      1.8985332902218157e+00 1.7169338859739980e+00
      -1.1690625791094917e+00 -7.7984630888263162e-01
      1.3562923581646127e-01 7.1541295514322834e-01
      -2.6595306697791239e+00 -1.1358929199226242e+00
      -2.0702953188659426e-01 1.4544471488188329e-01
      2.2271237246823405e+00 1.6552417407007654e+00
      1.0826757153244952e+00 6.4607862036643804e-01
      1.2172780909395862e+00 1.0948576736887554e+00
      1.3646882695187923e+00 -1.5442432001445927e+00
      1.1278069073305532e+00 -6.9659007773098747e-01
      -7.3295872612569424e-01 2.4531184569020699e+00
      -1.5161382076586802e-01 2.8110604196528116e-01
      -4.2521700907822105e-02 -1.2168203129858905e-01
      1.1708829674198145e+00 -5.1722459476846006e-01
      5.9306733374960285e-01 -1.1975436907063561e+00
      1.5005153181090880e+00 -2.9200971998318748e-01
      -2.3688932567682405e-01 -3.9111893215747295e-01
      9.1493191366352544e-01 3.4275869912394428e+00
      1.7100482165302362e+00 -1.0975104313183408e+00
      -1.7589688537110013e+00 -7.3645282974962278e-01
      3.9808308940225905e-02 -5.3409658652215797e-01
      -9.2590714478631486e-02 2.9842324943722315e-01
      -1.3350911369273035e+00 1.1895305021652345e+00
      -7.6722427428729278e-01 -7.9818906018660096e-01
      9.6548046438587909e-01 1.3169197254175808e+00
      7.5739975565744977e-01 -3.2017668029042001e-01
      1.3120905478029330e+00 -1.0156084402583769e+00
      1.4489739055887045e+00 -3.8322005871435433e-01
      6.4002435527129997e-01 -6.3330022529682861e-01
      -1.2935085863009013e-01 2.9505635763819577e-01
      4.0536572397466407e-02 6.8391872102505280e-01
      -1.8288843980224418e+00 4.2761293936947326e-01
      3.3352428051043398e-01 -2.4269608497753589e-01
      2.6337721610774083e+00 -1.0524394879744756e+00
      -3.4326891512964519e-01 -1.5085092391606449e+00
      1.2126654247828086e+00 1.9907273274314885e+00
      -1.0946312107804954e-01 -1.2829030850234151e+00
      -1.5769508621109279e-01 4.9710568493329882e-01
      -5.5786665302544924e-01 -6.3316822132612360e-02
      -1.4279313451438729e+00 2.3958007227992281e-01
      -8.8718898785255673e-01 -3.8283404602342169e-02
      4.5908576900179682e-01 5.6432385346934122e-01
      -6.5492778718862488e-01 1.5350426584713697e+00
      -2.7861184480555079e-01 9.2472441170041686e-01
      1.7504785422192359e+00 5.3236753718052954e-01
      -2.9784903985384563e+00 3.4218357147495354e-01
      3.0476281864126281e-01 -2.1875442246105603e-01
      1.7348341064363432e-01 -1.6587649852456294e+00
      1.8275867623619213e+00 -1.1675251020922528e+00
      -1.2042457698329858e+00 -6.7458060739173675e-01
      -2.1266357459551570e+00 5.5591922221846313e-01
      -5.8073652117094721e-01 1.9145432751991629e+00
      -7.8865392221907327e-01 7.9607556052623085e-01
      4.2895149521158149e-01 8.7089636293030426e-01
      2.8672244234862931e-01 9.7287000695721715e-01
      -7.5665352254601448e-01 6.5072378500423544e-01
      -1.4666686725696718e-01 1.2053356181590109e+00
      1.0325723604609320e+00 -1.6231114002217895e+00
      -1.4753416720927903e+00 1.0851253106458147e+00
      4.1787401086364984e-01 -4.4526836215449289e-01
      -9.5829884162094203e-02 1.0880449636902871e+00
      -1.0956590790760314e+00 5.7962998833017276e-01
      1.9562967814528016e+00 -2.9148709536047579e+00
      -2.7827566333457225e+00 1.1202762075860131e+00
      -2.0591962425305282e-02 2.0789061242669309e+00
      1.0522627756564547e+00 1.7195016589461485e+00
      -2.4207729147368378e+00 -3.2167598112090645e-01
      1.6992035535990913e+00 -1.0503084463269043e+00
      -3.5074352597525194e-01 -9.1287229615855142e-02
      1.3642541125777512e+00 4.7654242589439544e-01
      -3.7708032201433084e+00 3.9157891636502751e-01
      6.1626829169935560e-02 -5.1199028006958136e-01
      -2.5454617372945143e-01 6.4339919963715242e-01
      -7.0557315161150758e-01 5.0253985517594613e-01
      5.1941896003311949e-01 8.8989393436151876e-01
      -2.0246618219859966e+00 3.7822496189376281e-01
      -4.8501831742176726e-01 -8.3930969824109147e-01
      7.9638655851506243e-02 -3.5973614129997831e+00
      -1.3048524680472950e+00 9.7177815918915700e-01
      1.2968676023597059e-01 1.7152744277785854e+00
      -2.3114438522261458e+00 1.1545445079962475e+00
      -2.0205666653554486e+00 -4.9421465346236981e-02
      2.1515631956210979e+00 1.5262374883368484e+00
      -1.6167658822388955e+00 1.1929487489012023e+00
      -1.8864259169052244e+00 3.3462242759847882e+00
      -1.6160369037780378e+00 -2.0452465171632220e-01
      -1.3068732252945141e+00 6.5365565872227627e-01
      -3.1652601909639239e-01 1.7128735586050539e-01
      -2.7026055467078347e-01 -8.1463759417911363e-01
      2.0267812953960433e+00 1.3705828303115506e+00
      -5.0498729204957282e-01 -4.7003249831204219e-01
      -6.4974368346346389e-01 -1.7097054950541950e+00
      -6.5640592391047015e-01 4.2187035202753292e-01
      8.3636038002782731e-01 -1.9488169408032507e+00
      1.6247323237226075e-01 5.4882200628069776e-02
      -6.0688536412915550e-01 -1.0556441666967951e-01
      -4.8894350995660335e-01 -1.3872767615223032e+00
      -6.3468014591580732e-02 1.5947034501252302e+00
      -5.1614180616771399e-01 -4.5001021074701503e-01
      -3.5474998513717182e-01 9.9704894321307891e-01
      1.6713531622111868e+00 -1.1974230534798245e+00
      -6.0021765686129702e-01 -1.1706262818368128e-01
      -1.7951420512775687e-01 8.9868575315872862e-02
      -1.9562325097849400e+00 3.0609306118980473e-01
      -9.1720055854141691e-01 -1.4261833722419770e+00
      -3.0108579886292999e+00 -1.2372317138083768e+00
      1.3624406384847543e+00 5.5268375644580880e-01
      2.2153746751574757e-01 2.8025886102390252e-01
      2.5538724658377820e-02 -2.3126354098591147e-02
      2.8682953192039767e-01 3.0417743998513042e-01
      -2.5942336060156737e+00 -3.2038058840029809e-01
      -1.3264741941083737e+00 6.8991361816682006e-01
      -5.4562018592671027e-02 1.2159145822839106e+00
      1.1170247153623403e+00 -2.1541296812053226e+00
      4.0605117531907764e-01 -8.7595357716904754e-01
      -1.6705018801246649e+00 8.2338127210462708e-01
      -3.4122799517773428e-01 -7.3473168861771632e-01
      3.5764352896898539e+00 6.0772928777350832e-01
      -4.3169859986400733e-01 -9.0403399298914056e-02
      -2.7811563459703686e-01 -7.9841093925590501e-01
      -5.1033422199976508e-01 -1.0391016782843314e+00
      -4.7423275548765548e-01 -3.7852056156720976e-01
      3.5982662420994499e-01 -1.1006880706973612e+00
      -7.0782486425357549e-01 8.6938020607711530e-01
      -6.6804013851337751e-01 -2.2618040101466907e+00
      -6.0905332269987933e-01 -8.1700517113454052e-01
      1.6052813757988686e+00 -1.9142030018051359e-01
      -1.8988630176409363e-01 -1.1715375645143937e+00
      1.1391254749908917e+00 -1.3283248249860866e+00
      4.1086315862283640e-01 -6.2771332661146007e-01
      1.9976867123039050e+00 1.2358478321568938e+00
      -8.6825386543203140e-02 -7.7239596792056597e-01
      -9.3378490061492359e-01 8.2044962260912957e-01
      -3.6336678043055337e-01 -8.4967288726523660e-01
      5.3633329169263788e-01 2.0157310367175296e+00
      1.1523739690741415e+00 2.3189836996506380e-01
      -4.3311823527640159e-01 1.0322471810496341e+00
      3.0472577313958782e+00 -8.4527042552072926e-02
      -5.4084265525203423e-01 -1.4439693481121535e-01
      -7.0230128097339403e-02 -1.0192411135490840e+00
      -1.4042314556624573e+00 1.1086002217178859e+00
      1.9440815589436957e+00 -6.4341520129513396e-01
      1.6103169508017605e+00 -1.5159121534702065e+00
      -1.7793290463386240e+00 2.0157108116093592e+00
      -1.6240440893442578e+00 5.5952690372262703e-01
      2.2765332217888332e+00 -8.2301658616167284e-01
      -1.2815943573988955e+00 -1.6943207004937402e-01
      5.3451255621277338e-01 1.4442916409796624e+00
      1.7209823705733838e+00 -1.1628544248720762e+00
      -1.5236543636144102e+00 1.2603517862686542e+00
      3.8496771149017723e+00 -1.2135984578001144e+00
      -1.6049677982247940e-01 1.6972205550229571e+00
      -4.3249630167546554e-01 -5.2457689181998046e-01
      -1.5341755439374987e+00 -1.5283914652791963e+00
      -2.0401459346191982e-02 9.2659402576084748e-01
      3.3201379393117270e-01 1.1901985085777603e-01
      -1.6871106100089492e+00 -1.7690999339586875e+00
      2.4638113763319214e+00 -4.8448732281096624e-01
      -1.0360641447598264e+00 -7.0287816740439701e-01
      -2.6184908490904590e-01 9.5416476201592593e-01
      -1.0521944273054591e+00 9.0023116323357300e-01
      9.7058763351848520e-01 -6.2050321568286337e-01
      -1.0394593831546252e-01 8.7201026946181281e-01
      7.1755850042570735e-01 1.1331939157291480e+00
      -1.1593659173635742e+00 6.1002826316865177e-01
      1.1298047778508318e+00 -6.3097416816973007e-01
      1.1915426894532193e+00 -1.0522265115237155e+00
      1.1435890319187096e+00 -7.1724476433847528e-01
      1.8092037615807863e+00 -7.1618601434880169e-01
      -2.1683992058666732e-03 -1.9900459670865769e-01
      9.7760791831221633e-02 -2.4495567250059267e+00
      -7.8685735956839553e-01 3.4036803070903232e-01
      7.8607932033278805e-01 -1.0548942774777330e+00
      -5.7155898986625242e-01 -1.3178677888606287e+00
      -1.4157225705125964e-01 9.0442220379952798e-01
      3.0678339735860727e-01 2.0370375134179528e+00
      1.1064261135797668e-01 -3.6054571074349107e-01
      -3.6305184266456880e-01 -9.7401768565694724e-01
      -2.9551392672066668e-01 7.8872734421947832e-01
      1.1117835496882293e+00 2.9692478622619030e+00
      3.3620272517449984e-01 4.0058463945362516e-01
      -4.3966521417642135e-01 1.3000213199574781e-01
      8.0883601078662504e-01 2.6599814712552035e+00
      5.8586456510478568e-01 -4.1891218843104472e-01
      1.2784079712349632e+00 1.1286271143381118e-02
      -1.2862844835840210e+00 7.5844262626924064e-02
      -1.2031272869123808e+00 2.9873712557852272e-01
      1.2894208747855049e-01 1.7375281944968826e+00
      8.5880162906358437e-01 1.3094337213649139e+00
      4.8872081425457425e-01 -1.4869182010692514e+00
      -2.3942414560124772e+00 -7.3856777069338886e-01
      1.8997376509890735e+00 -3.3858243246555646e+00
      8.4269890396302349e-01 -1.2262490219478066e+00
      -6.7617979820696072e-01 9.5201718456016216e-01
      4.5976508497920882e-01 1.5993869663347604e+00
      -5.1146775718645743e-01 -5.3184155569757779e-02
      3.9568199180520880e-01 8.6208764208166488e-01
      -1.3269599232870515e+00 2.8002226083745041e-01
      -5.1966395338899141e-01 6.3615042722040960e-01
      4.4097069356264057e-01 1.6174919122288169e+00
      -4.9525076809890545e-02 2.0315053970840638e-01
      5.6100899891214551e-01 6.7979898873780176e-01
      1.2045987970679761e+00 1.7663159933788686e+00
      2.4794515135592152e+00 -7.7234457295234071e-01
      6.0951757705432053e-01 -2.5041656352653008e+00
      -2.7775061984898275e-01 3.4167419808060600e+00
      1.3345728230879357e+00 1.4291848988607265e+00
      -1.2070948712154774e+00 8.3540712811429962e-01
      7.3672317052414393e-02 3.1534988484769277e+00
      -8.0237575475798539e-01 8.8660342216691779e-01
      -1.2852832649454247e+00 -1.4302033264693153e+00
      1.5758022219833718e+00 -6.3684993187992894e-02
      -3.1703233857136554e-01 3.9511723914222485e-01
      -2.4010999652321110e+00 -4.0992952941120703e-01
      5.5661421196510068e-02 -9.4250115039455173e-01
      -1.0262299653868110e+00 4.8894484651522852e-01
      9.6901970779440938e-01 5.4232100148076168e-01
      -2.5043965910702526e+00 -1.8739577925874760e+00
      1.1744285593229429e+00 -6.2113551414253110e-01
      -6.8339600373872531e-02 6.8142146422636229e-01
      -1.0290430645441564e+00 -6.9173368821117454e-01
      -7.0005581891462676e-01 1.0479213953334388e-01
      1.1315171441569458e+00 2.0003799678710013e+00
      3.6472065822358324e-01 -2.5641529743285030e-02
      -2.2316802872741084e+00 1.6088704125569062e+00
      2.4702569575976407e+00 7.8742989862679147e-01
      -1.3054223668621248e+00 -5.4670750996279993e-01
      -1.1903561518300416e+00 7.6615950809598043e-01
      -1.5390571121662693e+00 3.0259416355888336e-01
      -7.5199445128054010e-01 5.7425588210558942e-01
      -5.8989691077362194e-01 -8.6197034038056708e-01
      -3.5130544304482147e-01 1.1784683317854818e+00
      8.8716297141355857e-02 1.3676004008496383e+00
      -1.2175671790637486e+00 6.0686759700869031e-01
      1.1919391581083404e-01 1.1226016233790685e+00
      3.4413621851935049e-02 8.3676311929979730e-01
      7.0505135940345043e-01 1.2966509727411648e+00
      -1.5548712818603898e+00 -1.2208966664898568e+00
      4.5669908714640101e-01 -4.4368984616599555e-01
      1.2230849199182103e+00 2.0441228436852479e-01
      6.6962891934096769e-01 -6.6808538358421862e-02
      -4.4950815756822049e-01 4.3731788458148529e-01
      -1.9273233322237629e-01 -1.3440971276248077e+00
      2.2530563128003580e+00 6.3225924795162158e-01
      -1.1399613801352966e-01 -1.0946701553355751e+00
      -6.1311378643668824e-01 2.4817971724713535e+00
      -1.3094035344726662e+00 4.4894246034963747e-01
      -1.1075906823386885e+00 5.9333076987788425e-01
      -2.2001007038094902e+00 5.9195260203076971e-01
      9.9292362689340108e-01 -1.1916291649434804e-01
      7.7633408871885068e-01 1.4360871669651267e+00
      -1.6138213449472942e+00 -1.5049165450268065e+00
      6.8034060239617422e-01 6.6801801151855988e-01
      4.6706319101769550e-01 -2.8396020341951705e-01
      8.9223804995067726e-02 7.4921362371523814e-01
      1.3018684079901968e+00 -1.1040758386644689e+00
      -9.0486071236608034e-01 2.5377613021161727e+00
      -9.6494203019778024e-01 -1.2025727842259353e+00
      -8.0479050531163526e-02 5.0833940416873191e-01
      1.4135583679467152e+00 -7.4156349125374188e-01
      3.4810885953178478e-01 1.1751208663647850e+00
      1.6544093500740009e-01 1.0191512501318600e+00
      -1.4549575170997302e+00 5.3551331563024628e-02
      2.3687324157469574e+00 -2.0708393935446203e+00
      1.6660009560326791e-01 -1.0900834980596836e+00
      -5.1650464229154991e-01 -1.0741039433100534e-02
      6.9283979297867926e-01 -1.6527690547068978e+00
      -1.6155637477397880e-01 -7.0456692451565217e-01
      4.8618134819496706e-01 -6.8739208566099153e-01
      6.8744906656763882e-01 -5.3219559213911631e-02
      8.0412296477634770e-01 6.6617155390861615e-01
      3.4560856593845818e-01 -7.3239755218944969e-01
      -1.0210651751536248e+00 -4.9499853633218037e-02
      -6.0831695973158906e-01 -4.8947581268876339e-01
      -5.0057361508600316e-02 -9.3219748233393762e-01
      1.9542837094885812e+00 -8.6478718150980638e-01
      1.7476365332277191e+00 9.5090946177189539e-01
      -9.7165330898085500e-01 1.8161157225561780e-01
      5.5835837476498384e-01 1.0459083991938307e+00
      2.1031798773971078e-01 -1.2999402290762174e+00
      5.5439035871229170e-01 -9.9574084974265328e-02
      -4.0788125778988482e-01 -1.3602191096455003e+00
      -1.1794239792718617e+00 5.3381940880541345e-01
      1.2996718603390729e+00 -3.3656611985105228e-01
      2.2160135349986465e-01 7.7602029524028959e-01
      -9.4148313150954732e-01 -1.6143787004050349e+00
      2.1288432340572272e+00 -1.7585150484470422e-01
      -7.0463723720884097e-01 1.0000700609208570e+00
      6.3900239249802926e-01 -4.9554151391541013e-02
      -1.2421533879001960e+00 4.6810605204191003e-01
      -7.2987509302230091e-01 -7.2234208503240893e-01
      1.2117898413920380e+00 1.5885942298409248e+00
      5.2737442787362601e-02 -1.5719543143695089e+00
      2.7007815772307842e-01 -1.6903062586632167e+00
      -5.3563141225918945e-02 6.2308869858298743e-01
      1.8343055798934484e+00 2.2267393200949535e+00
      -2.1940877918867393e-02 -6.4334780778002265e-01
      -7.0194863815188668e-01 1.1071783895767591e+00
      1.5370765419816654e-01 6.5123151192833051e-01
      1.3804418651648723e-01 -2.1123816959502171e+00
      1.2152883079117767e+00 -1.4090452077563389e+00
      -5.4496290434433647e-01 2.6145110041534325e-01
      -1.3026806764675620e+00 -1.3811584300992347e-01
      7.3473680664332996e-01 1.1035710248278953e-01
      4.2583370270048915e-01 -1.2925198819528310e+00
      8.4192572933000143e-01 -2.7397852077948093e+00
      -6.5767830154545170e-01 3.3270574434019046e-01
      -1.9079499959616717e+00 9.4000859088874372e-02
      -1.2164905290032437e+00 3.3735049774089204e-01
      -1.0019035064643163e+00 6.9101487089856972e-02
      1.3367113011676888e+00 -1.1815600275487004e+00
      1.7850862982089053e+00 9.7472103316652414e-01
      1.1291428728380413e+00 -2.5680212464790311e-02
      5.0065013485478138e-01 -2.1910815726475104e+00
      7.9219291875895381e-01 -2.2574623756240524e-02
      -2.9136363058497211e-01 9.5874784776335376e-01
      7.6950861100206894e-02 -1.5084815338725053e+00
      -6.4707528831721040e-02 -2.0617571027700752e+00
      4.5310441526686990e-01 -1.2287372789857700e-02
      7.6246182221174907e-01 -6.6570636156362506e-01
      2.3524593886648208e+00 -2.4573539987810816e-01
      9.3241089285230627e-01 4.1904713716659586e-01
      -2.8315171273139867e+00 -1.0684637760514377e+00
      8.4082411139851954e-01 -8.2082456679805016e-01
      -2.1010556476664437e+00 -4.8955641153042595e-01
      1.0629809421571104e+00 -2.0877324940908135e+00
      2.0261167595555965e-01 -4.6587643378446109e-01
      -1.0231977989829670e+00 8.8651204735263156e-01
      -1.9719553094176467e+00 6.2159498520873957e-01
      -1.1683172886474742e+00 2.2512719780157933e+00
      -5.4711042245507491e-01 6.1326025682013852e-01
      -1.6625213870472200e+00 -1.9133564147867790e+00
      3.0909719663463331e-01 6.2928616671989540e-02
      1.4057888044412219e+00 -1.9694848054249472e-01
      3.0389585365254734e-01 -4.9675369064339486e-01
      -2.6356157900369901e+00 6.7263783905087415e-01
      2.3057111578836316e+00 1.0267888566544585e+00
      1.8180913965454737e+00 1.0674872052670384e-01
      2.1923796773371209e+00 -1.4332457707005219e+00
      -2.9834132065545182e-01 3.3919223802172088e-01
      -4.3407872985193385e-01 1.1500759037425230e-01
      2.0955870510445340e+00 -3.9490762106660798e-01
      -3.2422792493024741e+00 -9.7776553302746472e-01
      -2.4048622767527433e-01 5.8802338427862055e-01
      1.4766055129146738e+00 -4.4777171689591873e+00
      -8.1830536446058166e-01 2.5363223860570319e+00
      -1.0735556812182427e+00 -1.9765507575664649e-02
      3.5614306306637061e-02 -5.1069283653226472e-01
      -8.0840063892919878e-01 -2.7994424337420241e+00
      -1.1079756234664719e+00 -2.2574802731123835e+00
      2.0033261082007705e+00 -5.7419742222452129e-02
      1.5173953461291498e+00 -2.4751775480918243e+00
      3.5121050132425224e-01 -7.0198041832784419e-01
      7.9008713682398435e-01 4.6470868849008878e-01
      2.2670127896425851e-01 3.0463080175159984e-01
      -5.0728269679375722e-02 -6.8533413749122107e-01
      -7.3280402625436531e-04 8.3178294888348847e-01
      2.9280802862889910e-01 -5.5019465071509310e-01
      1.2672696578789826e+00 -9.1155057756402269e-01
      9.6178505454402918e-01 9.5522144218009331e-01
      -6.6170676358635949e-01 2.0676943943204903e-02
      1.3443401317093782e+00 2.3141704255104187e-01
      2.6221335584933829e-02 -4.8443225183952778e+00
      -7.5989829753690299e-02 -1.6142614372550665e+00
      2.7822657651358504e+00 -3.0396753135274164e+00
      -3.1148843919402613e-01 5.3734214422735915e-01
      7.5345198465897112e-01 2.8287442309338318e-01
      5.6156934623387633e-01 -2.2377987013094387e+00
      -1.6800263278589189e+00 6.7247433943578794e-02
      5.3560614448537258e-01 -6.9840824032795623e-01
      1.9672057724227290e+00 -4.1835010834319292e-01
      2.3042680900290140e+00 5.6185305807482933e-01
      7.0974539494106992e-01 -7.5558231951073168e-02
      3.0929818042642476e-01 2.2674537086035870e-01
      -1.4251396196490990e-01 8.6722592110867847e-01
      -2.9339226537844454e-01 -5.7040567997786340e-02
      8.7946488661077515e-01 -3.3168532060835798e-01
      -1.5266809061138359e-01 -4.0637104158776055e-01
      6.6241684032225578e-01 -3.8544931410607009e-03
      1.9929530294017539e-01 -4.4715099046995754e-01
      -1.2893094775045144e+00 -1.7944503865804267e+00
      -1.5920213016097867e-01 -1.0172215568337226e+00
      -8.5536217137159565e-01 -1.0859045682080588e+00
      -9.9723166289987075e-01 -1.1729307014809442e+00
      -1.1585557184787942e+00 -8.9300581007433766e-01
      -5.3409549153615954e-01 -2.5224339723908278e+00
      5.8808436191890945e-01 -3.6552194048452169e-01
      1.2541999165508055e-01 1.1327196350585647e-01
      -3.1761140212914568e-01 1.3581182786521567e-01
      -2.2997339976866726e-01 -1.3438870428527374e+00
      2.7492065088065193e-01 1.1283852159007308e-02
      4.6203748099263714e-01 -7.2773890168836242e-01
      -5.1970765995293633e-01 4.6326540383630287e-02
      -6.5601393251216988e-01 -8.1940936600487368e-01
      1.1073566675214037e-01 5.1015251957979124e-01
      -1.3802453628505658e+00 -2.1760340379753476e-01
      3.8608929207054971e-01 4.7218439443145932e-01
      -4.7742688416078771e-01 6.4801552402545248e-01
      1.6200424699355966e+00 -8.6911625811988691e-01
      8.8720204474967035e-01 1.7515358228680837e+00
      2.0162152893412881e+00 5.0205419857857980e-01
      1.1609016462227137e-01 1.1402744516555245e+00
      -2.5799840613566860e-01 1.7737519848295889e-02
      1.1419218470942445e+00 3.8173731155843987e-01
      1.0304740962434238e-01 4.7675673102583216e-01
      1.4076312437445164e+00 -1.3035428782709105e-01
      3.3912803735432423e-01 -3.7130051820612069e-02
      -9.6082690531419335e-01 1.9181360572645675e-01
      -1.0658029468430159e-02 -1.6863359461813709e+00
      -2.0610524327531377e-01 -1.0297406771245032e+00
      1.9474359297177657e-01 8.0907966420872904e-02
      1.7205551520443334e+00 -1.0600758812984311e-01
      6.7358133775100093e-01 -7.3682842067386886e-02
      1.1062279749251597e-01 9.0978236004623203e-01
      -1.4263867329783492e-01 2.9989371509487178e-01
      -5.1590210986352476e-02 -1.2161824481776153e+00
      5.1311445652530996e-01 1.9856909846646320e-01
      -7.6366105292928432e-01 2.8862353789363995e-02
      5.9634146682899136e-01 -8.4017368155388050e-01
      7.4852656571804432e-01 3.5425813027446296e-01
      4.7875559365069648e-01 9.4802304436183926e-01
      -4.0252054478439703e-01 2.3184959992600147e+00
      -1.1448142965366576e-01 -3.0463103082039961e-01
      7.9360450984695607e-01 2.2455430683511408e+00
      -1.3037642286648132e-01 3.6528877221896995e-02
      7.6605578561228183e-02 2.1086444669894649e-01
      -5.4633010899838474e-01 -1.4717502853044151e+00
      -9.5876841150523251e-01 1.9478123789885533e+00
      7.6037080153418979e-01 1.3183990900251079e+00
      7.3050976638894405e-01 -7.3282536869475223e-01
      -1.2460944894566268e+00 1.4839452210294761e+00
      4.6073077521750516e-01 -7.2018776545215213e-01
      -1.0590068882380727e-01 -2.6045980767005239e-01
      6.4328348293180071e-01 7.8825037968069678e-01
      3.7795252418237318e-01 1.1648863676596168e+00
      6.6729774606679371e-01 -7.0971696330238987e-01
      -8.9202283022072962e-02 -6.6352958500196202e-01
      -2.0878142641160560e+00 3.0142899258052696e+00
      2.4105555098078982e-01 -2.0112768328504926e-01
      -3.6170789553456228e-01 4.7252566373224225e-01
      -5.7064847759613690e-01 -1.9430205243247481e-01
      5.8770187820198283e-01 1.3410091004953781e+00
      -1.2119758179452919e-01 2.7481629030327831e-01
      2.3867831789609911e-01 9.8090529581253671e-01
      -2.6348042594662563e-01 3.7085247114043476e+00
      -6.2624573415136930e-01 -1.0403695831261306e+00
      1.2110007755869876e+00 -9.3105896492772600e-01
      5.8981524631984014e-02 6.4005973178755349e-01
      1.2369797017684183e+00 1.6930072001714527e+00
      -1.0550293174478311e+00 -1.9267973111302779e+00
      1.4443137386915747e-01 -7.2035169358484608e-01
      2.0711675702068106e+00 2.0990018087627332e-01
      1.7947127553759917e-01 3.4305385157554524e-01
      -1.2481507765359727e+00 -1.3105870889602926e+00
      5.2799578910802591e-01 1.1771792614311962e+00
      1.0629737202779683e+00 -1.0328747934851548e+00
      -7.6036334059248964e-02 -7.0147322775406987e-02
      -2.7703601572353214e+00 8.2928150960047819e-01
      -1.5140990042879340e-01 9.2657030084665737e-01
      -6.1943182375170924e-01 1.1504186039743343e-01
      -2.7511597181308585e-02 2.6518897871924807e-01
      1.9177534424721456e+00 1.7806785596422876e+00
      5.0767677101118891e-01 1.2886999259553382e+00
      1.1714634449254226e+00 1.3117876105381692e+00
      -3.3698694185648592e+00 1.0145340851445857e+00
      -3.2200871580882723e-01 9.8914925353763727e-01
      9.0426944508090590e-01 3.2820196916317784e-01
      -2.5911269322581889e+00 1.0484390741161917e+00
      -7.7244889613180612e-01 -1.4230554967321625e+00
      7.4827118198414921e-01 -5.9221011945884461e-01
      1.8129212223880178e+00 -2.4584147642761831e-01
      2.4222766348369382e-01 -1.4051604750702096e+00
      1.0445175304736387e+00 -7.8722333754810658e-01
      -1.5214310267752256e+00 2.8412434379816254e-01
      9.0649705555148197e-01 1.0590421483572836e+00
      1.0391732482188690e-01 -1.1820905128780717e+00
      -7.0327490968286499e-02 6.3751468398293176e-01
      -7.6574312104383835e-01 9.7529376814363145e-01
      6.2367667281177863e-01 1.4467160953542033e-01
      -5.1011385683623134e-01 1.3193881297411327e+00
      1.8294075084079726e+00 9.1367196399708384e-01
      1.6799123098208772e+00 3.9868536823656225e-01
      -6.2748011966674999e-01 4.7265143618292943e-01
      1.9613157719415013e+00 8.2950622619622716e-01
      -2.5091926792280659e+00 3.4147077088001299e-02
      -1.2464658064380789e+00 -1.4696000936152948e-01
      -1.9729290733020115e+00 -1.6948976631296914e-01
      -1.1539417239706659e-02 -1.6605632577376119e+00
      -2.2373657827096931e+00 -1.5032950654956778e+00
      2.3746140961200832e+00 -1.7421458504572789e+00
      1.2065002079313165e+00 8.5343509353964497e-01
      4.8648221759605803e-01 -1.0176452382844194e+00
      1.8294372667880496e+00 4.0895984539705317e-04
      -2.7780296337234254e+00 -1.7020663770635387e+00
      1.4844630503866685e-01 2.1892061605651331e-01
      2.9205279247938232e-01 1.3636881326447889e+00
      1.0722141081338830e-01 1.4847759933692206e+00
      1.4319943484071083e+00 -2.1662414323559886e+00
      7.3337827733383609e-01 -1.8829759268733499e+00
      -5.4698407919199388e-01 2.5929702666578103e+00
      2.6434414655818732e+00 -1.2717011750029472e+00
      1.4459958487319033e-01 4.0333192057708384e-01
      1.3741764215636880e+00 1.7712980737409956e+00
      -2.1617912125612713e+00 5.6304470698230913e-01
      -2.6686608569656611e+00 -1.6367378170068365e+00
      -7.5377375874657948e-01 -4.7540167694557156e-01
      -4.1056340350693237e+00 -2.0625520517869198e+00
      1.0366049284313967e+00 -1.4514922523929530e-01
      -1.7520966207386222e+00 3.4107256993771135e-01
      2.5456639796431628e+00 -3.4438651210261451e-01
      2.0656916054821939e+00 -8.6796613408203838e-01
      1.6865369425227776e+00 -4.9634947868292617e-01
      8.5872850056044370e-01 2.4251251035161232e+00
      -5.2728685394753194e-01 -1.9111656427405264e+00
      1.9481089647818672e-01 8.2489482450353768e-01
      -1.4812314973337648e+00 -3.8721282319547079e-01
      -8.7362780858835504e-03 4.9512315678350033e-01
      1.4734250398429498e+00 -1.4635224503348394e+00
      -2.3937577298061448e+00 -1.1424016363984144e+00
      -3.2340410157389604e-01 1.6552251712306796e+00
      1.4140470920055153e+00 1.8296612506499799e-01
      1.2781903653977900e+00 -1.3407576077275538e+00
      3.1395337518455596e-01 -2.3333046134545776e-01
      -5.4160586293160273e-01 -1.2515603071116481e+00
      -2.6069370438586588e+00 -1.4112853238081122e+00
      -3.2814094309111813e-01 8.0160072864889664e-01
      -3.7917500711987784e+00 -9.6171057735556498e-01
      1.5573367673566154e+00 5.3980720598376490e-02
      -4.3858867854420142e-01 1.1271526526967628e+00
      6.4354324481813074e-01 1.2914115130058095e+00
      -7.0191604037611244e-01 3.4428966163209382e-02
      -2.0448728176428141e+00 -2.1767401562498021e+00
      2.7856212756225035e-01 -1.2507343741010502e+00
      -1.2501701890130443e+00 4.5728051011554172e-01
      2.6723753787877225e-01 6.0837664198997055e-01
      -3.8496823184221729e-01 -1.1395874683336957e+00
      6.6609614015735130e-01 -2.4991563887583387e-02
      8.0434037624193944e-01 4.7367753322983139e-02
      -5.6929589932118840e-01 -1.0321431647426191e+00
      7.4628407580728418e-02 -6.9146614338763590e-01
      -9.8062100587025980e-01 1.0278245441373424e+00
      1.1011179981713752e+00 -1.6391266805320430e+00
      1.2668329803180378e+00 2.0739179759061438e-01
      2.4954695762512262e+00 8.4073931729671328e-02
      2.7274649956511130e+00 -1.8681743691462374e+00
      1.1614276192248461e+00 -3.5276742632775304e-01
      1.0734993435998188e+00 4.2815550288821141e-02
      -9.3223624321167775e-01 -1.3240751830896647e+00
      1.1830661114311325e+00 9.8453624896249181e-01
      5.2515467796816351e-01 1.0441671546642759e+00
      -2.5172513419567637e+00 9.5419619009629397e-01
      -9.7047892055217092e-02 -9.2921729963074506e-01
      1.7836378711280715e-01 -1.0281662715463237e-01
      -1.1409608479745974e+00 1.1766402707527840e-01
      -1.4380534121180683e-01 -2.0745317688856812e-01
      -1.9003096163249724e+00 -6.7399956713368359e-01
      6.4272890542663008e-01 7.6382367603262991e-01
      -6.8632049597108313e-01 4.1363402483968459e-01
      -1.4102502736023950e-01 -1.3448227788217415e+00
      -9.0639915081307454e-01 -2.5453349490758326e-01
      -2.1665080786662516e+00 -1.0867086963220280e+00
      -5.8309037791218310e-01 2.3647736394443689e-02
      -2.5160113398220757e-01 -1.8008288279602795e+00
      -7.3371949464346653e-01 -1.6536315154559547e+00
      -5.2030791631744733e-01 -9.9331205196712369e-01
      2.8216462555996356e+00 -1.3757083161263768e+00
      1.3681465883744155e+00 -1.4867984560239477e-02
      6.2653383765386605e-01 -7.3699270686391516e-01
      9.3587330198842200e-01 -1.1169279402262220e+00
      -1.8843219249678626e-02 -1.2523488335555972e+00
      -1.1936400348587648e+00 -6.1290527199281075e-01
      3.1568841530686487e-01 9.4996921648209021e-01
      1.2630535144293957e+00 -1.8563569889002682e-01
      -4.8794385062779960e-01 1.0257990593666375e+00
      1.8599171313582738e-01 -4.9467674436867812e-03
      -3.0615666173444744e-01 -4.1548034369288422e-01
      1.5063677004975013e+00 1.1437895691054121e+00
      3.7532887000109172e-01 2.3926979655615810e-01
      -6.5159223732009819e-01 -8.9082187183013961e-01
      -2.4089118000075219e-01 -1.3690750338642494e-02
      -1.6689980716819484e+00 -1.0786879500393567e+00
      -2.0363294187626519e+00 -2.3360303696026527e-01
      -7.0560788741216079e-03 1.1501653741296489e+00
      2.1979217567108184e-01 4.3438530172978579e-01
      -5.1090052159540023e-01 -1.7109828469835069e+00
      7.0721309650896869e-01 1.0970456898205092e+00
      1.1468983552543630e+00 -2.1472451432379045e+00
      7.5296136937457042e-02 1.5981055640430095e+00
      1.1563009935282038e+00 -1.7815052277821819e+00
      1.1826810734779716e+00 1.0410852932061589e+00
      -6.2975902133189210e-01 7.4117224951742344e-01
      -1.0148688429984016e+00 -1.9503116264521536e-01
      3.1657240085544086e-01 4.1308113730590706e-01
      -4.9706225223900657e-01 3.3855143329063148e-01
      -2.3669921010835687e-02 -1.9068358473436400e-01
      8.2742307451568919e-01 6.9465841744990309e-01
      1.0956960679881955e+00 -9.3856368400635282e-01
      -1.5145454084991887e+00 6.8511309698197209e-01
      -5.6035387420092975e-01 -4.4199381884895494e-01
      1.0791078838276129e+00 -2.4113676717197214e+00
      -1.2652877132400897e+00 -3.9360286516664839e-01
      -9.4662900627305635e-01 -3.1495665601699481e-02
      4.7967772757578665e-02 1.9281241843495172e+00
      -2.3721777630405219e-01 9.6892336642365226e-02
      2.9035217461000906e-01 -2.0757460861865204e-01
      1.2963880246971402e+00 4.8358419942553243e-01
      5.1571446972252621e-01 -9.7048067668530880e-01
      -4.1967297591370201e-01 -1.6328777763405514e-01
      6.7960080255018351e-01 -3.0899527429706625e-01
      7.3616494148054079e-01 4.8620356956103400e-01
      -4.6168036344300850e-01 -1.0395321705763975e-01
      -2.2812112631894759e+00 -1.5972672860051009e+00
      -8.2671868973372831e-01 4.6287296405822170e-01
      -2.1614129306847929e-01 -3.4621350853079608e-01
      5.7493722370807276e-01 5.8452138121148078e-01
      -7.7303378827455049e-01 -1.7114497545987135e+00
      9.5330866504824571e-02 -1.5557087346845433e+00
      -9.7148298552629375e-01 6.3026084310249852e-01
      -9.3900826729950770e-01 2.7980580352602735e-01
      2.1791011392062023e+00 -1.9316129120736367e+00
      -2.0496452926120878e+00 7.2934587629240988e-01
      7.2195618766126446e-01 -6.6425580366584233e-02
      1.1381385813850078e+00 1.4006965752919589e+00
      -1.2516369267589424e+00 -1.0729361925988783e+00
      1.3217745725145589e+00 1.6615190021809498e-01
      1.4281117198060260e+00 4.9756798771969418e-01
      1.5749417441961500e+00 -3.2322210628418596e-01
      -1.3746973443534050e+00 1.1423936466701115e+00
      3.4603014768899559e-01 3.8662718029885475e-02
      -1.2170373894952491e+00 -3.5138913201749949e-01
      -1.2616924608716057e-01 -5.5310302358727226e-01
      4.7155948623440852e-01 7.2194086081844000e-01
      -4.6817219303298330e-01 8.6928559230215974e-01
      4.4838520184207381e-01 -9.1910834937051678e-01
      3.0042064079505310e-01 -8.8404774187993362e-01
      3.5995756187472300e-01 -7.9343386693377049e-01
      1.3274653089796133e+00 -2.4180093393519209e+00
      6.2709825060014623e-01 3.2612327321549339e-01
      -1.6050683211324028e+00 1.1468345575533170e+00
      9.5358902198070461e-01 7.2317533456371752e-01
      -7.2811966371509274e-01 2.2335414956129918e+00
      -1.0319403743978433e+00 -4.0391463630373231e-01
      -9.5593169010909626e-02 1.6470656399566999e+00
      -1.9589026103397784e+00 -2.3327124830310240e+00
      4.0848031268076979e-01 1.1014468309501428e+00
      8.6838023453906532e-01 -1.0815483515043647e+00
      5.7098332768589943e-01 1.3719560536281463e-03
      3.7284649008946913e-01 -8.1126806129552342e-01
      -3.9337800074942766e-02 -5.5894833295330870e-01
      2.4636449542768252e-01 -1.5314406440141201e-01
      5.7452159829690486e-01 -5.1177485315412763e-01
      -1.2463301955275055e+00 1.5230954252272924e+00
      -1.0930126165870852e-01 9.7372353329879868e-01
      4.1183540720316014e-01 -3.0998588040533037e+00
      -3.8213184767815644e-01 -2.3792775937237329e-01
      -1.0992022778996970e+00 3.7391523864837917e-01
      -1.8617815008179421e+00 9.7245706575573909e-01
      -2.6522734247554411e+00 1.4279050054934633e-01
      -1.0691302342823334e+00 9.4196970659386881e-01
      6.1625564090184770e-01 8.9192830326482742e-01
      -1.9213903529388738e+00 1.6253423901194226e+00
      1.4740335752269484e-01 -9.3061810710380433e-01
      -8.5019689041636967e-02 4.1220414458103843e-01
      -6.9182196018339165e-02 -1.2925070328141166e+00
      2.2775784293558092e+00 -8.9936106375708669e-01
      -1.3322876375397705e+00 -1.9554981446616380e+00
      -2.0952988418977678e-01 -1.9847112460296150e+00
      -4.6733339119973549e-01 -9.5755274326935569e-01
      -9.8299513051497822e-01 -1.0649694094989062e+00
      -5.1332388060650369e-01 1.1764338786768773e+00
      -7.3693711129730499e-02 4.2130448510935187e-01
      3.0746540260966532e-01 3.0526206427877116e+00
      -1.8177597124456746e+00 5.7482085066118815e-01
      8.0449635918656293e-01 -2.7924708801243590e+00
      3.1338846088280442e-01 -1.5647274102443411e+00
      1.5985957134127267e+00 1.8381939486778314e+00
      -2.0372026069262725e+00 2.8402863129838778e+00
      -2.0780323661885105e+00 -2.3473158398528851e+00
      -2.3090083716904259e+00 1.6524338485374188e+00
      -9.7808575020096578e-01 8.6360827263394346e-01
      -9.9698968993236359e-01 -6.9897191504866318e-01
      -2.7008383370683967e-03 -2.0000265312201373e+00
      -1.4260717614428304e+00 -5.0571422534696686e-01
      2.8242918305609899e+00 -2.9679654322557675e-01
      3.2830207822658228e+00 7.5543567069006265e-02
      -3.4400745803239574e+00 -4.4955275572017783e-02
      -2.2263654883594386e+00 -2.7384553738617319e+00
      7.6243901453791507e-01 -1.4548715294285015e+00
      1.9077923222465873e+00 -7.2211567319516767e-01
      2.5650798211133286e-01 -1.1074418853922003e+00
      2.5914511859319918e+00 -3.1434790159292803e-01
      -9.6922997800325783e-01 3.8445355132434997e+00
      -1.6299395857040522e+00 1.5790341051008479e+00
      3.1584266509783132e-01 -9.8153976491838368e-01
      -3.8726788858597733e-01 -2.8080256243749964e+00
      1.6158840173303188e+00 4.8427790474333759e-01
      -1.1336030129432062e+00 1.7934934017153896e+00
      -1.4181125895038713e+00 -1.7842560605345084e-01
      -1.5074504378192224e+00 -5.1462940678465130e-02
      2.0693899577304236e+00 -1.0920194864739676e+00
      1.8341449804427199e+00 -2.2519772004666333e-01
      1.8097538549662595e+00 -6.0509400068546992e-01
      -1.5910939543223293e-01 -5.2478648048113918e-01
      -8.5112739291674722e-01 1.2782749174923862e+00
      3.7717212522480206e+00 1.2979656692317705e+00
      -2.1863491748605277e+00 -1.2625221013426737e+00
      -3.6522015719179013e+00 -8.6628649587460638e-01
      -7.3296920213515993e-01 -1.5891732058673178e-01
      1.4236775928822942e+00 -8.3564700484607179e-01
      -9.8642687256604289e-01 8.9899869760119022e-01
      4.3197946742322069e+00 -3.7151428014452981e-01
      1.0146643858129292e+00 5.4784387421906411e+00
      8.3777892267446730e-01 3.1562151967087726e-01
      1.6628858170792684e+00 1.0954515396861100e+00
      -4.1020353077474059e-01 -1.0253144908264591e+00
      4.4140051865658581e-01 2.8329444524381593e+00
      1.7458686294480303e+00 3.3925635777148067e+00
      -9.9421865375343887e-01 -4.3871099065218583e-01
      -2.8724796542278046e+00 -1.9981203635383287e+00
      1.7718153184225671e+00 2.1655389676838070e+00
      3.4172609617615335e-01 3.5746776933325641e+00
      2.9230110794460473e-01 -2.6843461214194644e+00
      1.5647812569713626e-01 -6.0832045459115480e-01
      -4.9377379885962902e-01 1.7064606379013916e-01
      7.8976880046960532e-02 -2.0841217555708278e+00
      -1.7433935621503049e+00 -1.9782452158828763e+00
      -2.2353180455253754e+00 2.1171836430855957e+00
      2.4765866083147183e+00 2.7803170969477540e+00
      4.4101312718089503e+00 1.2113757201619328e+00
      -6.5516071265563847e-01 2.2857336533255350e+00
      7.2581286894271022e+00 -2.3961533696749396e-01
      2.1675317378684005e+00 1.1593956599130755e+00
      -1.1060263974822442e+00 -1.7802090061874714e+00
      -6.9757645849513927e-01 5.8100753662848925e-01
      -2.5364787280888405e-03 -3.3476861211219178e+00
      2.2542959475437234e+00 2.3270450247736489e+00
      -4.0773543148814692e-02 4.2850657275849424e-01
      5.2207477681091552e-01 1.2184258028985597e+00
      -8.0110955963587993e-01 -5.5809410805856674e-01
      -7.9878028903379428e-01 -4.5235162711432453e-01
      -1.2339458821800668e+00 1.6192205736055916e+00
      8.2647892022408309e-01 -2.6602381405932172e+00
      -1.0824693350629906e-01 1.7541677394442865e+00
      4.9425996927170219e+00 6.5001149056951824e-01
      3.6900597938928317e-02 -1.1222187286414249e+00
      -2.8870674631172890e+00 -3.6174575744551065e+00
      -6.9822958805705337e-01 -4.6998995138127958e-01
      6.4144230138505476e-01 6.5050931423735392e-01
      9.2023496713768105e-01 -1.6942371131087521e+00
      -1.8913269763223810e+00 4.4790361981949522e-01
      4.5961993724592798e+00 1.1851286870280575e+00
      -6.7561585200005847e-01 1.6426718125023831e-01
      7.2658109532873216e-01 1.1099805918721585e-01
      -2.6841872505348585e-01 2.7343180995633298e-01
      1.9928920327446145e-01 -4.0778500090199561e+00
      2.1317364495479196e-01 6.0356353788915262e-01
      -3.2672759767507548e-01 -1.4075256633745112e+00
      6.5571333111297692e-01 -9.8661718849769953e-01
      -2.0912279272316159e+00 1.4573013856962974e-01
      1.4183996817951245e+00 -1.1759738575331455e+00
      1.2565741555115000e+00 1.0228789338877422e+00
      1.8324508048644366e+00 -9.8519911302016416e-01
      -2.4916503888537780e+00 3.1925256470792367e+00
      1.7976068850510529e+00 8.7777876603838456e-02
      -1.9776910912351978e-01 -1.7210304082188757e+00
      -3.0016896893520695e+00 -1.2989827307516286e+00
      -3.8220225039162709e-01 -1.8142888466845171e+00
      -1.3993483964196554e+00 -7.8970212851927146e-01
      -1.1609450629844700e+00 -5.4649630154687567e-01
      -2.1724215976672712e+00 -5.0995711586039416e-01
      2.7677438492831099e+00 9.4325011295623906e-01
      2.9439128248589530e-01 2.7172292879769753e+00
      6.7445771887528527e-01 -2.4253795700787578e-01
      -4.8477927165179047e-01 1.0655701609055301e-01
      1.0677656147894070e+00 -1.6202304203269542e+00
      -5.8986450129503071e-02 6.5838680580679554e-01
      -6.3614509759036808e-01 -2.5053874096600413e+00
      -1.0128446260639814e+00 -1.2073853527704774e+00
      -1.2971480094074903e+00 4.8704265570859195e-01
      5.4084176344307699e-01 -5.8246583261950335e-01
      -2.1809351501004794e+00 1.7116186134932148e+00
      4.9347594047387248e-02 -1.9394168297782226e+00
      -9.8936790260754781e-01 -6.0429486693943213e-01
      -8.0515898156004695e-01 -1.5557025176070207e+00
      2.2613822580772895e+00 -3.6497355766641926e-01
      -3.2667135468782491e+00 -1.6945765083257629e+00
      -1.6286502850451776e-01 -1.3935651947973120e+00
      1.8371661062865061e-01 -2.7434209578520807e+00
      -1.5079087351314151e+00 1.8535250240970585e-01
      -2.0590265628691435e+00 1.4048807206290188e+00
      9.5768963717102074e-01 7.7836022189766874e-01
      -1.2380009507844025e+00 -1.7245249383575070e-01
      1.8915793704270412e+00 2.4413860702246009e+00
      3.2151432197031649e-01 -3.2310266363346405e+00
      -1.1083755895149749e+00 1.5163649870016398e+00
      -1.9067202095611027e+00 -3.7438665776097257e-01
      9.8715766818246620e-02 5.4226209217923060e-01
      1.4747461032940161e+00 -5.6052725492642486e-01
      3.1686824387859674e-01 -1.9745001608131203e+00
      2.8009492901537703e-01 -4.3094377555554025e-01
      1.5408049720818333e+00 -1.3084971642901349e+00
      -2.7632198874822200e+00 6.3814748080774075e-01
      -3.3942759768007713e-01 -7.7466045693343610e-01
      4.8286565718281782e-01 2.9514433103152378e+00
      5.6804366567737219e-01 2.2548725469495343e+00
      8.0070865857099716e-01 1.8276431548187224e+00
      3.2729642486349340e+00 1.8411009710493909e+00
      -2.3582598917515152e+00 5.8682279904216250e-01
      -5.1235015847056686e-01 6.2841853185476249e-01
      -2.0972266509874373e+00 -1.5167330406629898e-01
      1.5898046399908852e+00 -1.6330424236827483e+00
      3.2584629793747988e+00 -7.9893101537083944e-01
      1.0864675478952706e+00 -2.9598509337088688e+00
      -9.3570218375737191e-01 3.8626287721937489e+00
      -1.7417400824189228e-01 -9.5458350975528614e-02
      -1.2638756447099661e-01 2.7188901332003472e+00
      -9.2060580026533145e-01 7.5201794599461186e-04
      -6.7427940197897301e-02 -1.0859917683031151e+00
      -2.7441047525045907e+00 -9.0996537374321640e-01
      1.0607113555523399e-01 -4.2264047295060463e+00
      -1.6329042780127687e+00 1.3978628241434587e+00
      2.6197332732836456e+00 3.6006207681036817e-01
      1.4588072157293530e+00 -1.4262816976025947e+00
      3.3060677642604375e-01 -6.4556492001608612e-01
      2.6173018581554597e-01 9.5694359607608981e-01
      1.3527921488465349e+00 6.2728454917491427e-01
      2.8121504257311161e+00 3.1761339105495408e+00
      -3.4316604347590651e+00 -1.6714395392467504e-01
      4.6736692784535450e-01 2.4813078428202888e+00
      2.2284455260619951e+00 5.2623718175553003e-01
      1.8403493545831111e+00 3.0106125977850193e+00
      1.8353136248334567e+00 2.4833811019899157e+00
      2.4338236113765106e+00 1.8816294321903579e-01
      -2.4494968900931533e+00 2.5325142076471598e+00
      -2.0036134617000101e-01 -1.8634657661154108e+00
      1.5452140353626380e+00 -5.0617849891544253e-01
      -3.6330795025361012e-01 1.3605210758546347e+00
      5.2557626643333011e+00 7.9801824620380968e-01
      -8.6941063878266500e-01 1.4828698373004412e+00
      2.4611378244525794e+00 -3.5596591013172718e+00
      -1.1167118698822485e+00 7.2369257869825123e+00
      2.8622919301692038e+00 1.7935529159394814e+00
      2.5109207384814405e+00 2.7191920859047216e+00
      2.6116173815366395e+00 -1.6538430060181006e-01
      4.3745409160710471e+00 3.3742413028425302e+00
      3.6398696582239172e+00 -8.3882337276790198e-01
      2.2229423939958819e+00 3.2366752046909384e+00
      -4.2317596678452691e+00 -1.4928864716009351e+00
      2.4390229665049823e+00 1.4215116472052691e+00
      1.4599768083820424e+00 -3.6874610558241581e+00
      -2.7177847401029376e-01 2.6312320321956689e-01
      -5.9046435609837671e+00 3.7834501422171146e-01
      2.5151475070348117e+00 -3.5236634037656871e+00
      1.7294268158754382e+00 1.4153142009635318e+00
      -3.5999146688414313e-01 -3.3201820821433268e+00
      -3.7595181189709316e-02 9.1875443455883055e-01
      -1.2653055496379606e+00 2.4521374812154817e+00
      3.0075040310351580e+00 2.9338162931284510e+00
      -4.1321381829712023e-01 -1.3109274476086208e+00
      -5.5275588136887310e-01 7.7749024088150917e-02
      -3.8674687673222330e+00 3.3141001358026596e+00
      2.5436350544959202e-01 2.7070618301230684e+00
      -3.4630466849855899e+00 2.6940857269615428e+00
      4.8552878450672399e+00 -2.5672397152442472e+00
      3.9909641621613221e+00 4.6516514670984614e+00
      6.3649036656905231e+00 -2.0673955570998612e+00
      3.0160097420842324e-01 2.5702748264847197e+00
      -5.1884934808311121e+00 -1.5218787768301771e+00
      4.4763762648808880e+00 1.5421990012435407e+00
      -7.8634639441810295e-01 -6.6560908922603330e+00
      -1.6471942004387274e+00 -1.5783105185801298e+00
      -8.5747635283868853e+00 -3.4790913821033326e-01
      3.1748321591397550e+00 -1.8569432699213915e+00
      1.7940944790983053e+00 4.3880851321431145e+00
      7.2852415379575575e-01 -4.0322698503779595e+00
      -2.0530436346354191e+00 -1.1257718536697334e+00
      7.8387314369110128e-01 4.9306397987929684e-01
      5.8643982334294353e+00 -3.2316027538624797e-01
      -9.8981759649357071e-01 8.4826139753209051e-01
      -4.3206202459495596e-01 -9.9607222487398883e-01
      -1.8462986434314435e+00 9.5899799889442701e+00
      1.1335967627290764e+00 6.2806642617859092e+00
      -5.1214780706610279e+00 -3.4304433389751652e+00
      1.7317675843935851e+00 2.0914746974301788e+00
      3.8750422304013665e+00 5.0924084539219283e+00
      3.0324216430469346e+00 1.2082085656627921e+00
      -4.1972102029952407e-01 5.7102141748465609e+00
      -5.5019623564110089e+00 -2.6677248153953368e+00
      5.5972165081212282e+00 8.2898834445642874e-02
      -5.1973774715617456e+00 -2.4115030242128586e+00
      4.7157654259350290e-01 -2.6072174503019845e+00
      -8.1932383836508293e+00 -1.9930538665673923e+00
      5.7439075388336951e+00 -1.9757939154372131e-01
      -7.6993415539310250e-01 4.5644783152836119e+00
      6.1302847665862514e-01 -3.4513553713471881e+00
      -6.3845178888898717e+00 -5.3847159569650327e-01
      -9.6291940847446900e-01 6.2326052830967118e+00
      1.5169105235007139e+00 -8.2691648688258523e-01
      -3.3986740651244651e+00 1.3487885572828995e+00
      -4.3047179850520205e+00 -2.2419413209337815e+00
      1.3982184454830706e+00 1.1935991679754215e+01
      9.3295499317675626e-02 1.7735844303337716e+00
      -3.7383384120948113e+00 -1.9968070776490074e+00
      1.3864524004258607e+00 4.1666383193543571e-01
      4.9864710972945012e+00 2.5748515005089638e+00
      5.5746664000007771e+00 2.9507410735334285e+00
      -6.1067820672484874e-01 3.1296329808937244e+00
      -4.3504316680780324e+00 -4.4444394319405580e+00
      7.0488628498016936e+00 -2.5418189541056790e+00
      -4.2923480327637922e+00 -3.5648322732752824e-01
      -5.4613562426296924e-01 4.6854591747663630e+00
      -7.8540257915932115e+00 -4.6768434430210997e+00
      -1.1525898997293209e+00 3.3830480891882329e+00
      9.8695862217659291e-01 1.6021337249209990e+00
      -4.9438575209921798e-01 -1.8950128139391862e+00
      -3.3707166575105219e+00 1.7172635755507768e+00
      -3.8868190456746532e-01 2.7563179662612205e+00
      -2.0578808839549470e-01 2.2985863956247343e-01
      -3.9458646430938629e+00 -7.2193868499673608e-01
      4.4364428836037317e-01 -5.2883635635420951e+00
      1.5182492615564946e+00 8.8960476339722838e+00
      -1.4893994434710942e-01 1.7754622086214431e+00
      -1.0332879160384719e+01 1.6053248981661121e+00
      5.3103887897714519e-01 2.8220517679264906e-01
      3.1524616273467228e+00 1.9925197945558146e+00
      3.5219339513878509e+00 3.1765305610073062e-02
      2.3695862606226575e-01 4.8093153802550956e+00
      -4.1614845037099553e+00 2.7500701226689783e-01
      3.6487805147617340e+00 -2.5245386702696635e+00
      -3.7470288072107176e+00 1.0967928146117645e+00
      -2.2229524318063336e+00 3.5259089246131743e+00
      -2.7546296669427175e+00 -2.1882400418162971e+00
      3.5571394631918420e+00 -2.4572778541105458e+00
      -4.1303360496226987e-02 -2.4478001980575367e-01
      -5.1737372653739577e-01 1.3950816556612100e+00
      -1.5675249988790776e+00 2.8172473012182015e+00
      2.5925025823270720e-01 4.0292471554013201e+00
      -1.6417469257459756e+00 -1.5288587622794831e+00
      -2.9213556112570020e+00 1.7646950409564037e+00
      -2.3496168202307208e+00 -6.0275341917896057e+00
      1.8189729046560463e+00 7.6264961139932126e+00
      -1.8965807445741295e-01 -1.6942230871219151e+00
      -5.1069710254708767e+00 -3.3942856790221504e-01
      -2.6561378601628802e+00 -1.8167533910499736e+00
      1.7361777296367915e+00 -1.0815245106566564e+00
      2.8808984586018274e+00 6.7230358445884686e-01
      -2.0968817652223652e+00 -2.8287610352704479e-01
      -3.0279598696286185e+00 1.3295354923814098e-01
      3.2911065571743112e+00 -1.1333688250558842e+00
      -1.2045830644430928e+00 -7.3923677627928364e-01
      -1.9262614395794739e+00 -1.4132325291484038e+00
      -4.9822849961108000e+00 -2.3085732785506463e-01
      -4.8048823025630782e-01 -1.7355206248763535e+00
      6.6613797152529175e-01 -3.4587975099775348e-01
      3.3805776399289761e-01 -1.9308206717419971e+00
      -2.8661643527524077e+00 -1.9704100134171283e+00
      -1.9010892682569125e+00 4.1003210615718206e+00
      -1.8093784647314619e+00 -4.4534172525755285e+00
      1.4009093704393150e+00 -1.2707193595211455e+00
      -1.3593059975757711e+00 -2.6884918917678197e-01
      2.7881830176531208e+00 7.7821556470777624e+00
      3.2967167207672787e-01 -2.7362930116487680e+00
      -9.5198546675666643e-02 -3.3037824842101680e+00
      -2.9003005492249334e-01 -1.5939658173171201e+00
      1.4366858116723054e+00 -3.2059157151743833e-01
      9.0767274386975405e-01 9.8151731540327536e-01
      -1.5261220333067882e+00 -1.0550398751811056e+00
      -1.3445186210385842e+00 -1.2116769854351850e+00
      1.7814193388525505e+00 -5.1501846019364617e-01
      2.5301020916281649e+00 5.9436774711449802e-01
      -8.1432534965112013e-01 2.9947341059210411e+00
      -8.5894306148807731e-01 -3.1527230432951647e+00
      -1.2917385581653893e+00 -1.2771258951285991e+00
      4.9015576815230916e-01 -1.5155805761400563e+00
      -4.7782763902594227e-01 1.6905955072788958e+00
      -2.1836868750104608e+00 -5.1037886495286389e-01
      -5.3080399194678041e-01 -1.1331723225756818e+00
      -2.4043509109920653e+00 3.9447885776258723e-01
      -7.1006456736650914e-01 -5.5565727525910069e-01
      -5.9520380281120000e-01 -2.3948933113752013e+00
      -3.5023622999202131e-01 4.2857442835826989e+00
      -2.8798603386834781e-01 -3.6286548473388112e+00
      -3.8921360890586792e-01 8.2562156882079030e-01
      -6.1560226603328005e-01 1.9673950167300207e-02
      7.9206541762592120e-01 2.5650426270580001e-01
      1.5850997311063375e-01 -1.1505177731167096e+00
      1.0626333811839153e-01 1.4043441991030310e+00
      -1.0244063857493309e+00 -1.0220364177121453e+00
      2.0112053515910091e+00 4.5067392548480278e-01
      3.2872173855249356e+00 6.1187656200679463e-01
      2.1299322985238645e+00 -2.3038035859302726e+00
      -9.2247192387257793e-01 9.5425672636508763e-01
      -2.5715017344249400e+00 5.9823518177451374e-01
      1.3962392122898939e+00 1.7220868784738839e+00
      5.3983032956748167e-01 -1.2793859368373635e+00
      7.5867212271856854e-01 -7.8592911442399127e-01
      -6.9910662216755426e-01 -2.0117606308753335e+00
      1.0408105077702878e+00 -5.6426663990906005e-02
      1.4280412430508795e+00 -2.5362703339570865e+00
      1.1992050052089636e+00 -3.5320180201131729e-01
      -2.5389895785615821e+00 6.2812877817870516e-01
      1.1761885982980878e+00 1.2869938834483718e+00
      4.8754362220453222e+00 3.0371604458125461e+00
      -1.4450029904601727e-01 -6.9400953424061684e-01
      -8.4864911913434393e-01 1.1484933774205044e+00
      -9.5761347081844661e-01 3.8207712092095852e-01
      -9.2810277275612429e-01 -2.0768399302169471e+00
      -8.0921889371161038e-01 -3.9795706329257746e-01
      -1.9988912885858243e-01 1.3283219891800531e+00
      -2.0556657704425739e-02 -2.1970804120516583e+00
      3.1102517710683024e+00 -1.9038969815645990e+00
      -1.3306795435517811e+00 3.8384113622390910e+00
      1.5384953726551809e+00 -3.1922636541079714e+00
      2.5205392999503125e+00 2.2303045244854425e+00
      -2.6667335851457952e-01 -1.1800171507165245e+00
      -2.1574681737833998e+00 1.5519977037003851e+00
      -1.0966571662023177e+00 2.0532400249905249e+00
      1.2539946837744040e+00 -2.2303404323642053e+00
      1.3149466272001455e+00 -1.0122765673736154e+00
      1.5505266319491187e+00 -4.5049572603762256e-01
      -1.2504855230406406e+00 -3.4242356025448077e+00
      4.5593413158218082e-01 6.0605977319275806e-01
      9.7671998874186627e-01 1.4451078650810798e+00
      1.6313660779336794e+00 3.1938074262115288e+00
      1.1331878374245357e+00 -2.6961214285258123e-01
      3.6012304006225138e-01 2.2047224949164659e+00
      -2.7318441314641349e+00 1.1907429308248880e+00
      1.2583510544620605e-01 -3.4759938206138918e-01
      3.1801616710180460e+00 -8.2781499703292494e-01
      -1.0854917859436335e+00 -1.5938234515672867e+00
      -2.7873757540531779e-01 -2.5527095100935608e+00
      -3.1643217091788807e+00 1.6873438499108784e-01
      1.0031594984256176e+00 -1.2687181919207564e+00
      -1.3506080355733763e+00 2.8199377337178686e+00
      1.2467233004539405e-01 -2.0280885297964191e+00
      -3.6861318822421345e+00 -4.3372587339625804e-02
      -3.3852057466832047e-01 2.6518405080270111e+00
      3.8736250276443775e+00 -1.5970272775099328e+00
      5.5833068573043421e-01 2.1874671784975104e+00
      5.0237517306995194e+00 -1.5167010738891025e+00
      -5.3959866115782109e+00 -3.2012424606696959e+00
      3.6032204294571253e+00 -1.3251353745347847e+00
      1.7770944813642251e+00 -1.1804196485258294e+00
      1.9121698270462029e+00 4.4163722613623033e+00
      1.7826073229987809e+00 5.5741926692481281e+00
      6.8826728552843253e-01 1.0025074678358141e+00
      -5.7604136140068771e+00 -8.7191036809167441e-02
      -1.0124138180772696e-01 2.9784207739616058e+00
      2.6631679974374234e+00 -5.4885029021887555e-01
      3.5242798640446549e+00 -2.9254039130751868e+00
      2.3448903261110092e+00 -1.1044852683734492e-01
      -3.9587130922510534e+00 -9.3474979431434080e-01
      -1.7602655165887606e+00 -2.6048098233933270e-01
      5.1738837996648801e-01 5.4402906705422165e+00
      -7.9291309214766725e-01 -5.7836862009664962e+00
      6.9533524543929615e-01 -1.8496288777393868e+00
      2.9385382320338965e-01 -2.4698355381454027e+00
      2.6330067493786733e+00 5.9727524487770589e-01
      3.2054958148238151e+00 2.5004524207962651e+00
      4.4942700678944778e+00 -3.7202180090021515e+00
      -4.6049566413024632e+00 -1.3001701307703792e+00
      -1.0805912612188333e+00 5.0557153039685565e-01
      8.3679178458166026e-01 3.8112043576315102e+00
      2.0501650936507310e+00 2.8977588040416351e+00
      -7.6470953030759806e-02 7.3770461846938140e+00
      -2.4837283025390260e+00 2.8226459167591762e+00
      -4.6595467284445542e+00 1.4773113548970025e+00
      1.4448521363130875e+00 6.7852382181791064e+00
      9.5206334687499972e-01 -1.6146226732256139e+00
      -9.2612075512419745e-01 -2.4275849125211955e+00
      1.2691990657714380e+00 3.8568600873259982e+00
      1.5727108964215368e+00 -3.7133159253196464e+00
      2.5906867765205783e+00 1.9144902242767399e+00
      5.1262769756254700e-01 4.8880741909992889e+00
      -3.5478631529677085e-01 -3.5423768029908054e+00
      -2.2149860539436528e+00 2.7957694557004618e+00
      2.4291534607348910e+00 -7.3996714331781277e+00
      -2.5760566821380975e+00 -3.8896412361542483e+00
      2.0191184054635869e+00 -3.4405452947339399e-01
      6.7448258936180876e+00 -2.5546383431121038e+00
      -1.5091792207057868e+00 -3.2171656259549013e+00
      -9.4542135644410286e-01 4.5437779422502791e+00
      1.0883671978715190e+00 6.9700994653089872e+00
      -3.1807453578182345e+00 -4.3266882264774037e-01
      -5.3074681163475788e+00 2.4313651818411692e+00
      -2.2063906733940422e+00 2.7799249197419531e+00
      -6.6914683593453717e-01 4.8197269606688228e-02
      2.9105010341434712e-01 -1.4235520344105565e-01
      -2.3906666081205450e+00 -3.9082395251712954e+00
      -2.0068231677970116e+00 -2.5319917686340605e+00
      -1.1092363429558447e+00 5.1563625654417660e+00
      9.7144902819642986e+00 -1.3231097400503913e+00
      -8.2213041685238863e-01 2.7476157444395102e+00
      1.9120106144935392e+00 -1.2969308853801957e+00
      1.8234761973298352e-01 -1.5145778382307740e+00
      -7.5345176278617485e+00 4.9986142801248701e-01
      3.0879363749010684e+00 -5.1590147532916042e+00
      -2.9732050389581088e+00 -4.5504646049505206e+00
      -1.3483688016752864e+00 -5.4173438795313356e+00
      1.0202256302327834e+01 8.5326823254445461e-01
      5.0014389263443348e-01 8.1572591509404754e-02
      9.1941779502496948e-02 1.8631288063469140e+00
      4.3493031493320968e+00 4.0644896899104282e-01
      1.1958455635830361e+00 2.7700961060919087e+00
      -2.6845933338151982e+00 4.9527266180852525e+00
      -4.3797487187402320e+00 5.3032551635654804e-02
      -3.7810818077948118e+00 3.0970502800093649e+00
      2.0525661309333061e+00 -4.0924984611887290e+00
      -5.4185294683361978e+00 -4.9190883368116705e+00
      -6.2571089708528458e+00 -4.7533557186093960e+00
      2.1223656726854263e+00 2.4446544457852739e+00
      6.1267183714235998e+00 1.5004646530401691e+00
      -5.0757133761742894e+00 1.7643766526600040e+00
      -7.0331349759802075e-01 9.3288280295905927e-04
      2.7091645304108070e-01 -4.8027711015902046e+00
      -4.1039432302256067e+00 2.7152533942096929e-01
      -1.7631982143823419e+00 -7.0737287207225714e+00
      -3.3683872800114276e+00 -1.1208489019992836e+01
      -4.7353450601714497e+00 5.4295120887742798e-01
      1.4322503575886355e+01 -3.8024936734490709e+00
      -9.7888727528915731e-01 -2.6664190824257746e-02
      -4.4055043689018953e+00 4.7503654171658036e+00
      5.8440096794298064e+00 -2.7831573761174577e-01
      3.9125659338781538e+00 -1.7524963591575515e+00
      -5.1601535290196603e+00 5.7681591474536054e-01
      -7.2760817311089898e+00 1.1144179870317823e+00
      -5.9265452670080911e+00 3.6094720241258316e-01
      -1.5661324137227406e+00 -6.4841888461000527e+00
      3.3762066553370462e+00 -1.0760545314308667e+00
      -2.6700111548011933e+00 -3.0040067154555046e+00
      2.5898467012052686e+00 2.8755444559093002e+00
      5.6831389230531482e+00 -3.3066722917834601e-01
      -1.1047384212175984e+00 2.7301859641835531e+00
      6.2287046503385768e-01 -7.5858685056969666e-01
      1.1115112250638580e-01 -5.3567452712615058e+00
      -3.0110114125510345e-01 -1.1080630959740885e+00
      -3.7389391107204495e-01 -6.2050935383461150e+00
      3.8540151149397932e+00 -7.0640064135556617e+00
      -5.5500062119583360e+00 1.1798442311501074e+00
      3.9981199152682576e+00 -3.4382783896542501e+00
      3.1819631335592349e+00 2.4816087980099728e+00
      -2.5720518343283123e+00 1.0737947614602110e+00
      1.9952341680844776e+00 -3.3331001175384389e+00
      1.0617173376805944e+00 1.1203641801302171e+00
      -9.3163881711307150e-01 2.5844842861353614e+00
      -1.1559930315798956e+00 -1.9768156839807518e+00
      -3.4675021704565592e+00 -1.4979622564757905e-02
      1.9482140825157265e-01 -6.6989598580341765e+00
      4.1112753641739594e+00 1.3833811730446535e+00
      2.0978319530172965e-01 -5.0514115752502846e+00
      1.7096079193205644e+00 6.3052797917944021e+00
      -6.1069380626131298e-01 -1.9038398117009414e+00
      -1.1243589581467364e+00 1.5441604374803151e+00
      2.3960475849775627e+00 -4.1485925572746751e+00
      -1.9388070441576694e-01 -3.1088128989140351e+00
      -3.5480761311397635e-01 9.6762546389255633e-01
      2.5690569246415067e+00 -5.7169736734991421e+00
      2.4091364395509611e+00 5.0584467226082908e-01
      -2.6807207231876329e+00 2.6266993636009901e+00
      2.7917003736625343e+00 -6.1170332902841258e+00
      -2.8528398457684068e+00 3.6894776356686503e+00
      -2.2070383576079075e-01 -4.6775683452446719e+00
      -1.5996926281452282e+00 1.8546431386982691e+00
      1.6777032419043321e+00 -3.4714089106708732e+00
      1.8909559497427770e+00 2.5738973542491488e+00
      -2.7676716680027766e-03 9.3144122179741184e-01
      -2.3393622452573018e-01 2.9655445292072402e+00
      -8.8245079043794150e-01 -1.7427909668118877e+00
      2.2062176307128971e+00 1.3211262423601891e+00
      -1.9852211581334163e+00 1.8043454522052929e+00
      2.1500569529809406e+00 4.9557193810248101e+00
      -3.8602502003112793e+00 -2.1775643199979648e+00
      -5.0656172133380579e+00 8.3743370292726593e-01
      1.8469564672724985e+00 -1.6338433836890620e+00
      -6.5780530108678881e-01 -3.4359573828432017e+00
      -2.5727946813564215e+00 -5.1654845359873824e-01
      2.6056461095714456e-01 -2.9752326682145944e+00
      -2.2841223712708394e+00 -1.1945515765729395e+00
      -1.7469094304103976e+00 2.4400798870549392e+00
      3.5394555101713321e+00 -3.6276707893182696e+00
      1.1233169162277370e+00 2.4466658825864682e+00
      2.4960245740877776e+00 -5.2863994583813312e-01
      1.6875589192333194e+00 2.4680099489252494e+00
      3.4813814535142860e+00 -9.5801524010898509e-01
      1.2526707576615739e+00 -1.3623076467397330e-01
      -2.6510235140601868e-01 -1.4607338518727916e-01
      -1.4981213813886001e+00 1.3619376341816862e+00
      -2.2228100053005182e+00 6.6134905514473485e-01
      -3.2751164790060561e-01 1.8311103662083339e+00
      -2.1688255609194442e+00 1.3718668614274836e+00
      -9.7829321710698514e-01 -7.1063507670490567e-01
      3.2935304443165672e+00 -3.3407030535783194e-01
      -4.7633871123789134e-01 1.3013994711694437e+00
      1.6231253487888522e+00 -5.5840358901485698e-01
      3.3941544833335913e-01 1.1763245468964227e+00
      2.8096920082567256e-01 3.6606882499645615e-01
      8.1682215275787762e-01 1.3854563795132416e-01
      -2.4569195700926434e+00 -2.5406380523886849e+00
      4.5116603626461943e-01 -2.3332842274185830e+00
      7.4056241982688231e-01 7.8973411084175271e-01
      1.4141726055189987e+00 2.1984020477341351e+00
      -5.8430483909862529e-01 -2.1020770225538703e+00
      -1.7925111694126945e+00 1.2846799909323576e+00
      -4.0572419452748915e-01 1.6760295212394364e-02
      -5.2116150679008177e-01 -2.7332115533264106e-01
      -1.5001279669307291e-01 -3.6395980558907679e+00
      -5.7167407535814281e+00 1.4445868913488620e+00
      -6.6501882614432761e-01 1.5912381487024133e-01
      1.0177134124261085e+00 -9.3903798230024538e-01
      3.8517181228197610e+00 -3.3355637636402249e+00
      -1.5281345556679857e+00 -8.0806727661560274e-01
      2.4650093513356524e+00 -1.9211931928202322e+00
      -1.9682599602743533e+00 2.2962598335668445e+00
      1.7184060389671624e-01 3.7130080931563629e+00
      -2.4466201929931708e-01 -3.0208222892137750e+00
      -6.5819791786104442e-01 -1.8147336470509814e+00
      4.9910878396015040e-01 -3.5106558976072315e+00
      -8.2100264256811462e-01 -2.7013584736226071e-01
      2.9104916700027017e+00 1.5453113181818203e+00
      -7.2614463474130489e-02 4.1889589513018866e-01
      -4.9126247291728218e+00 3.7263474351877921e+00
      -4.1562445864797235e+00 -5.1414028152998537e+00
      6.0458566152893241e+00 3.5226634427532828e-02
      -2.1826882743585498e+00 1.8106311726804172e+00
      -7.4855674663240823e-01 2.3538680815530943e+00
      3.7939126852046128e+00 8.9708616306173983e-01
      -4.0848551949844882e+00 -3.4808559866562422e-01
      7.0765621834312142e+00 2.0890540731884246e+00
      2.5055613671192436e+00 -4.3710168463106580e+00
      2.9064298836159828e+00 3.8933098795781951e+00
      -8.2555328477569168e-01 -8.7423640190479712e-01
      -2.2386818829080761e+00 -1.8803913792200482e+00
      1.1420648054834410e+00 4.8173016503077610e+00
      -4.8976509759281966e-01 8.7936775270621101e+00
      -3.8905490021748373e-01 -4.1525729864672405e+00
      -5.5135498145852582e+00 -1.4234279883234777e-01
      -1.9744078304091626e+00 -3.7556689501346496e+00
      7.8638048266007354e-01 -3.4907634640816676e+00
      -4.7504514657177105e-01 -2.1066375797142207e+00
      -3.5203551951366294e+00 2.7492071654051133e+00
      3.6318855399729797e+00 1.6894830393354747e+00
      -1.8323227060677250e+00 -3.1817777046481841e+00
      4.1480951317874979e+00 -4.8650523663295147e+00
      -7.5256613382359729e+00 2.1656651679491143e+00
      -5.4494806135194214e+00 1.9528023698712211e+00
      4.0605018090407752e+00 3.2914361072687028e+00
      -1.3471386897088851e+00 -3.7311278792214786e-01
      8.3836297091641043e+00 4.5838458435169747e+00
      6.2733769735041847e+00 -2.5715118232557592e+00
      6.9111128864889571e+00 8.1131971162596184e-01
      -3.5424632794981989e+00 4.4792706901810408e+00
      5.6494802892585136e+00 -7.3447459262700709e-01
      2.5534630999266755e-01 6.8578692111794251e+00
      -3.3822160418607212e+00 9.2184729708074098e+00
      -3.3595879627352759e-01 2.2663829053033369e+00
      -4.7186675551572890e+00 1.5987050280206423e+00
      -1.1095171016263211e-01 -3.2698393634080798e+00
      -1.5303641033240878e+00 -4.1620456356971891e+00
      -4.2618544669904326e+00 -3.8155864384613785e+00
      -3.7593079395271580e+00 1.8723364507974445e+00
      3.0305391776778703e+00 -2.6664248296739004e+00
      1.3781637295062152e+00 -1.9946722797162850e+00
      2.9421196867670734e+00 -5.7728091425809724e+00
      -7.5860956222294078e+00 1.3896777845594332e+00
      -1.7152713326872484e+00 2.0035242438686467e+00
      2.0276072693174014e+00 1.1010765625607794e+01
      4.5071188072350159e+00 -1.2549607350153664e+00
      4.6543784409735522e+00 5.5428645363485503e+00
      2.2793024659257402e+00 -4.9964358120731172e+00
      4.4655506435058543e+00 3.0745781160882197e+00
      4.4468154007981084e+00 9.0255395577340742e+00
      2.8130136573351097e+00 -1.0918924798461371e+00
      -1.7106879011385187e-01 1.5564045666388028e+01
      -6.8213178910271957e+00 3.4043269810500072e+00
      -5.4616298534572109e-02 1.1858451830674486e+01
      -5.3006089234717866e+00 1.3038888772912780e+00
      4.0356056202276785e-01 -3.4778329841568554e+00
      1.9469114864947763e+00 -4.5200432906264343e+00
      -6.3690557665466283e+00 2.1897640744191285e+00
      9.5754076279110956e-01 9.1395643630527235e-01
      1.9956796669872690e+00 -8.5148952108545526e+00
      -4.2322957883009398e+00 -2.5758515174027012e+00
      1.8201586143407065e+00 -5.9957461887145169e-01
      -5.1883421496559077e+00 -5.5249572867279726e+00
      -3.8384362665741647e+00 -2.7161535355332851e+00
      4.7757820578488641e-01 1.3872499481797393e+01
      1.1163102456321560e+01 -2.4919274009075143e+00
      -2.3625956916126807e+00 4.2076146860892194e-01
      3.3283602845135793e+00 -5.0583546545779416e+00
      1.4018076369847015e+00 -1.9165660888920828e+00
      7.6614083165808191e+00 2.3717212856254535e+00
      3.8487914254970330e+00 -2.0829664115758604e+00
      8.2222929390787847e-01 5.4543891865246543e+00
      -3.7969869468482176e+00 1.0756416227873802e+00
      1.9436522719144445e-01 1.7256098600527967e+01
      -4.6793103993259635e+00 3.8995641094083493e+00
      1.1735732423637493e+00 8.6747257121676902e-01
      7.2657125187166640e+00 -3.9463997636951484e+00
      -5.1304600375627119e-01 4.4243397213716373e-01
      -2.3609265491030443e-01 -2.6933250113015976e+00
      -8.0475406938401162e-01 -1.4146837300664968e+01
      -3.2457835779311712e+00 6.7349356402302285e-01
      -2.1316964935345455e+00 1.4660387765075276e+00
      -1.8203372685895136e+00 -3.6172424785814021e+00
      -8.1426576574820491e+00 -3.1725611405057315e+00
      -2.2991756566386606e-02 1.0933682378816115e+01
      1.2799424644342340e+01 -2.9401370364824362e+00
      -6.0291202493802167e+00 -2.4964831705115729e+00
      4.2622665545348859e+00 -1.3599416665158506e+00
      3.6166018699437230e+00 -6.5287452074855050e+00
      3.9632783787609203e+00 -1.4410637669624666e+00
      1.0311699408472352e+01 1.8373490995105433e+00
      3.5568178238507087e+00 1.0277419291456407e+00
      -2.6770117053876863e+00 -5.2660907785201150e-01
      -1.6427751941308591e-01 5.5822478276274956e-01
      1.2486411123496871e-01 4.1027662645213547e-01
      2.5863581040996477e+00 -4.4922156488628433e+00
      2.9487314058682115e+00 -6.8141431567243382e-01
      -3.5037722472536754e+00 1.5666302616679155e+00
      6.3113277224178177e-01 1.5456391088283619e+00
      3.0393537785923486e+00 -5.7101083949933367e+00
      1.4876247083996592e+00 -1.5842676363880206e+00
      1.3619026532191396e+00 1.5218624869040298e+00
      7.2499800599374549e+00 -5.2247723532410228e+00
      -4.7444638882421861e+00 7.0024103109286284e-01
      3.8583936263922269e+00 2.3523440016410442e+00
      1.0107121443797766e+01 -1.6035785230504871e+00
      3.1781038864314728e+00 -1.3765296417143511e+00
      4.0746447799753520e+00 3.1154187193495999e+00
      9.0190294837674170e+00 -3.5219493604562064e+00
      -1.8098090857706894e+00 -5.0641288303619980e+00
      7.0203229097687050e+00 2.5413859221825033e+00
      -3.6732888503260566e+00 1.5441345896629366e+00
      3.1708691030879899e+00 4.1347826199084068e+00
      -3.3869935302783305e-01 -5.4564738686251717e+00
      -6.3662329777639064e+00 -4.7590011955845215e+00
      -2.5626171358983001e+00 -2.8928521525049971e+00
      -1.9877418595794389e+00 -3.5563370822377292e+00
      -6.9405164754255999e+00 -9.1795592125970071e-01
      1.2684569187750894e+00 6.7238473126224729e+00
      1.1065134312245699e+00 -8.6483948446267025e+00
      9.0509452860406692e-01 -1.5301958391202621e+00
      3.7520136042736598e+00 -3.4448078655345666e+00
      1.5869333751598760e+00 -4.5016039774194061e+00
      -7.2936199642259689e+00 2.0719555222638193e+00
      5.2055260830834111e+00 -1.8901823198668655e-01
      -1.2325825915277697e+00 1.7282323895813145e+00
      -4.9196464309307819e-01 -7.5206740309743136e-01
      7.3106015427583659e-01 -1.1664770166547944e+00
      1.4239569752946704e+01 -1.3973156145465129e+00
      -3.4867016080941369e+00 -3.4089122224888562e+00
      6.6723590298734683e+00 2.9405173960699478e+00
      -4.8108055334755893e+00 5.0706731470712194e+00
      5.5711204748184064e+00 4.3235255106333863e+00
      -3.6837587794551124e-01 -3.2608925571635949e+00
      -4.1854401600208311e+00 7.3251207894921655e-01
      -1.5281918838692854e+00 -6.0352144894580437e+00
      -1.3520325134721576e+00 -5.0150008358322484e+00
      -3.3135234847503661e+00 2.1261430132416503e+00
      4.6631740375901973e+00 2.2813920194984721e-02
      2.1948501997268797e+00 -2.0630871485641111e+00
      -5.5063567539443603e-01 3.5602280309328421e-01
      4.1056891024619970e+00 -3.4883569664759588e+00
      -1.5956370529587605e+00 5.2139495932744975e+00
      -3.7376127202610436e+00 4.6466025913824431e+00
      1.8733233606050370e+00 1.7713224285364570e+00
      -2.1072118280333960e-01 -5.4593475922661283e-01
      4.3925340616001458e+00 -1.2087419194221272e+00
      -2.4787847464980103e-01 -2.6164661262989948e+00
      6.0712630101851390e+00 -4.0180858318644832e+00
      -4.7273164915227284e+00 -2.4503479040938139e+00
      1.3052809419804454e-01 -1.4266735174050775e+00
      1.6916412070885172e+00 2.6073563395684918e-01
      3.4460970588369442e+00 1.4597874326743806e-02
      -1.4440521045345742e-01 -2.2379038094136341e+00
      -2.0452983374513849e+00 1.5359280156005310e+00
      6.6950267607813779e-02 -2.6998262631761181e+00
      2.3133735170059753e+00 -2.4496839616968931e+00
      -5.8355950576309059e+00 2.1628323245694543e+00
      -8.8653119371085598e-01 -2.8895132178549083e+00
      9.8873911758145736e-02 1.2567141104077766e+00
      -3.1048059684505355e-02 6.3903345555431079e-01
      4.0597487921814784e-01 6.6996545096201476e-01
      -3.6046986126698335e-02 3.4877184046103094e+00
      -7.6538297946441214e-01 1.4567634824580915e+00
      1.8589124067812610e+00 4.2371937147899130e+00
      -5.3991650964403537e-01 1.4517245692513576e+00
      5.8119001913033597e-01 1.1665603628549264e+00
      2.7995308548549254e+00 -2.8624480658406370e-01
      -2.5667450693702536e+00 -3.8327060116893423e+00
      -2.5589385186414866e+00 -2.9051686975883872e-01
      3.1146023857026242e+00 -5.7340382039086712e-01
      1.3550961093998160e+00 6.7221893699154489e-01
      3.6650104167204818e+00 7.5078132149404786e-01
      1.0669494794664285e-01 9.4659240182701010e-01
      -4.6299979194996421e+00 -2.2238582373432809e+00
      1.1759348302864410e+00 7.2467709570600933e-02
      -1.3641142979342262e+00 9.8362443060010285e-01
      -1.4946987296907019e+00 -1.6862602484670988e+00
      -2.5525609461625063e+00 1.2724886377796683e+00
      -2.3801436053999667e-01 -6.8857433645383115e-01
      -1.3425477689642762e+00 -7.4525406451949106e-01
      -1.8385279462263255e+00 -1.3619122246968078e+00
      1.0305620836475666e+00 3.6301126635263492e-01
      7.6431644376952990e-01 1.6837346688351504e-01
      -2.1773459044418386e+00 -3.5340248336628738e-01
      -2.0743148361800948e-01 -1.0817950011534367e+00
      1.8089045396997609e+00 -1.5225696984929500e+00
      4.7816809704060503e+00 7.9943499800412243e-01
      1.4393661608806532e+00 -2.9210516424494104e+00
      1.5510569862608070e+00 -1.2132396555926925e+00
      -1.2606487293307145e+00 2.7397525571287882e+00
      4.3457386641529814e+00 -2.5800347730748712e+00
      -2.1975827465860553e+00 -1.4085335730545625e+00
      -1.3513651774928742e-01 2.7028895549175891e-01
      -4.1066510751420573e+00 -1.2981292615236859e+00
      -2.1992030357606537e-01 -2.3874384834116582e+00
      2.9919547235681687e-01 5.7750371021863014e+00
      -4.0110852646710917e+00 -1.0762831401971862e+00
      -5.0913840757981585e+00 6.6718184819398862e-01
      8.8717547426256801e-02 -1.2687895770574833e+00
      -2.2255661480576641e+00 -6.5978240828603740e-01
      2.3097054727489255e+00 -6.0369791180184462e+00
      -4.4337160137591020e-01 -1.3366876162654209e+00
      2.2389257197102816e-01 1.0382718908163318e+00
      2.8344251457793055e+00 -2.5934511819801886e+00
      5.6126077965395398e+00 -2.1684858535739115e+00
      4.1505943623056835e-01 -2.9653292847054207e+00
      1.3659515331268597e+00 1.4985180882156508e+00
      3.8931256842012957e-01 -6.0014752769161106e+00
      5.0673487013517446e+00 -3.6075639207134249e+00
      3.4715020908052296e+00 5.0433988429523313e-01
      2.2398196480773378e+00 -1.1893822980455542e+00
      2.9721169011606721e+00 -4.4040261837196795e+00
      -7.0381400724409504e-01 8.5001065566974149e-02
      4.0387766518073516e+00 -1.8973710195170119e+00
      -2.6567897785147299e-01 4.6112107562309204e+00
      8.4626384043484437e-01 3.2585256538060645e+00
      -5.5920943429478625e+00 6.6824628276034135e+00
      -6.2660213772399898e+00 1.1656591656193047e-01
      2.8063916862027538e+00 4.0995305303695490e-01
      5.2365530240332969e+00 4.3881036469033239e+00
      1.0382276900192062e+01 -5.1505563898014879e+00
      -3.4309499394839742e+00 3.2902724426134689e+00
      -1.1129551976021206e+00 -7.1157241162225136e+00
      3.3661727362813973e+00 9.1441225546723404e-01
      3.3805184944619064e+00 2.7325630238193294e-01
      3.2070494270124977e-01 -4.8947210379000419e+00
      5.4107135737325303e+00 3.2527850751734313e+00
      5.3452707169616023e+00 6.6722504725353071e-01
      -4.1508533173648257e+00 -2.1576694101975775e+00
      -9.4133966630467525e-01 -4.4672795393250891e-01
      -3.2941342823899751e+00 5.3259066491377460e+00
      6.6789742813498396e+00 -2.3405431042312710e+00
      3.3613462675315875e-01 -3.0953972562190177e+00
      3.6757648032327346e+00 -1.7165232263929089e+00
      2.1097604848110008e+00 2.4293099999209283e-01
      6.6387592397307793e-01 -2.7831350966600121e+00
      -4.1580591998715235e+00 -1.7295557264314463e+00
      -5.9598563857447804e+00 1.4703316582966213e+00
      3.5544126053987677e+00 -5.4297182973781810e-01
      1.0068564278639547e+01 7.4453857904244947e+00
      1.0248083485498434e+01 -5.8299883061020266e+00
      -3.6237652477014461e+00 5.8291070432110423e+00
      -7.0970469491458070e+00 -6.9779966628450651e+00
      3.0335389014259833e+00 3.2634450882456294e+00
      2.2248076850510383e+00 3.2363007444591613e-01
      -1.2152135716660990e+00 -5.0590660087840655e-01
      3.1146595207332095e+00 1.7978766353144890e+00
      7.3518579256772176e-01 -1.0311359247163778e+00
      2.9651935649911825e+00 -7.5798624405576582e+00
      -1.4780900060443855e+01 1.8881093374539851e-01
      -6.8682352374630486e+00 4.9442658910489738e+00
      3.9986179412200240e+00 5.4674912173999051e+00
      1.2735609672239129e-01 2.5365025725574157e+00
      6.7444362777318236e+00 -1.9297787257744512e+00
      -7.7515880455687611e+00 -4.5271300894111741e+00
      8.5562714615085400e-01 -6.6009254340272228e-01
      -2.0104484660351138e+00 4.6811362712266164e-01
      -7.0630571434767271e+00 5.6003520192075951e-01
      1.7677467223533065e+00 9.2440706395616310e+00
      -4.2253558410908649e+00 9.7725869636290896e-01
      5.0012624806849084e+00 8.4979023746405034e+00
      4.1659765756193880e-02 4.4010464949871482e+00
      -7.8985633646104043e+00 2.0968176638500768e+00
      5.4171159062889460e+00 1.1433383428125177e+00
      4.9220108231453965e+00 1.6940305461564840e+00
      -1.1906614165435832e+00 5.9570603792794401e+00
      6.8511645228161031e+00 -3.9969412803471654e-01
      -4.8291592211197880e+00 1.3583527482000396e-01
      8.6606923216079967e-01 -1.0712169178991076e+01
      -7.1512888583874510e+00 -3.4655036480445180e+00
      -2.3855669086379239e+00 4.5309558699223587e+00
      -6.3326029247268565e+00 5.3846289207202007e+00
      2.4593929756063956e-01 9.6568198456496450e+00
      5.2675130062915940e+00 -1.7833299657297588e+00
      -8.0341704729070926e+00 -7.1299608557679575e+00
      7.7365862818208964e-01 7.6731626981730505e-01
      -3.6986380555975626e-02 -2.9179687525238642e+00
      -1.2333757255349957e+01 -3.4607662355615081e+00
      1.2299740025023256e+00 2.0999302363812160e+00
      -5.4444485396521225e+00 -6.6460771266444070e+00
      2.7311315227201267e-03 7.3582896597569372e+00
      4.3306821050590356e+00 8.5190114756661262e-01
      -3.3512585835104027e+00 -2.2875486696856295e-01
      8.4214358456818559e+00 -6.7055229611511864e+00
      1.0200806425806983e+01 4.1580548744613273e+00
      -1.6046107394555884e+00 2.2351737986807017e+00
      6.9910586815787505e+00 -5.9927139635162661e+00
      -5.6078434376568485e+00 -4.3961752342616407e+00
      2.0009838887214988e+00 -8.4637987297302342e+00
      -7.1105776426747678e+00 2.2856166125961246e+00
      1.1685385924458034e+00 -4.2347366137540838e+00
      5.3652056461278255e+00 -4.4090816764276335e+00
      -6.2008635027310639e-02 9.0236187645653594e+00
      2.4615489349776012e+00 3.5371483555543215e-01
      -8.5808028727797647e-01 -5.1448925512185477e+00
      8.5573982566806706e+00 4.9092026664492066e+00
      6.9804046073441661e+00 5.1671242153016073e-01
      -1.7038003131648797e+01 -4.3777306656298105e+00
      2.9902273860124189e+00 1.8865986381695325e+00
      5.7276157558282774e+00 -1.0248715998957527e+01
      6.1779661435649871e+00 1.1106088778200911e+00
      -3.6226098623731007e-01 -2.7593209976364976e+00
      2.5551589260733638e+00 -1.5402764198643808e+00
      6.5280864604586295e+00 -3.3229278065045000e+00
      1.2662063685929649e+01 5.6839562954185796e-01
      -3.7111107696220086e-01 7.7853376129544549e-01
      8.9685752046916289e-01 -1.4630922559131567e+00
      5.7821095783170637e+00 4.7956367743980861e+00
      3.6314377671036175e+00 -4.1547539688361956e+00
      -8.6812103441391582e+00 -1.0973331863474151e-01
      -1.4383843471148074e+00 -3.7645418294323583e+00
      3.2426841503878405e+00 -3.6105249714214160e+00
      2.0835041164450982e-01 5.1245159434051866e+00
      4.4429637028873747e+00 -1.0893013698033287e-02
      -2.2265293621080509e-01 3.5328965572995319e-01
      3.0255684958535647e+00 2.6463327232956848e+00
      4.5486635674570559e+00 3.4254390974511653e+00
      -1.1831964109716676e+01 -6.5312471097511793e+00
      -6.0422090990462598e+00 -2.8056200513139768e+00
      8.8898115624704808e+00 -2.9724754869803078e+00
      7.6008175434926759e+00 -5.0547005658324584e-01
      1.4576772440964951e+00 3.8921239177903546e+00
      5.2113061057415866e-01 -2.7529120579648864e-01
      3.5073565291976698e+00 2.5890419393579047e+00
      1.2999973396925503e+01 -2.6566807896945628e+00
      -2.0538467651789113e-01 2.8373108583610707e+00
      2.3699747939174682e+00 2.6400567151893184e+00
      5.7988643345108741e+00 9.7555700699022219e-01
      1.4791587795397974e+00 -2.4277865685891733e+00
      -1.7303897007766047e+00 -1.2973483622061674e+00
      7.2524102590588360e+00 6.6049925293563161e-01
      -8.1039953730194580e-01 3.8500391083747090e+00
      2.8725673529493601e-01 3.2556569982787114e+00
      4.4794892032790266e+00 -4.9112545968497012e-01
      5.7128521620271122e-01 -5.5666947305468306e-01
      1.2210153591693849e+00 2.8698651414825793e+00
      -1.9242493498488642e+00 1.7764042931496757e+00
      -5.7077368123429491e+00 -8.7352625033452813e-01
      -1.6052921322463172e+00 -5.8268147878797203e+00
      -2.1398890070643170e-01 2.9775055299851272e+00
      4.8252206692830706e+00 -3.3923312688984857e+00
      -1.6517071592725359e+00 1.0188939992144583e+00
      -2.5495759070438079e-01 1.4598504498342004e+00
      2.8128834700496217e+00 -3.0814284773566265e+00
      2.0851825107048838e+00 -9.2900781528444179e-02
      3.6475024401243772e+00 2.6581596639621656e+00
      7.6909033437248508e+00 -1.7319252767656650e+00
      1.1250361723316877e+00 -1.0420739213396242e+00
      -9.9701629837018635e-02 -2.4727506901173304e+00
      -1.7033856857333880e+00 1.0686925517668004e+00
      2.2254565991114559e+00 9.0663017436834004e-01
      2.2051352673450824e+00 1.1825868487561315e+00
      -3.0830885356466997e-01 -9.2064051548533865e-01
      2.5286438762222168e+00 -2.1504667430215124e-01
      -2.4598353067738747e+00 1.1933716760284545e-01
      7.4535075041517285e-01 -8.3290731183416389e-01
      -1.6028036795706329e+00 1.3261277918717034e+00
      -2.4608276854213433e+00 1.7284790378633796e+00
      3.0371069009613967e+00 -2.9796044698461848e+00
      -2.0474168826500203e+00 -1.1136725845670912e+00
      4.8070906526467955e-01 -2.0528709870718074e+00
      8.4416269906307947e-02 1.3203636281651536e+00
      -9.4322132480750320e-01 5.5971196597953368e+00
      -1.4965743402166409e+00 -2.3214875976802642e+00
      2.0695194354821947e-01 -5.8941645320499370e-01
      1.6617310108114456e+00 -2.4640261383348377e-01
      -4.8236069373744438e-02 5.7195064492077086e-01
      2.4816057095024595e+00 2.2901465034152366e+00
      -2.6595685756425622e+00 3.4717683921135203e+00
      2.7297385781383920e+00 -4.9129560087897106e-01
      1.3605125799221157e-01 3.0981830154450676e+00
      4.0543249555240823e+00 5.4268291774154420e-01
      2.2030116243273026e-02 6.1571760058883540e-01
      -6.5402756367972001e+00 -7.3689095982082609e-01
      2.8545227030868232e+00 -9.4485851054877579e-01
      3.9481824099636192e-01 -1.6295685074971494e-01
      -1.0452112468588046e+00 -4.4091567549273645e+00
      -1.9634314632819914e+00 -7.8970783605510653e-01
      1.0084911676574300e+00 1.3696399081698882e+00
      -7.2551571460909536e-01 3.1242750242156965e+00
      2.8612667317364417e+00 2.7933773024727038e-01
      4.4460260548201075e-01 1.5940922286951351e+00
      -2.3943340072586383e-01 -7.1633867804269613e-01
      1.2149811131511010e-01 -2.6638066428344320e-01
      6.7938613985246854e-01 1.3203864052050057e-01
      3.9702805050818984e-01 -3.2531176960309458e+00
      -1.5569883440065153e+00 3.1761422307508460e+00
      -1.2217367488882485e+00 1.5071315485054751e-01
      2.6248246969402742e+00 1.7808796425012401e+00
      -5.6081011557214628e+00 -5.8968749276981269e-01
      2.5133457483133767e-03 -2.5342103491614862e+00
      -4.4620432743578462e+00 -3.7423713667287717e+00
      -5.7794338617527354e-04 3.1446065437499708e+00
      5.5190125392404843e+00 -7.8814399903686028e-01
      1.3099045294285039e+00 -2.0035909355835479e+00
      4.1520031460953062e+00 5.0852096980409165e+00
      -6.7029749577710493e+00 2.1690181934959849e+00
      7.3976760112799833e-01 4.2779248395697440e+00
      3.6394785594813857e+00 -2.8737163634393581e+00
      2.3276725315810061e+00 -6.8124389759098836e-01
      -3.4141561934292861e+00 1.3774874255486904e+00
      -4.5973495605088294e-01 -1.7172949559494602e-01
      1.4209196341012500e+00 -1.7826508735838242e+00
      2.5945091025380966e+00 -5.2514307073151532e+00
      5.6959892859632797e+00 5.6963050345393169e+00
      2.3152102017087453e+00 -1.2807063404317781e-01
      4.7533268442075620e+00 9.2400952646069878e-01
      9.6160117499720255e-01 -7.8222267313738234e+00
      3.4469711902142675e+00 5.8762005869927347e-01
      6.1487418484871359e-01 -3.0606937872731068e+00
      6.1335623001294906e+00 4.8052126514934139e+00
      3.1715997316632181e+00 -5.4503450384119896e+00
      -5.2427916577413625e-01 1.9811092409404802e+00
      -9.6661563463647726e-01 1.7255241149945848e+00
      -3.5169935248873263e+00 2.1895514929253217e+00
      -1.6574633183085155e+00 -2.2287267509768176e+00
      -9.1782637455455252e+00 -4.0700265673979552e-01
      8.9283981160537351e-01 -1.7740944660036539e+00
      8.7649970877501708e+00 4.6507278071686171e+00
      8.5940072010538515e-01 -9.1891443531914618e-01
      -2.5948821536258757e+00 7.5523692610255433e-01
      -4.1689150132088111e+00 -7.4015449265965616e-01
      1.8847805250304894e-01 -5.2494206881513845e+00
      -2.3329036444061950e+00 -4.9762542710133548e+00
      -1.1284264620970694e+00 3.4910336321255842e+00
      7.1349553842606062e-01 -2.3635893409963953e+00
      3.9397942749284975e-01 5.4750285894022701e+00
      2.8645208495911711e-01 1.1697408541527343e-01
      1.8690631103104163e+00 -2.9433710159039319e+00
      -7.0151534204274291e-01 -5.7725159511657935e+00
      1.8219471701585472e+00 2.0214605204049749e+00
      7.3714324388154093e+00 -9.9217787171051626e+00
      -5.5538112688630326e-01 2.9788806187473051e+00
      -8.2784588879769903e+00 -3.0316206190512057e-01
      -2.1156815451659496e+00 -5.2677236349264058e+00
      -6.2298730780298142e+00 -6.3557858932057965e+00
      -2.9726971483959859e+00 6.8571605758495890e-01
      -5.6781234262693676e+00 -2.7387507829470659e+00
      7.2242355175721107e+00 6.2804239421532291e+00
      1.2594543343193036e+01 8.4561199652133130e+00
      1.1846869341983755e+01 8.5542270884190135e+00
      -8.7451163024009737e-01 7.8821150930082080e+00
      -4.8366272076453791e+00 -4.7590771499136322e+00
      -4.2217527598980481e-02 4.1029068587625556e-01
      -1.7748592155013565e+01 -2.7238326036451410e-01
