<?xml version="1.0"?>
<opencv_storage>
<opencv_ml_ann_mlp>
  <format>3</format>
  <layer_sizes>
    140 40 34</layer_sizes>
  <activation_function>SIGMOID_SYM</activation_function>
  <f_param1>1.</f_param1>
  <f_param2>1.</f_param2>
  <min_val>-9.4999999999999996e-01</min_val>
  <max_val>9.4999999999999996e-01</max_val>
  <min_val1>-9.7999999999999998e-01</min_val1>
  <max_val1>9.7999999999999998e-01</max_val1>
  <training_params>
    <train_method>BACKPROP</train_method>
    <dw_scale>1.0000000000000001e-01</dw_scale>
    <moment_scale>1.0000000000000001e-01</moment_scale>
    <term_criteria>
      <epsilon>1.0000000000000000e-04</epsilon>
      <iterations>30000</iterations></term_criteria></training_params>
  <input_scale>
    7.5501616024869485e+00 -3.6630632703482258e+00
    6.4052210416004893e+00 -3.5621064404539728e+00
    5.5994067771471672e+00 -3.4861391248830076e+00
    5.0712187356524892e+00 -3.4832878922152317e+00
    4.8218406266911238e+00 -3.6559840624677999e+00
    4.7818193319184070e+00 -3.9201530435730048e+00
    5.1985465523495966e+00 -4.4601420293951390e+00
    5.7545120839455830e+00 -4.9984541870256969e+00
    7.8981759809129901e+00 -6.8931888713910583e+00
    7.5911517158543553e+00 -6.4709581345994911e+00
    7.2276575536077283e+00 -6.1338750430988691e+00
    7.5308758050150946e+00 -6.5269826144560446e+00
    7.6379651479279529e+00 -6.7662259229241677e+00
    7.2102864383426644e+00 -6.3686814864216208e+00
    6.4546833331124684e+00 -5.4376132753484399e+00
    5.7130609851184460e+00 -4.3281009784490436e+00
    3.3876539948740385e+00 -1.7584594596168921e+00
    3.7059373324553642e+00 -1.5014645981824504e+00
    4.2389663116984568e+00 -1.2658032557577130e+00
    5.0907504104251871e+00 -1.2599047205525848e+00
    6.6254275173138710e+00 -4.9507988594714671e+00
    6.8226601513193588e+00 -5.5878443059860636e+00
    6.9327455977427164e+00 -5.7679014376480477e+00
    6.9093524624707685e+00 -5.6274911975106594e+00
    6.9008456032663812e+00 -5.5350899643638067e+00
    6.9658811946822601e+00 -5.5394735345605106e+00
    7.1224026419291890e+00 -5.6177333768752851e+00
    6.9719693710000374e+00 -5.5214664419036641e+00
    6.7602598371454139e+00 -5.3886671293486215e+00
    6.5991742383126200e+00 -5.2569327148527139e+00
    6.3461915643718427e+00 -4.9942339514724310e+00
    6.4681899628297881e+00 -5.0964061346160499e+00
    6.6077568560937143e+00 -5.1554825179868962e+00
    6.5615637987863105e+00 -5.0814979807231815e+00
    6.5544457664214049e+00 -5.0835015360318216e+00
    6.4953189331884502e+00 -5.0912274574794774e+00
    6.1502172989121311e+00 -4.8711682826691707e+00
    6.0627187550494153e+00 -4.9027149496948033e+00
    5.9909878530644090e+00 -4.7699583920585011e+00
    5.9388447356804654e+00 -4.4166851302357371e+00
    4.0695334635821007e-02 -2.3262543512166839e-01
    1.8933371547472686e-02 -4.5188003962758683e-01
    1.3069212364092732e-02 -7.7943522802316967e-01
    1.0729949019625458e-02 -1.1747933264509771e+00
    1.0266338630552763e-02 -1.4132412326707868e+00
    1.0277559549214312e-02 -1.4224264044036266e+00
    1.0674412783895876e-02 -1.2125389622344449e+00
    1.2849855841520427e-02 -8.2362055167388704e-01
    1.8118855655490772e-02 -4.7997518318967947e-01
    3.6241254106559317e-02 -2.3237416002422712e-01
    4.9075064805149865e-02 -2.9044475923810770e-01
    1.4748936404482086e-02 -5.4842973310616439e-01
    1.0865069972791441e-02 -9.6062555070217459e-01
    1.1229099392508889e-02 -1.2994372365098334e+00
    1.1891714334788743e-02 -1.2361971928310609e+00
    1.1726890411482884e-02 -1.2249734137258754e+00
    1.1278198553894777e-02 -1.3398720397357609e+00
    1.0891725344690588e-02 -1.0190287397743008e+00
    1.4124104224878685e-02 -5.7300162125614129e-01
    3.9556795311439005e-02 -2.6528732040596009e-01
    8.4059558868427461e-02 -2.9226141145924039e-01
    1.6975141545583872e-02 -5.0360634703053342e-01
    1.0897073020319864e-02 -9.4282735462608536e-01
    1.1006352598824969e-02 -1.1271684886318845e+00
    1.1831209771206322e-02 -8.4484537308940599e-01
    1.1731783846343284e-02 -8.1997291556781082e-01
    1.1053689616756741e-02 -1.0875412495274650e+00
    1.0860187205201405e-02 -9.5724005301955384e-01
    1.5838067992240398e-02 -5.2069933710100202e-01
    6.1433866248259562e-02 -2.3389649884664523e-01
    2.0336220284882842e-01 -3.8771184472125747e-01
    2.1770332362475435e-02 -4.5352488080678094e-01
    1.0886067643762340e-02 -9.4337648371030425e-01
    1.1244425338144454e-02 -1.2655838412176932e+00
    1.1199946901146259e-02 -9.2919277504963382e-01
    1.0961803864188616e-02 -8.6922996669181019e-01
    1.1625493580279565e-02 -1.1018822466700451e+00
    1.1053441862052347e-02 -8.6917589807683882e-01
    1.9725842588396634e-02 -4.5152032474411585e-01
    1.2172836094887918e-01 -2.1086847070058737e-01
    4.7944815223099757e-01 -7.0124997043058079e-01
    3.1625250039411253e-02 -4.3433366080625058e-01
    1.0953162342293920e-02 -9.0558390484903173e-01
    1.0862781631916354e-02 -1.4039012031067750e+00
    1.0975642805436999e-02 -1.3001422120651365e+00
    1.0742978513818243e-02 -1.3164650946471086e+00
    1.1499384757242746e-02 -1.4631532762185904e+00
    1.1321351022909936e-02 -9.1677817090177904e-01
    2.5695476397543833e-02 -4.1269081342119507e-01
    2.8659583858784971e-01 -2.6481052417877071e-01
    9.0807416545626041e-01 -1.3495659477766209e+00
    3.7659639648528739e-02 -4.2844339544913956e-01
    1.0763058243587413e-02 -8.5587181979739857e-01
    1.0577240968372112e-02 -1.3386142912476711e+00
    1.1091651434792692e-02 -1.1545184981420704e+00
    1.0635673848426145e-02 -1.1904393631753152e+00
    1.1195203596842366e-02 -1.4786766230833697e+00
    1.0683851176604555e-02 -9.9129170826634838e-01
    2.6087261226877618e-02 -4.2514338704181420e-01
    3.9275855236438412e-01 -3.3549347297754545e-01
    4.4065929114672953e-01 -6.7370498607013929e-01
    2.7976024424747864e-02 -4.4753769998032983e-01
    1.0906750114743742e-02 -9.0714455236149427e-01
    1.1200919658675005e-02 -1.2491763934296731e+00
    1.2012924372612767e-02 -8.5699940808599828e-01
    1.1579616881232159e-02 -8.2574495242274182e-01
    1.1215891692876427e-02 -1.1844004711581171e+00
    1.0699738540804967e-02 -1.0067223510728773e+00
    1.9647576342588843e-02 -4.7878924538395468e-01
    1.3651103266114567e-01 -2.0443993396631366e-01
    1.4239174730228987e-01 -3.0860703452283439e-01
    1.9860530739415461e-02 -4.9538611822011375e-01
    1.0880732924401676e-02 -9.9905320258740771e-01
    1.1203605674938104e-02 -1.2640363138001467e+00
    1.1660047274822739e-02 -8.7039608122653112e-01
    1.1299915693738340e-02 -8.1258497083584935e-01
    1.0663562238643634e-02 -1.1175396765750334e+00
    1.0523500139693484e-02 -9.9148680357390995e-01
    1.6187112350510981e-02 -5.1341589160472523e-01
    6.8674147453926762e-02 -2.1416958373797118e-01
    7.3650413346379978e-02 -2.6142517699191176e-01
    1.6627945651634814e-02 -5.0903729918447471e-01
    1.0664678185252857e-02 -9.8512634895978535e-01
    1.1212989649150993e-02 -1.4082164940379236e+00
    1.2199851842505058e-02 -1.2597999515679521e+00
    1.2093036568550413e-02 -1.1947953315318254e+00
    1.1211456967444492e-02 -1.3307438895580692e+00
    1.0743943356462992e-02 -1.0039680218907057e+00
    1.5142752053177038e-02 -5.3804986098163132e-01
    4.5802018220615616e-02 -2.3958135873355274e-01
    5.7991551378011021e-02 -2.1602934541891536e-01
    2.1045003755875934e-02 -4.1063727446936121e-01
    1.3497549358993976e-02 -7.7599067640221497e-01
    1.0908194725652111e-02 -1.2281295190996864e+00
    1.0506634563005237e-02 -1.5038186325011385e+00
    1.0428852776823545e-02 -1.5147634544334303e+00
    1.0808432958186853e-02 -1.2876366751877677e+00
    1.2616505908487083e-02 -8.4017576771361513e-01
    1.8577734589934936e-02 -4.5403084800599308e-01
    4.1253694783444747e-02 -2.1303760346002823e-01</input_scale>
  <output_scale>
    5.2631578947368418e-01 4.9999999999999994e-01 5.2631578947368418e-01
    4.9999999999999994e-01 5.2631578947368418e-01 4.9999999999999994e-01
    5.2631578947368418e-01 4.9999999999999994e-01 5.2631578947368418e-01
    4.9999999999999994e-01 5.2631578947368418e-01 4.9999999999999994e-01
    5.2631578947368418e-01 4.9999999999999994e-01 5.2631578947368418e-01
    4.9999999999999994e-01 5.2631578947368418e-01 4.9999999999999994e-01
    5.2631578947368418e-01 4.9999999999999994e-01 5.2631578947368418e-01
    4.9999999999999994e-01 5.2631578947368418e-01 4.9999999999999994e-01
    5.2631578947368418e-01 4.9999999999999994e-01 5.2631578947368418e-01
    4.9999999999999994e-01 5.2631578947368418e-01 4.9999999999999994e-01
    5.2631578947368418e-01 4.9999999999999994e-01 5.2631578947368418e-01
    4.9999999999999994e-01 5.2631578947368418e-01 4.9999999999999994e-01
    5.2631578947368418e-01 4.9999999999999994e-01 5.2631578947368418e-01
    4.9999999999999994e-01 5.2631578947368418e-01 4.9999999999999994e-01
    5.2631578947368418e-01 4.9999999999999994e-01 5.2631578947368418e-01
    4.9999999999999994e-01 5.2631578947368418e-01 4.9999999999999994e-01
    5.2631578947368418e-01 4.9999999999999994e-01 5.2631578947368418e-01
    4.9999999999999994e-01 5.2631578947368418e-01 4.9999999999999994e-01
    5.2631578947368418e-01 4.9999999999999994e-01 5.2631578947368418e-01
    4.9999999999999994e-01 5.2631578947368418e-01 4.9999999999999994e-01
    5.2631578947368418e-01 4.9999999999999994e-01 5.2631578947368418e-01
    4.9999999999999994e-01 5.2631578947368418e-01 4.9999999999999994e-01
    5.2631578947368418e-01 4.9999999999999994e-01</output_scale>
  <inv_output_scale>
    1.8999999999999999e+00 -9.4999999999999996e-01
    1.8999999999999999e+00 -9.4999999999999996e-01
    1.8999999999999999e+00 -9.4999999999999996e-01
    1.8999999999999999e+00 -9.4999999999999996e-01
    1.8999999999999999e+00 -9.4999999999999996e-01
    1.8999999999999999e+00 -9.4999999999999996e-01
    1.8999999999999999e+00 -9.4999999999999996e-01
    1.8999999999999999e+00 -9.4999999999999996e-01
    1.8999999999999999e+00 -9.4999999999999996e-01
    1.8999999999999999e+00 -9.4999999999999996e-01
    1.8999999999999999e+00 -9.4999999999999996e-01
    1.8999999999999999e+00 -9.4999999999999996e-01
    1.8999999999999999e+00 -9.4999999999999996e-01
    1.8999999999999999e+00 -9.4999999999999996e-01
    1.8999999999999999e+00 -9.4999999999999996e-01
    1.8999999999999999e+00 -9.4999999999999996e-01
    1.8999999999999999e+00 -9.4999999999999996e-01
    1.8999999999999999e+00 -9.4999999999999996e-01
    1.8999999999999999e+00 -9.4999999999999996e-01
    1.8999999999999999e+00 -9.4999999999999996e-01
    1.8999999999999999e+00 -9.4999999999999996e-01
    1.8999999999999999e+00 -9.4999999999999996e-01
    1.8999999999999999e+00 -9.4999999999999996e-01
    1.8999999999999999e+00 -9.4999999999999996e-01
    1.8999999999999999e+00 -9.4999999999999996e-01
    1.8999999999999999e+00 -9.4999999999999996e-01
    1.8999999999999999e+00 -9.4999999999999996e-01
    1.8999999999999999e+00 -9.4999999999999996e-01
    1.8999999999999999e+00 -9.4999999999999996e-01
    1.8999999999999999e+00 -9.4999999999999996e-01
    1.8999999999999999e+00 -9.4999999999999996e-01
    1.8999999999999999e+00 -9.4999999999999996e-01
    1.8999999999999999e+00 -9.4999999999999996e-01
    1.8999999999999999e+00 -9.4999999999999996e-01</inv_output_scale>
  <weights>
    <_>
      1.5991144601300344e-01 1.0400099187268145e-02
      -1.5266617796214646e-01 2.6876977477596325e-01
      -1.4251059731391200e-01 -1.3513712655423663e-01
      1.0475150960135349e-01 5.7359922814173729e-02
      1.9399688025811160e-01 -3.0830303889870809e-02
      2.7065088376189709e-02 4.8662126157664777e-02
      8.0945902640241055e-02 -8.7111596684976769e-02
      -1.3317622375243891e-03 -5.9177782798013868e-02
      5.6113787692199497e-02 6.1574580818603140e-02
      2.1412354774552993e-02 -3.9573610160835351e-03
      9.0474329736367889e-02 -7.2486391275841458e-03
      1.6537635865103584e-01 -3.5157399520694144e-01
      -3.2597085721933844e-01 -2.6293531764549460e-01
      1.4410356626142581e-01 -2.8265577639028178e-02
      -2.8022638935071946e-02 1.1941538573552538e-01
      -2.1660637305728450e-01 2.7069540897692906e-02
      8.2121400502525269e-02 1.1193785078447399e-01
      -8.7897507560894053e-03 2.4428859614878957e-02
      1.5567625994143353e-02 2.3562847373331971e-02
      1.6909261539719556e-02 -1.1709583052430568e-01
      5.2143493037233000e-02 -1.7755461042651399e-01
      -1.4919977837471426e-01 -2.1794769113443715e-01
      -1.4261108611704171e-01 -9.2930413088916600e-02
      -6.6637048200560448e-02 3.5856225113993077e-02
      1.9283072265783677e-01 -1.6413504336378104e-01
      2.4401555747187934e-01 -1.8661764723545932e-01
      2.1234046866529025e-02 -1.4615392566085472e-01
      1.4342743904995101e-01 -1.3847763483509456e-04
      3.5426273076320369e-01 1.0352337119319805e-02
      6.2944898598966070e-02 2.6108036624524839e-01
      9.6190052017259234e-02 2.5978928506998605e-02
      3.0208186073446663e-02 2.5001159727741690e-01
      -2.4705106789445180e-02 -2.2880293478474069e-02
      -9.7352505480942271e-03 5.0341752605770132e-02
      -3.3545991366323852e-01 -6.4536993283452346e-02
      2.9007105450948745e-02 -8.3705609865217748e-03
      3.6442144137423527e-01 -9.8475023535232409e-02
      8.5598776122167056e-02 1.4139487608108597e-01
      -1.7048403851164221e-01 -3.1191581001291761e-02
      5.1918936951029684e-02 -2.4558732091293367e-01
      3.0627040085918690e-02 -2.6630289730722595e-01
      -1.3478407924193597e-01 -6.6517065258091923e-01
      1.4800451757513780e-01 -2.1694093830717479e-02
      -2.5255851223113834e-01 4.0224627331177577e-02
      3.3161190776817817e-01 -1.6530089977958293e-01
      4.7407307186653558e-01 -1.3400523439059200e-01
      9.4461618859654498e-02 5.0063170613055492e-02
      1.5404035016264798e-02 -1.2779035839392006e-01
      7.2728146211295211e-02 2.0391484546079763e-01
      1.2934885363357221e-01 1.6009770354187131e-01
      1.9070030988682721e-01 3.2133592194750599e-01
      6.5035524553308827e-02 8.1318660442222093e-02
      -3.1174081719525334e-02 -6.2329745278905939e-02
      3.0725503398369176e-03 2.2400481294680830e-01
      -4.2834649158801136e-01 -5.5846799399879299e-02
      7.2916944640025266e-02 -1.4783991488678039e-01
      2.0022298198009036e-01 7.3410440524857942e-02
      7.3928872983517538e-02 1.4716828798477904e-01
      2.3809229602338416e-01 -1.7366705849215713e-01
      2.2626882461626133e-01 -3.0259430493913237e-04
      8.4034384104650223e-02 1.0620239503202610e-01
      -1.6888318077644901e-01 -8.4404993177776366e-01
      1.1052733794604964e-01 1.2021108242589043e-01
      -6.9753364966282594e-02 -7.0774814237204081e-02
      2.9816794312175587e-01 1.1180315929645160e-01
      -3.8507117679818667e-02 -8.8786007911393836e-02
      1.6595271860217664e-01 -2.7862654218328164e-01
      -5.8196788952407326e-02 -6.7624528638587755e-02
      1.7888626274562258e-01 1.9448468781327924e-01
      2.6893847702791469e-02 5.0383815055828916e-02
      1.4248367420773159e-01 2.1872929614978207e-01
      1.9852330463498213e-02 -3.7260799409186696e-02
      -1.6885262207115635e-03 1.0382965304456827e-01
      -1.5384692593201238e-01 1.3756769403168558e-02
      -2.0852830619378762e-01 -2.1455366238941323e-01
      -1.0988600325946310e-01 -1.6757178965759195e-01
      2.7428393054748990e-01 -1.6219223216989845e-01
      -1.8518926799015241e-02 -4.5490121011978335e-01
      4.8621162044058230e-01 -9.5419701804541224e-03
      1.0843034391996501e-01 1.7050288037974010e-01
      -1.1734412460069379e-01 1.7731809488012396e-01
      -4.2818997681945928e-02 -4.8227587332989902e-01
      -1.4046706409561241e-01 1.1488685851951662e-01
      -8.4306032960850638e-02 -2.9338657940495261e-01
      6.1313944343425075e-01 -1.1736073675582154e-01
      -6.2827501441097888e-02 2.6337082475248585e-01
      2.5374441031009751e-02 -2.8021541152657031e-01
      3.0253458450681620e-01 -9.9273736632598572e-02
      3.4115050337308367e-01 -1.6818591685956505e-01
      1.8569166722442957e-03 5.8219913253266496e-02
      3.1294962155376604e-01 2.6157997008846928e-01
      3.9530590029911491e-03 -3.0473110546877008e-01
      -1.8039708998462683e-01 -2.7492822365983872e-03
      -2.1008589945625675e-01 1.1479740208927380e-01
      -3.0037110962645452e-01 -2.2735139049643061e-01
      -1.4770460546662936e-01 -1.6501437155970680e-01
      4.3577486201026422e-01 -2.9329532860754687e-01
      1.7486514272154743e-01 -1.4961043092065163e-01
      1.2237744872590511e-01 8.5563800120570035e-02
      -6.2094632618769276e-02 -1.0192147616100032e-01
      3.5778986834737542e-01 4.4940447620697116e-01
      2.1262449954586954e-01 1.9838397428100663e-01
      -3.2219870710255055e-01 4.4268848456202081e-01
      2.2103267469437307e-01 -2.0092770555545356e-01
      4.0569273387231908e-01 -2.7152054203081838e-01
      -4.7479280187086398e-01 6.1437236753163427e-01
      -4.4017813969421321e-01 -4.5812711269880541e-01
      6.5758424202891985e-01 4.1771174542167278e-03
      6.0672003747921077e-01 -3.1433524637909230e-02
      -2.4387045327722995e-01 2.7066082094105004e-01
      1.9895876336697241e-01 4.9269137302713617e-01
      1.4353885767500992e-02 -4.7031947103073407e-01
      -4.7258109423247463e-01 -4.9840293411615477e-01
      7.9510491041381845e-02 5.2983330033879017e-01
      -1.5829936040869344e-01 -2.8548629056810444e-02
      -9.2673167694639513e-02 6.9412428943110158e-02
      4.4986365416094570e-01 -3.4730487079079420e-01
      1.6674736201846113e-01 -7.0552881259839206e-01
      3.8561126397377848e-01 -1.9615820469540837e-01
      -6.7298228708685626e-02 1.0935843308446104e-01
      6.5571124738710262e-01 1.3651868409280088e-01
      1.9265727317861608e-01 -6.2416013747973298e-01
      -3.2014490938802970e-01 -1.9325905725408596e-01
      4.1529817473203245e-01 -1.5498559228768799e-01
      -4.5746005655537894e-02 1.9873063508878322e-01
      -6.0010536768873646e-01 6.2218469605212390e-01
      -4.5698056879038568e-01 -3.8724628117437704e-01
      6.2880088155145686e-01 5.0989451955103147e-02
      1.1932446794912914e-01 1.0804845273854516e-01
      -4.2639830373191778e-01 1.1734443306263075e-01
      1.3513993504283756e-01 2.7766294575582695e-01
      4.4164251375734698e-01 -3.6490784564052881e-01
      -3.9316521748566857e-01 -5.1061136060170342e-01
      2.7557364445515981e-01 6.3095747512989275e-01
      -1.1643825138167642e-01 2.5149660516983974e-01
      -2.5753634921467894e-01 2.3880321837168061e-01
      1.0534071886723008e-01 -2.6633578449566936e-01
      3.9642989645129562e-01 -5.9194331424361613e-01
      3.7781279439358650e-01 -1.1456960543057863e-01
      5.1128301297161317e-02 1.0402018587243139e-01
      8.9491284019652473e-01 2.5956903163784861e-01
      1.4245024906679560e-01 -1.2668706832042931e-01
      -1.2426563120482081e-01 -3.6055935867347871e-02
      3.9127382122878313e-01 2.6421949081065937e-01
      -4.8109242918886075e-01 2.0946170616516505e-02
      -5.4061128028529681e-01 1.7806792499129462e-01
      6.3024959735186237e-01 -9.1873116723168641e-02
      2.4979012294301409e-01 -3.1662195439432911e-01
      -1.7673825487208333e-01 4.9992105028673496e-02
      5.6096500321239813e-02 6.8940990113273329e-02
      -7.3422384904107324e-02 1.9744732226312661e-01
      2.5704341625548999e-01 -8.4089265050475259e-01
      -4.1767223777127632e-01 -3.4558622715473447e-01
      3.1167104837925508e-01 3.8649647656811953e-01
      -1.0379807641782905e-01 4.5625571365524775e-01
      -1.7960329336033351e-02 -1.5364708513782288e-01
      -3.3550712747905864e-01 -1.3541234696844964e-01
      -1.7199617268266246e-01 5.9656701726986416e-01
      2.6750248479046317e-02 -2.1722664797819438e-01
      -8.6506212485399123e-02 1.2925789242539507e-01
      9.4624330953561583e-02 5.3789227508379875e-02
      7.1802820508152357e-02 -7.3087643931970514e-01
      2.3391104652013056e-01 -3.9861505935493230e-01
      1.3609405950528533e-01 -2.4029450401328104e-01
      -7.4967375972283568e-01 2.4147835046314245e-01
      2.1646935855900321e-01 1.5490840445798992e-01
      1.5048246692521322e-01 1.1301539071334375e-01
      2.3000362014874939e-01 2.0357849154551799e-01
      -3.1604496774263358e-01 -4.0176267038845477e-02
      3.0059426724356453e-01 2.2443132912595670e-01
      -1.3877657094302084e-01 1.1914767817932065e-01
      -9.4708944755092159e-02 -8.7944268922036471e-03
      -1.3105589511015706e-01 -1.7307763091777294e-02
      2.2224183911937975e-01 3.2018768393356939e-01
      -2.5294801191617072e-01 5.7619480558020061e-02
      6.4102471949580561e-02 -7.3069831336754737e-02
      -6.6762784196883629e-01 1.4888797559559220e-03
      -2.4117507866053048e-01 5.2352612055146441e-01
      3.3532431163514170e-01 -9.8493588852438682e-02
      9.0373738914897250e-02 -1.2209310882036369e-01
      -1.5641417566123936e-01 5.1388329818707341e-02
      -1.3553832076482289e-01 -2.1761682840851129e-01
      1.6523393640363002e-01 -2.2321327816337322e-01
      -6.0443785348688384e-02 -3.3944348347043796e-01
      -8.0366960076737035e-02 3.9014138499453267e-02
      3.2633768124869865e-02 -2.1974829698028309e-01
      3.7128225256438219e-02 -1.6655369467042123e-02
      2.3051413401218940e-01 -1.0023322807661403e-01
      -2.8138766533498799e-01 -1.4839190352439741e-01
      1.5571945336861018e-01 2.8037407134021659e-02
      9.5510077316523210e-04 4.6175446774360453e-02
      -1.0114490138069317e-01 -4.6992339673546428e-02
      -1.0353342214153485e-01 2.0474013730717144e-01
      -1.1505504977868333e-01 6.0018785118104254e-02
      -1.0859946074062279e-01 -2.4750139687623302e-01
      1.9739304633853733e-01 -3.2115207912922085e-02
      -3.9213198842302638e-01 -4.9784767522151788e-02
      -9.8025543537633680e-02 5.4497302159996808e-01
      1.1706150488526461e-01 -1.9153535985363040e-01
      2.8000271425850560e-02 5.7339840190032597e-02
      -4.2768050554773868e-01 -1.4517217890078536e-02
      -3.1430658627108382e-01 -7.6061517292027925e-02
      4.0341118295696882e-01 -6.4369496143254781e-02
      2.1579051491387874e-01 -2.0216726904813020e-01
      3.9911781029807331e-01 1.1929671679971182e-01
      -1.9175116187663413e-01 -2.1225097801489215e-01
      -3.0405498811271003e-01 -1.0039691647971402e-01
      1.1320992978137036e-01 1.1517986793433603e-02
      -4.2330944418952016e-01 2.2140072706329572e-01
      1.8149110476239247e-01 -3.7551692676937844e-02
      6.6085916559075086e-02 6.7126799498322912e-02
      -2.8678251071952937e-01 7.1569970664000504e-02
      2.3561058484900799e-02 1.1616850542237571e-01
      -3.5061551962571996e-01 -3.0104784482193714e-01
      2.1125280641599659e-01 -2.2485966568926739e-02
      5.2262466530736032e-02 3.4383119234408288e-01
      6.3314338894764899e-02 6.5151421660062181e-01
      -2.2059770595963196e-01 8.0948399459696108e-01
      -1.3784257576800124e-01 2.8093015939234797e-02
      -2.0992061770752013e-01 1.8537902503324036e-01
      -4.4607847808544970e-01 2.6306677477085533e-01
      -2.0657010979984869e-01 3.9951742697661841e-01
      2.0935457306946961e-01 9.9005704138247025e-02
      -8.5474679598190356e-02 -2.1990907613334901e-01
      5.6492738192226610e-01 -1.1206660687358547e-01
      -2.3610773921763151e-01 -1.5089572247752728e-01
      1.7663294854044650e-01 -1.4162362943902007e-01
      2.9160343460185612e-01 -5.0390127657794298e-02
      -2.8837039125980879e-01 3.6345621919846688e-01
      -1.3683304402223703e-01 -9.8625080329548198e-02
      -1.2587828009527127e-01 -1.3359496360615139e-01
      -1.6939559152760839e-01 1.3915208148486435e-01
      -1.5231552411046542e-01 5.8921751793676341e-02
      -3.8216335443336874e-01 -4.1845692028503378e-01
      4.6151806821636548e-01 1.5187282003446737e-01
      1.4760003425880525e-01 2.9729435144175942e-01
      1.8848112035277534e-01 5.6176783003868458e-01
      -1.4192702422930464e-01 6.9470781749556265e-01
      -2.9758102007414786e-02 1.3981538349565423e-02
      -7.5500141722883343e-02 1.8731907096126474e-01
      -3.9437822945505940e-01 2.3933162215526776e-01
      -8.3229070353495735e-02 9.1220386780797236e-01
      -5.8979305551294631e-02 1.6143050093240519e-01
      3.8233701494025546e-01 7.5275321212291760e-02
      4.1916852370914942e-01 6.4280986676562749e-02
      -5.5979039254325777e-02 -1.2512787577576878e-01
      1.7121137337966039e-01 -1.8666809482973015e-01
      2.2900088769471730e-01 1.1149869357007090e-01
      2.2347270250796161e-01 2.3285635332745486e-01
      2.4154827895430022e-02 -2.8594600796048125e-01
      5.9578966398617018e-02 -1.2848145373725067e-01
      -1.6319834651096465e-01 3.9381399950261226e-01
      5.6239711748738257e-02 -2.6590555650979925e-01
      1.0083313970704996e-01 -6.9624954493905877e-01
      1.9868941810099708e-01 1.3392124731029981e-01
      3.6912058093708780e-03 -6.7352046489282474e-02
      1.5844878846378088e-01 3.1970278411678854e-01
      -2.4933110714140197e-01 -6.0766171930369683e-01
      5.3085578195413976e-03 3.8332028354374781e-01
      1.6049236677772033e-01 3.2065163057560581e-01
      3.2346691800190008e-01 3.4744807414234147e-01
      5.8224623364956075e-02 1.3915972557165253e+00
      -2.2258102272299252e-01 -2.2345734524233574e-01
      3.3140744512811909e-01 2.0009383380223628e-01
      3.8330200259921815e-01 -1.0558343201101363e-01
      -2.8535110707783190e-01 -5.8172390382060520e-02
      3.4090966134629288e-03 -3.2124571847427646e-01
      3.1821850403832308e-01 9.5785503860356513e-03
      1.1844212813626340e-01 -1.3206213526866387e-01
      -1.7905374825310458e-01 -3.7100258354216215e-01
      4.0316560530588071e-03 -3.5051322115810923e-01
      1.4864160621665837e-01 -1.9005247542593465e-01
      -9.1884939258026557e-02 -3.0029353701479938e-01
      3.5018780354183258e-02 -4.6646445179975082e-01
      1.5713312369756452e-01 1.5007598666246233e-01
      -1.3392317850430732e-01 4.6467430648808217e-01
      8.4219249734778942e-02 -7.3934842193282557e-02
      1.0529752142314289e-01 -5.6402060922001807e-01
      4.2375389978312465e-02 5.4456379059421911e-02
      2.6906523954300682e-01 5.5987294949882094e-01
      2.3463802741134746e-01 3.4977353630182023e-01
      8.9227542305372554e-02 7.6469047641400523e-01
      -2.9707233845747533e-01 -9.1734328173338930e-02
      2.2410788777604518e-01 1.8330789239722495e-01
      2.3471828061193639e-01 -3.1463723720023051e-01
      7.1944282399078213e-02 -4.8612000205222319e-03
      -2.8523862392837812e-01 -9.5353846939813205e-02
      1.7093162007945045e-01 1.8117117227247193e-01
      -2.2765323659190994e-02 -2.7415044781754738e-01
      -1.0715132217432351e-01 -7.0657584103551482e-02
      1.6075741998145365e-01 -6.8035238255390429e-02
      1.1147648137594973e-01 -2.2169276146131592e-01
      2.1626940209229212e-01 -1.7958319619422533e-01
      4.0820667770615687e-02 -5.8506050072327065e-01
      5.5726802105048184e-02 1.2636215659166145e-01
      -1.5966355665421605e-01 1.3624820230226189e-01
      1.6322086321800541e-01 -4.2492026454940657e-01
      -5.0691146796386324e-02 -6.2430356412767807e-01
      3.2704881379156769e-01 3.1955854068333622e-01
      2.8268911021771398e-01 3.9096097482470654e-01
      1.5293013951860526e-01 -1.0427001858295283e-01
      5.5892838453081586e-02 7.5201749829490971e-01
      -9.0797624006939401e-02 2.4103805429843669e-01
      1.1415022443813543e-01 4.1129439057562923e-02
      1.8277633961123477e-02 1.5667293640350372e-01
      2.8130834547974043e-01 -3.3418914874822309e-01
      7.2012047890086708e-02 -7.6524445318005535e-02
      1.7382717439300019e-01 -4.7881321552976502e-03
      1.3914088103318331e-01 5.7812689821531836e-02
      2.1838233271072285e-02 -2.0943935279895930e-02
      1.2152888039267849e-01 -2.1317334477716621e-01
      8.6309946912248567e-02 -1.1759983188586789e-01
      1.4448459260527782e-01 3.5127152090550501e-01
      -1.3290660665306958e-02 -1.1248701132440604e-01
      -1.0608395129794096e-01 3.3886162833669747e-01
      3.2684698963933913e-03 4.2011267989880047e-01
      3.8687756357087577e-01 3.3982890129845622e-01
      -2.0035291373485503e-01 -7.4236658070282091e-01
      -2.0971575593296155e-01 5.8424515581692793e-01
      -5.1325540314029861e-02 1.5158765927875514e-01
      5.9388093728578763e-02 -1.3228350955593612e-01
      1.9314216771601234e-01 2.9658336854217576e-02
      -2.9376837275834483e-01 -2.2609516519826248e-01
      -1.1170741972995635e-01 4.7496964652741891e-02
      -3.1881883222714152e-01 5.6212891726136319e-02
      7.0088326317048300e-01 4.0579498995170493e-02
      4.3249600291628765e-01 -3.5359151711003711e-01
      -2.6478777993367719e-01 -9.8292817267026881e-03
      -1.1486050058326477e-01 -3.0438090347620256e-02
      -1.3121700918603937e-01 -4.3628654231730207e-02
      2.5689324662758785e-02 -2.0688279417863356e-01
      2.3874767917478573e-01 -1.2721514421619898e-01
      8.2281010589062309e-01 3.9670085795826948e-01
      -5.8026967996012285e-02 7.9647812904208345e-02
      2.9388952987957873e-01 6.1756443886904579e-02
      1.5276557074624200e-01 1.8871366584934637e-01
      2.2068533437712187e-01 3.9308768063349286e-01
      5.3132223120563531e-02 -7.0860249598287989e-02
      2.2647164157990210e-01 1.6930310419658018e-01
      4.5155388196039892e-01 -1.6428793135937178e-01
      -1.1877500712849974e-01 -1.5571037809619834e-01
      2.9501544493250970e-01 -1.6386331739699392e-01
      1.8608742507156201e-01 -5.4166217444653408e-01
      -2.2597231374747473e-01 -1.8318566139756406e-01
      -3.5494838346669061e-01 4.1510567871184101e-01
      -6.6946750811563882e-01 -2.6117918031262610e-01
      3.2113409335979737e-01 -6.8574070019629091e-02
      -5.4160539602504265e-01 5.8781346414380076e-01
      -3.3741727405911204e-01 5.4773958530194000e-01
      -7.6759858446937598e-02 -5.4117799547361711e-01
      -4.6391425938287500e-01 -2.6126696469795802e-01
      -1.7728254475454358e-01 1.2025314188095237e-01
      1.8382792008942256e-01 2.5935734144646444e-01
      2.2425894394745471e-01 2.5035252657818724e-01
      2.0346384819990687e-01 -1.4196701159566405e-01
      -6.5693405832936589e-03 -4.7593108179040261e-01
      2.1003271094965242e-01 -7.4142333717012232e-02
      2.0092047161463174e-02 -1.3039684684525552e+00
      -3.2026345272282908e-01 5.2383077219960539e-01
      1.3598552936137084e-01 -4.8956800511456405e-01
      2.8583900613978065e-02 2.6454601418126905e-01
      -6.2546847092081984e-02 4.7167540880285258e-01
      3.2069584372040644e-01 -3.3449647404998401e-01
      5.8371754598146322e-02 2.8207484511021291e-01
      -1.3982440165645799e-01 2.7406120532524508e-01
      -2.2100278433472992e-01 -3.2448676325650649e-01
      2.7783171113387950e-01 -2.1557200947233027e-01
      -9.0494506489566903e-02 1.7104804060552803e-01
      6.5254399330474222e-02 2.1988331109814302e-01
      -1.9855222505062961e-01 2.8326930899286812e-01
      -2.9821358138863480e-01 -3.7105929837256058e-01
      1.1286942161919335e-02 3.0061322342604491e-01
      -9.0131157445086940e-01 1.2767282752388803e-01
      6.5534829280666074e-01 1.4493358068583334e-01
      -4.7985757678307595e-02 -3.4693953460663401e-01
      7.5491135636520698e-02 -5.8884179043159035e-01
      -3.4591103790456218e-01 -4.1747754990965125e-01
      1.6581084378483002e-01 -1.5748713762569204e+00
      -2.4747842024533040e-01 -2.2197546010782634e-01
      -2.9882880272408047e-01 -1.9259985929591705e-01
      2.1294665682421256e-02 1.4642313983389049e-01
      -1.2135201730158955e-01 -6.4402629870276507e-02
      2.8101573214636988e-01 9.2159779957297003e-02
      -3.1455052512675982e-02 2.7407180758024285e-01
      1.7400936179287876e-01 1.5931712040113788e-01
      -5.7945524346958999e-01 -1.8736587127093582e-01
      -2.9363041701705306e-01 -4.6468506750645823e-02
      -1.0069991691459415e-01 3.8485013860920281e-01
      -2.4093277439222902e-01 6.4290370920317957e-03
      -1.8253020803380604e-01 2.7112850476835637e-01
      -1.2155914236678217e-01 -6.7935403661589858e-02
      5.2088383469427617e-02 -1.7600228546657579e-01
      -7.5567555194729918e-01 3.1773685175104406e-03
      4.2587149189235129e-01 -3.5176487020097603e-02
      -2.1422508168046467e-01 -1.5190108823679896e-01
      1.6495448443722976e-01 -1.4955122906047227e-01
      7.3845216608553060e-02 4.9871120916411271e-02
      1.6435810495747127e-01 -3.2000479233225859e-01
      4.7749480740300457e-02 -1.4488741063290331e-01
      -2.0175750648303153e-01 -2.0431354914856356e-01
      2.3721357419800693e-01 3.3439165709590529e-01
      1.8095975767286072e-02 -5.9864526784192496e-01
      4.0520817392219044e-01 -5.4633828800085119e-02
      2.3982480074500254e-01 -3.3984338490273819e-01
      -1.0149049641638237e-01 2.1469957736761733e-02
      2.1639919503857100e-01 -2.2547056362201021e-01
      -1.4634429951026243e-01 -2.8360290550143552e-01
      1.3736750660262018e-01 1.7674631520567505e-01
      1.8345139039234448e-01 -3.0427285245713076e-01
      -9.5498053432839340e-04 2.0605471868188965e-01
      2.8976197240071844e-01 1.7301975627424479e-01
      8.2084955328692949e-02 -1.6593296645975067e-01
      -2.1765108507731543e-01 6.8654647038067485e-04
      3.0894593942908111e-01 1.1980347367987807e-02
      -5.7428886980642718e-02 -6.3635781546454606e-02
      3.5865712138876887e-01 1.3129710607978839e-01
      3.3542638592585827e-02 -1.2398309633121699e-01
      -4.4738414535923809e-02 4.9728059879814511e-02
      5.5115334403932892e-01 -1.8891218783860081e-01
      1.6471698324775689e-02 1.3566681005785097e-01
      3.6758037149391805e-02 4.2110814337928237e-01
      1.9510695066269863e-02 -6.0193683095984230e-01
      3.1555674013890722e-01 -1.7673026736810876e-01
      9.6341057795838056e-02 -3.7144673087645180e-01
      2.6955986643361501e-01 -1.2522258049151910e-01
      3.8150479178880009e-01 -2.2334006191473646e-01
      -1.1586370596255059e-01 -1.6929545522581307e-01
      3.0012453511411907e-01 2.1932973521387167e-01
      -2.3793497762944602e-01 -1.6143346304037792e-01
      -3.5834989797392920e-02 2.0283336796894988e-01
      2.9337962291998521e-01 1.4258329416346052e-01
      -1.9947461947994885e-01 -2.3923817113067800e-01
      -2.6096963884719482e-01 1.2793728168989482e-01
      3.0163256314126680e-01 -2.1110659784091584e-02
      7.8916256240027127e-02 -1.5500236791082375e-01
      5.8818278827405612e-01 7.9698063848789275e-02
      -8.2146308276006302e-02 -1.0619298673665367e-01
      4.0305458022826146e-01 8.1151122021606503e-01
      5.4650102886694307e-01 5.4477864378164953e-03
      2.3737252955756241e-01 7.2581227425502534e-02
      2.7120332098938188e-01 3.1703927880025751e-01
      4.1947323610954108e-02 1.0519609874916092e-01
      2.6858330870006214e-01 8.8181045286493838e-04
      -9.1637001557482625e-02 -9.6874803923697198e-02
      1.1134930209729336e-02 -1.4056438654473857e-01
      -7.2800737247641106e-02 -2.0516484368655416e-01
      -1.3126159654965788e-01 -6.7702371280601248e-02
      3.6680272904677574e-01 1.9231944684157606e-01
      -2.7580049452358490e-01 -1.3357537195275287e-01
      -5.4021504447992204e-02 -8.4646534601507256e-02
      1.1597792473927866e-01 -1.5094708219546024e-01
      1.7732577899057148e-02 -1.5232067038685215e-01
      -5.1126847809542653e-01 4.8168371984618425e-03
      3.8039325314322997e-01 -1.7242227861415393e-01
      -1.4112538634496818e-01 -1.9303311615943922e-01
      2.8064082037912402e-01 -1.6165933561027646e-01
      -7.8420919741756953e-02 -2.5055208538077088e-03
      4.9064447645508505e-02 8.5813848046160768e-01
      -1.3578126160479528e-01 -7.9949123208924319e-02
      -1.7688892400871137e-01 -2.1691563109082238e-01
      1.7266274726023703e-01 2.6424400766549372e-01
      -5.2926686347337548e-02 1.2817587082396187e-01
      -7.8515546516706725e-02 2.1145854178664555e-01
      -1.2787470155683037e-01 -5.8008145202980794e-03
      9.2699576001223138e-02 -1.8106645270815716e-01
      -2.0980654639410176e-01 8.4689414308390554e-02
      -2.0481175259846274e-01 -1.7165080976341670e-02
      8.8213974694638181e-02 2.3132923324633839e-01
      -2.6541491759052321e-01 -2.2465125781740250e-01
      1.5534326180936758e-01 -1.6499220203635004e-01
      -5.9667959811441254e-02 -6.1105306918627762e-02
      1.4130092654696286e-01 2.7413433565206258e-02
      1.2095774123720708e-01 -1.4240482479208802e-01
      1.4992037449074600e-02 -1.9406153399644255e-01
      6.3780012983492715e-02 6.3181378102678931e-02
      -6.7870258851845888e-02 -2.9639557688915456e-02
      -1.7067378829144848e-02 -2.8607009442041431e-01
      4.4317661031817562e-01 1.4608405373906319e-01
      7.2071301258556639e-02 -2.5093229969094122e-01
      -7.0915397322998466e-02 -2.6597789185738646e-01
      -6.7911021108750774e-02 2.1520443395367717e-01
      -5.2449877224620363e-02 -1.7396853443988389e-01
      1.6824939141020987e-02 8.4129875606742816e-02
      -4.1172403237861852e-02 -1.3121823823386741e-01
      -1.6627405192110126e-01 -4.1122590886495225e-01
      1.1668552132528769e-01 4.9956418356574162e-02
      -3.4762500512606914e-01 -6.0388085411014612e-02
      3.1158129155680608e-01 3.0090815785751668e-01
      -2.4376350883136244e-01 -2.7835626067551544e-01
      1.6017151491519407e-01 -6.4060689731176720e-02
      -3.7765132244494473e-02 1.3492781135424667e-01
      1.8473942462443541e-01 9.0211343719946140e-03
      5.5225310565149496e-02 -1.6408094523496633e-01
      -7.3038282506638116e-02 -7.4624311036204302e-02
      9.2550647261564437e-02 2.0639233846154509e-01
      -1.8239081367650001e-01 7.5642196032341805e-02
      -1.3066359265797589e-01 -1.7106079677833247e-01
      2.5244892217864312e-01 -3.9847226123799950e-01
      1.0761016668692935e-01 -4.6279223470319986e-02
      -1.3645871111638784e-02 -2.4819431913398463e-01
      4.6425807199366204e-02 3.8030736909311226e-02
      -7.1608894307810672e-03 -7.0492484598528860e-02
      1.2670324905307720e-01 1.5947125720493052e-01
      -1.5850066731232865e-01 -1.1194639886748177e-01
      -1.5638865740752791e-01 -5.5511213658196647e-02
      8.8011274768315162e-02 -3.8586774447571491e-02
      -2.3572603347242441e-01 -1.4019149323224073e-01
      -1.5156002101748123e-01 2.9840181044896347e-01
      -1.5205057372340841e-01 -3.1924570774705496e-01
      1.7090498230045392e-01 3.2117362402914060e-02
      -7.3067803795783134e-02 4.7660770203534056e-02
      -2.9037076803953253e-02 2.3113244052050222e-01
      3.7501946066996084e-01 1.6822685352266751e-02
      9.3621763187481093e-03 -1.7447823958832656e-01
      1.4644220703291064e-01 1.3153892301011430e-01
      -1.8682726203980776e-01 -2.9380934481565694e-02
      -1.4610031083576477e-01 3.5608386907410139e-01
      1.9215519428464461e-01 -2.9266615550342040e-01
      7.8530304426555148e-02 -1.0524939689819408e-01
      1.7667203531884352e-02 -1.4013265682145534e-01
      1.3690847419054821e-02 -1.1090546562452906e-01
      5.7113014013842070e-02 1.0505124465145002e-01
      -1.3134877589702988e-03 2.8649361028872844e-01
      -1.1283033420132201e-01 5.7868339704023726e-02
      -3.4316382983851446e-01 8.4510047409928259e-03
      1.2408405371137990e-01 2.4139029730160647e-02
      1.1459541381170574e-01 -3.4978430142765339e-02
      -1.7112214688764024e-01 2.0923509862772185e-01
      -2.6149662869215270e-02 -2.1148993935054067e-01
      3.4063747906972236e-01 8.8979383797874137e-02
      -4.1601291799860324e-03 -1.2548441152853473e-02
      -6.0752110667200765e-02 -2.1869971221098108e-01
      5.6517297958052694e-02 -2.0776045932490406e-01
      1.4337589670059911e-01 1.3702621778942868e-02
      -5.2683992033854550e-02 3.1078345530335262e-02
      -1.5896345077157045e-01 1.8132384853003125e-01
      1.9995733137269095e-01 2.1147662011584289e-01
      2.6984279621684643e-01 -6.3785791094876054e-01
      1.1247401919738569e-01 -9.0101312864264815e-02
      -1.5565255459379619e-02 -1.0437886294877557e-01
      3.4076924348341496e-02 -6.9010197992955463e-02
      5.7520610196800999e-02 2.3194982219455051e-01
      2.8718907277215804e-02 2.8297921953928978e-02
      -9.2552020803741045e-02 8.4481545724048229e-02
      2.6589846816494189e-01 -8.9974702192284511e-02
      5.5806920932641918e-02 -1.1328603582124909e-01
      -1.2475411117374127e-01 -5.8715100425032550e-02
      -3.3520773070179916e-01 3.9335244048969686e-01
      1.2182125968240450e-01 -3.1229343490622741e-01
      3.9986548466364730e-01 1.0010945661948321e-01
      1.1493272148836897e-01 -7.2383741653000641e-02
      9.8384462097686087e-02 2.4489804414167402e-02
      -8.9711313346869770e-02 -2.3681628356764231e-01
      3.7810786152649760e-02 5.1357321791237545e-02
      -4.2105929468696152e-02 -1.5864551188061471e-01
      1.6364838857542391e-01 -1.3785241019885053e-01
      3.9005918831591258e-01 2.6338712574813555e-01
      3.7412261874905200e-01 -6.7184132213849043e-02
      -1.5794611902208075e-01 -3.4653735446559825e-01
      5.7719850054308679e-02 -1.8161585741758343e-01
      -2.6459305966345126e-01 9.2298157900499209e-02
      1.2139411623657878e-02 2.2489995936914584e-01
      -2.7034035668164508e-01 2.1390784914268757e-01
      -2.1521864083178791e-01 1.2091287437758214e-01
      -3.7732967096794884e-01 2.5001184116497212e-03
      5.2862335045265330e-03 -8.9403919003707713e-02
      1.3897424599158220e-01 1.5400440610434316e-01
      -8.4115162845937216e-02 -1.0628218695471069e-01
      2.3940066787541062e-01 -7.0790343257728677e-02
      2.2954500121703633e-01 -1.2960102171218940e-01
      9.0315617912719276e-02 -1.0549321740629720e-01
      -1.6194426668391604e-01 2.3928689164984809e-01
      -1.9879997387499238e-01 -1.2996328029590179e-01
      1.3402041270499432e-01 -2.1096993907300332e-01
      -3.8129298034417017e-02 1.0216981914725834e-01
      2.0525384600919067e-01 7.1543137732744079e-03
      9.9042146309182011e-02 -9.9115041992664771e-02
      6.5653557948053068e-02 -8.1823538762256870e-02
      -1.9881297490110753e-01 -1.2069538654800047e-01
      1.2453580501941790e-01 -4.3635230201274793e-02
      -2.8631941994149649e-02 -2.7280098997943630e-01
      3.8111662397127447e-02 1.9187511573735841e-01
      4.3396142003710302e-02 1.4504981509261061e-01
      5.2732311514253477e-02 -1.4705867846353168e-01
      2.1929773598909399e-01 2.0757194911444340e-01
      -2.0579556035066937e-01 1.6219034851558933e-01
      2.1243740236207692e-01 9.1120901726832973e-02
      1.1365199698902395e-02 -3.7417061416285896e-01
      5.5423267591008885e-01 6.9898330750948340e-04
      -5.5258597668674629e-02 -1.9825039241199688e-01
      1.6384353668780324e-01 1.9005415232142275e-01
      -1.2795833089038541e-01 1.0019690506525918e-01
      3.9575971089980217e-03 -1.1160416778506443e-01
      -6.3797495619662220e-02 -1.3260856700316437e-01
      -1.8164171353530510e-02 5.9741600383208984e-02
      1.2374524830256416e-03 1.9312302439954288e-01
      -5.4778044590509473e-02 -4.8649169874051762e-01
      -1.7006083769953306e-01 -2.0985542124430009e-01
      1.2458224375731467e-02 5.1750160409548523e-02
      3.8533912044589658e-01 5.7426629323336115e-02
      2.6725482864392705e-02 -1.4159377220583080e-01
      9.3936405364652614e-02 -6.3279258032404251e-02
      6.4615505663929724e-03 4.6093139707018074e-02
      1.8124311618625394e-01 -2.2038195771886818e-01
      3.4774606385243251e-01 2.3457549876214265e-01
      -5.8875166455410237e-02 2.9111986976718096e-01
      7.4473794049500858e-02 -5.5871772170531527e-02
      -5.2124609246451202e-02 -4.8728295719807807e-01
      2.9396494229634312e-01 3.4285702749405961e-01
      -1.9829897307946026e-01 -2.1869000137358638e-01
      5.3334820379875227e-02 8.2300703497319716e-02
      -1.7758988328394984e-01 1.3225746275887712e-01
      -2.3435798029876201e-01 2.3199579115353822e-01
      4.5272277367550691e-02 7.1648169787813382e-02
      -9.1729803878228461e-02 -1.6397613213607387e-01
      -2.4918961921002666e-01 2.4999368807446662e-01
      -2.7620414045907187e-02 2.4843336588501793e-02
      -1.2564491043010573e-01 -8.9865082992899442e-02
      2.7480690362530168e-02 2.3902941117745746e-01
      1.2211069535053466e-01 -1.3443668289786065e-01
      2.4410925950127346e-01 -1.1248956924558459e-01
      8.8406724114584015e-02 -5.7632455831013762e-01
      2.1335909577899773e-02 -1.1056310814028329e-01
      4.9431139289600322e-02 -1.1475919617117573e-01
      2.7654386686236915e-01 -2.5413441263558212e-01
      2.2555137591378627e-01 4.6832316440128835e-02
      3.4140035817007086e-02 9.6566099329241067e-02
      6.2728007365120228e-02 -1.4594867931553843e-01
      -1.0608169921381844e-01 1.9316705678832757e-01
      -1.1903445624892569e-02 3.2755802287855640e-01
      1.1328558667251939e-01 3.1790793635536396e-01
      -6.1362154564843091e-03 1.0681681783713669e-01
      3.8718475036089099e-02 -1.5312071434267660e-01
      -3.3649978478304643e-02 7.3555261635057934e-02
      2.5517004743178534e-01 4.4773432239718976e-02
      -2.3227103419842854e-01 -7.0655178611721728e-02
      2.2622923402286846e-01 -3.4405395490756180e-01
      -1.4112164550103648e-01 -6.3114076229603980e-02
      -2.4988085353174488e-01 -2.7183121742691056e-02
      6.3471142452422469e-02 3.1365675670048909e-01
      3.1279521646077640e-01 3.4742910684519733e-03
      -8.4790700973321129e-02 -3.9997217645150296e-01
      -1.6032436670336511e-01 -1.6925767373895217e-01
      1.0880743341979965e-01 -3.8053744888553363e-02
      9.2868000043210802e-02 -1.0477056828026006e-01
      9.0985325892166985e-02 1.8070220823160735e-01
      5.8138841424480836e-02 1.2591893538557622e-01
      -3.7286304367994821e-03 9.8625829427355968e-02
      1.2735282666086782e-02 1.1661106384122352e-01
      -1.0093959156318211e-01 1.1554789675148397e-01
      6.3055476618152376e-02 1.7662065461331133e-01
      1.3234634223351227e-02 -1.1641447574426080e-01
      2.2559688964509061e-01 -4.8184367818695881e-02
      -1.1550640138238284e-01 1.7373010417523097e-02
      2.7793511759120615e-01 6.9821956294892767e-02
      -2.0491559174754273e-01 3.0028972731061948e-02
      3.9183934119667996e-01 6.7427575820502329e-04
      -1.2802760924456644e-01 4.1060325540849762e-01
      1.3956493001508805e-01 6.7911000974934549e-02
      -1.6888029007201535e-01 2.8915552084981477e-01
      1.6308270862942273e-01 3.1146590500382619e-02
      4.3505226780305190e-02 3.1131187076981648e-01
      -1.8319830213327057e-01 -8.5818122905294406e-02
      2.5923343724415293e-01 1.1396751370970380e-01
      -1.3325006217314234e-01 5.8025609826778284e-02
      -1.6336821917713248e-01 3.3944039062924862e-02
      1.7729223871949137e-02 -5.4521233958955077e-02
      1.9068707132280563e-01 -9.4777663991439456e-02
      5.4050557951587870e-02 1.5622606697499461e-01
      -1.3107411362425894e-01 -1.8127828651161981e-01
      -3.6640998438326446e-02 7.5002941259583358e-02
      -8.2326726665303412e-02 -4.4893732379627471e-01
      2.2681788186704432e-01 1.1974830075736539e-01
      -7.0680712549646640e-02 7.4270903924560469e-02
      1.0223075377208708e-01 2.2013983624813688e-01
      -1.8735294366911984e-01 1.7310011403552170e-01
      1.0107105173038665e-02 -1.0310845828543933e-01
      4.4686697831539217e-02 4.0846222593448450e-01
      -1.1655332199678677e-01 4.4645794583861254e-02
      1.2278236060127165e-01 1.9635785692057875e-01
      1.4332475163007252e-01 7.0134669190809393e-02
      2.4021649790083224e-02 1.9483374872967027e-01
      -1.6330316036777298e-01 -1.4962869957557766e-02
      3.5624682416712816e-01 4.7747258503815782e-02
      -4.5021653162052527e-01 2.7886761205264693e-01
      -8.8008588310934069e-02 9.9925759111217136e-02
      6.2840578074168990e-03 1.3258189292983344e-01
      -1.0090698182268143e-01 -2.8015744935440162e-01
      6.4846553766972542e-02 2.1755366487393263e-01
      -2.2356450914262654e-01 -2.4784277974023480e-01
      -1.9294036156717348e-01 7.4166276335878550e-02
      -7.8375346146995969e-02 -1.1530741152960948e-02
      3.8987676884740896e-01 -4.8191793936710005e-02
      -8.1605650238574232e-02 -1.0078244337990575e-03
      1.1059150227398994e-01 2.6106919839776027e-01
      -2.3912843679318269e-01 6.5348721410671426e-02
      -9.9105625807294415e-02 9.4780641993033363e-02
      3.6560597353612495e-03 1.4385186315677348e-01
      -1.5910999208107007e-01 8.8083306523676255e-02
      2.0444945387156938e-01 2.6783953345532846e-01
      -5.3039279021789176e-02 -7.9804997423844753e-02
      -1.3965039467012841e-01 1.1339102728464164e-01
      -1.9550498607070810e-01 -2.1497472433465593e-02
      5.3588159270018400e-02 2.6126618050100170e-01
      -1.0509633757337766e-01 -3.0349139650747625e-01
      -2.7175824909342455e-01 -1.3545653607797950e-01
      4.4182944408015662e-01 2.4113335879334180e-01
      4.8641570071418519e-02 -1.2707388620169806e-02
      -1.4188269715181062e-01 1.7687906466407080e-01
      -2.4553820477479521e-01 -1.5581191047557491e-01
      -1.2978682700021490e-01 -1.4923733456145932e-01
      -1.5076394812160607e-01 3.0249941889114157e-01
      -2.0225716793911691e-01 4.8076745677485690e-02
      1.1694461480943792e-01 9.2432508810992631e-02
      -1.6876940317768344e-01 5.1346549558793579e-02
      1.0164461628345987e-01 -2.0916345744598691e-01
      9.7195300164635082e-03 3.8885104459755687e-01
      1.4567603895737797e-02 3.7426204518752032e-01
      -1.5533772076527310e-02 1.8751351668137481e-01
      4.5912677879187846e-02 1.7793786608262824e-01
      7.3538280996441954e-02 -2.9807385111338602e-01
      -4.4611896750786480e-02 3.1307487809742274e-01
      -2.5310392674584981e-01 7.1547542951296117e-02
      3.4420087331642479e-01 4.9000209028055167e-03
      -5.2121913772390095e-02 4.9507659743432873e-02
      -1.7913176840549838e-01 1.3825830133314720e-01
      1.6854074515274564e-01 7.5393467179490845e-02
      6.8656003572726193e-02 2.4793384534371954e-01
      2.4951358346982591e-01 -1.3175368256645073e-01
      -1.7129034957171166e-01 -2.4832448489986619e-01
      -5.9240359131852861e-02 -2.6132897664712787e-02
      3.0583502230561471e-02 -8.2857471476307329e-02
      -8.8472622312986221e-02 -7.8606068051137928e-02
      3.1845576949626148e-01 1.3645134165550457e-01
      2.0239463374296007e-01 2.9857399803393317e-02
      -1.0415724249782453e-01 -1.9297751064883667e-01
      1.6180850162154872e-01 4.3702589075519371e-01
      2.2444060058017742e-01 1.5126600668704598e-01
      1.9984393759958236e-01 3.1899247339590181e-01
      4.6472834066120315e-02 2.9931118044408733e-01
      -1.2091732282239556e-01 8.7267121909404125e-02
      2.0068488808224628e-02 9.6613623144254451e-02
      -2.5011605442626334e-02 -8.3219871010969615e-02
      2.0082545448576705e-01 2.7248209974452131e-01
      -1.6609244569656620e-01 6.5668069745078361e-01
      -7.9776237635834066e-02 3.3013290123300820e-01
      -3.4226074602523876e-01 -1.2905731579112006e-01
      -2.9339323564574793e-01 -1.3028971650496673e-01
      8.7757190924521694e-02 3.8718905980863444e-01
      -2.6436395981378730e-01 4.4074420136855302e-01
      8.4699251746302703e-02 -8.4880179925353516e-02
      -1.0152068080531444e-01 2.0667823702855321e-02
      -1.0999037616904525e-01 2.2067326823015671e-02
      -3.0376948972806367e-01 2.1857948912263098e-01
      -6.2104501800662529e-02 -1.8624602501631671e-01
      4.7301571161609372e-02 8.7152253901801018e-03
      1.1401355473551535e-01 1.4278756627257455e-01
      9.4652800462759437e-02 -3.9150938747996328e-01
      2.0559696962432466e-02 5.6630150783919675e-01
      1.6533410765216833e-01 1.7905123032517326e-01
      -5.5183210867089647e-02 -1.2987499669583746e-01
      -7.7674245942001716e-02 -7.6575221289547010e-02
      3.7283556395947457e-03 -1.3598393224858449e-01
      -7.6417936549417989e-02 2.1679178493528858e-01
      4.6511827288149737e-01 6.9386933258296657e-01
      -3.3671788983609352e-01 1.7019327386881503e-02
      -5.2174468901455850e-01 -4.0420612806686024e-01
      1.1135185246596879e-01 1.3756044929322683e-02
      1.0291608300533499e-01 5.3635038110582323e-01
      -1.9373144770336959e-01 4.4824059053463094e-01
      3.2175699066352592e-01 -1.4125064061548456e-01
      1.8421039537851097e-01 8.0267084621465784e-02
      -1.9010613033696999e-02 1.0327952027699021e-01
      -2.9295737707084746e-01 3.6597626866607058e-01
      3.2049412363572278e-03 -5.9224782415519123e-02
      1.2511589434292114e-01 -2.4664091439903971e-01
      1.4336383225260649e-01 3.2100626313230324e-02
      -2.0997129602374842e-01 -7.6421809040025679e-01
      -1.4601947421253822e-01 5.6741033155179788e-01
      1.0186524965373860e-01 1.8900462483219332e-01
      5.7636130349184869e-02 -1.6042392556495741e-01
      -2.1134075084168969e-02 -4.2647393429568255e-02
      2.4297491798400353e-01 -1.0008655913792393e-01
      7.7379840213658888e-02 1.5795113807032093e-01
      3.6056752648967105e-01 2.1290203824093573e-01
      -3.8138226709472384e-01 -1.0833906585890152e-01
      -2.9865679601807493e-01 2.2923934174919530e-02
      1.8989830941080232e-01 -3.5881498289034963e-01
      1.9597817968784872e-01 4.4417431324265448e-02
      -2.8415048796368837e-02 -1.2456801994845776e-01
      -5.2609773474004015e-02 -3.1981509726199830e-01
      2.0946349692594587e-01 1.0183254617716080e-01
      2.2813415874301465e-01 1.6612581733543843e-03
      -1.9179793137358933e-01 2.5737843355899452e-02
      -2.4153298953893443e-01 1.6695156802848877e-02
      1.6073500869297322e-01 -2.8338069130294363e-01
      2.3690956219092638e-01 -3.5029900798621617e-04
      -1.3072238095198102e-01 -4.9040760200320582e-01
      -1.1412822608327826e-01 1.3909817338472497e-01
      8.8477420626768402e-02 9.4674655595720844e-02
      -3.1228023980258895e-01 -1.4113648208440319e-01
      6.5938851269097432e-02 -6.9356321211333416e-01
      2.4751339447332740e-01 1.3700044455885488e-01
      -1.6005058183926398e-02 7.3614250382747923e-02
      1.6461249082686988e-01 1.6403049508781106e-01
      3.8675261058253380e-01 -4.3717627583417623e-01
      5.3483789006714577e-02 -8.5835841459956264e-02
      -8.2713432129448747e-02 1.3830448625979833e-01
      -4.3905927837308581e-02 -3.4931024832663654e-01
      -1.1162170563792943e-01 5.1868746016384482e-01
      2.2900938331015841e-01 -4.9546724809517068e-01
      1.9455557888454675e-01 5.0858424602863730e-02
      1.8867669363088987e-01 3.4649806482919299e-01
      5.1343342906941168e-02 -3.1750277664292992e-01
      2.0922481406870799e-01 -3.8225613320385238e-01
      -1.3420163812833921e-01 9.3606328996046928e-01
      -1.0235635975642599e-01 -2.1642813438014707e-01
      -4.0227065715916799e-01 1.6532646788372303e+00
      -3.3388775777097873e-01 2.7234535990310627e-01
      -7.9238214122934886e-02 -1.7917052025795543e-01
      -1.3095394795444042e-03 8.7394832540813677e-02
      -2.5498922328090073e-01 -3.8942369597258844e-02
      5.2113073111015540e-01 6.0649538761832078e-01
      -3.4163975825706555e-01 -2.7623740391896962e-01
      -6.4582502329344760e-02 3.7150850533512164e-01
      7.0817813648444050e-01 -2.1179380709595831e-02
      -1.2425412994090328e-01 -4.5920751454983239e-01
      -1.5389267496719336e-01 -6.5437092518783824e-02
      -3.8712990077930404e-01 -6.8270046808833129e-01
      -1.6837144696470033e-01 7.1807283769372665e-01
      2.3583172185378868e-02 -7.9419213714824202e-02
      2.5326390659012010e-01 -1.2599524153723667e-02
      -3.1753698332748193e-01 4.6775460900001425e-02
      1.8750856623498469e-01 1.9384498366981126e-02
      2.3375900549071149e-01 -1.1832163439818261e-01
      4.0198584819200156e-01 1.4953433315365126e+00
      -4.9490849525671704e-01 -3.1862396113507707e-01
      -8.8760201339642397e-01 2.8673991844573807e+00
      -4.6282764184067032e-01 1.9037856411095766e-01
      -4.0316785603652638e-01 -1.9039561418061621e-01
      -2.6344049042984610e-02 -4.4722328928200078e-01
      1.7751201815898020e-02 1.9573932669353116e+00
      4.9098153677359445e-02 2.0593665899675329e-01
      1.9425292592569826e-01 3.2072329310111655e-02
      -4.4988382131238858e-01 4.6985261966951763e-01
      9.0610192680218882e-01 2.5676515851273402e-01
      -4.7469527138709927e-01 5.9227660663867802e-02
      2.7428679703531766e-01 2.3745936474528317e-01
      -2.4850100699363074e-02 -1.1721570715454621e+00
      4.1517796421238928e-01 3.3541542400136060e-01
      3.7292950618199705e-01 2.3815820281388042e-01
      -3.5372610801099486e-01 -7.2653769075201313e-01
      -1.7924610028375711e+00 -2.0653258823140438e-01
      6.1505690570676774e-01 2.4371604591535898e-01
      1.2760047301436936e-01 -1.5473874412846161e-01
      -4.6104960065248821e-02 1.6944922273732728e+00
      -1.8910358710124295e-01 6.1876103548369987e-01
      -5.9588109206267847e-01 3.6756775317153303e+00
      4.0948498863782995e-01 -1.3978681095647522e-01
      -4.5718947039912777e-01 -2.3162492909814213e-02
      -1.0615139489753305e+00 -1.7487441649735136e-01
      -2.1151859064343697e-03 3.1804195340566155e+00
      3.9560258806525195e-01 -3.4244062518903751e-01
      7.2981372059907151e-02 -2.5254831606168210e-01
      -1.3508041234740082e+00 7.7815623784579335e-01
      8.3187135578177829e-01 -3.9523344702147592e-02
      -3.0454949596295028e-01 -2.6501512869103117e-01
      1.7651838207564055e-01 6.4503521894852911e-01
      1.0783334402096569e-01 -3.8754217025152837e-01
      3.6590202945443778e-01 2.5984032041868510e-01
      4.4329999316104929e-01 5.4470326732330343e-01
      -6.9825599303544050e-01 2.4677660842586641e-01
      -2.5932382222329187e+00 -4.1750597871518114e-01
      1.3685468666270286e+00 -2.2139780712803236e-01
      -3.5546446017584510e-01 -5.1151220862438984e-01
      -2.7276453713565896e-02 1.1514073099697395e+00
      2.3469771006784435e-01 7.5591833921216145e-01
      -1.2486889622237705e+00 4.6784539921824733e+00
      1.5195302356972559e-01 1.2681757133335106e-01
      2.0721679705308135e-01 -1.8635527470614566e-01
      -8.6972637762540306e-01 -4.5799531325277293e-01
      5.2382447413947118e-02 3.1960586493148715e+00
      4.2472633420863359e-01 3.5022232941233342e-02
      1.5260674939094476e-01 -9.1827814368677999e-02
      -2.2399629762043383e-01 8.7770852826830204e-01
      9.1615858292110941e-01 5.1572900111530218e-01
      -1.1733583674294161e-01 3.2654378254635625e-03
      1.3012013898660121e-01 3.7217870589833342e-02
      1.3109174777121734e-02 -8.9046677081385461e-01
      1.7805204662108826e-01 1.7882078746750185e-01
      7.0208536041491409e-01 5.0891577670034993e-01
      -5.6625252454697417e-01 2.7182434567062036e-01
      -2.9996526779203392e+00 2.9629932277886467e-01
      9.5418030294970679e-01 3.3779598055370824e-01
      -1.1074914682750572e+00 -6.2373605823779577e-01
      4.2241243047013510e-01 8.3876099958065431e-01
      3.9850140542596058e-01 6.1644165045309041e-01
      -6.5209381463295701e-01 2.3864032840060925e+00
      -4.7105363181491838e-01 4.1278769883710748e-01
      -2.3333984660210454e-02 -4.0423751428886601e-01
      -7.6943998102342737e-01 -4.3565895372912627e-01
      -1.2849649909681465e-01 2.3887367213736943e+00
      4.0778024723383072e-01 2.6330622356209841e-02
      1.2782998506102722e-01 -6.6717667832398006e-02
      1.1260754610737749e+00 1.3782505074964232e-01
      1.1804630189817527e+00 -3.1443927465341082e-02
      -3.8658597472158707e-01 5.0652542756833030e-01
      1.0192201170467239e+00 7.0884801616785209e-01
      -4.0332369710062715e-01 -8.1537045563438904e-01
      3.6776464865123931e-01 4.5143128007590905e-01
      6.7776480507849890e-01 1.6372742602152410e-01
      -4.5974027646481275e-01 1.8114538686855344e-01
      -2.7737594242177699e+00 3.5912066494354082e-03
      5.9727661382432629e-01 6.1062538008514777e-01
      -1.2285589766393841e+00 -4.3100464903021807e-01
      4.9624374124090082e-01 1.0665210439953172e+00
      5.2475046271056858e-01 1.2396818581105999e+00
      -6.6671774028320674e-01 8.5022618505724945e-01
      -2.3909211121892313e-01 -1.9515537651124207e-01
      -4.7519418288895282e-01 -4.2965118365001315e-01
      -8.5161383212676489e-01 -2.0080826053681169e-01
      -3.5424109792233310e-01 2.3106768279222836e+00
      1.3259894374489431e-01 -3.6720467451337890e-01
      -2.4538865009585761e-01 -3.0113698577209802e-01
      7.7434975106187121e-01 -9.3380256177228249e-01
      9.1091534487024395e-01 -4.9726794299851863e-02
      -7.1274769211429834e-02 6.6862384553860976e-01
      1.0608205269092874e+00 3.4007751127258767e-01
      -6.4924492829099145e-01 -3.0162129603658411e-01
      -2.7522658398884389e-02 1.4690042234056841e-01
      4.7087372096438601e-01 2.2998543623856110e-01
      -4.4497918218447713e-01 -2.2416211966945776e-01
      -2.6923923456907488e+00 -2.7210447828548290e-01
      6.8338165928909533e-01 4.3793992542498600e-01
      -9.9089720710488205e-01 -4.4476520571333833e-01
      4.6339426616808777e-01 -1.5587429949675555e-01
      -2.5581169587655689e-01 8.8497933960695407e-01
      5.2007958454680858e-01 5.5586631725871460e-01
      -6.5075077876567877e-01 -3.9361458484396356e-01
      -1.9091254131770666e-02 1.5245092300172794e-01
      -5.9744942560159842e-01 -2.0705040686038267e-01
      -1.5750557112512506e-01 1.1468955732938217e+00
      9.9890589578335826e-02 -5.6431580142884497e-01
      -4.7534524017103494e-02 1.9785481471482841e-01
      1.0825062189321696e-01 -8.5803644313984018e-01
      5.4347237480882160e-01 -2.0504862389521966e-01
      1.1812440906098726e-01 5.4897414986096460e-01
      6.8547540917973460e-01 3.2606425115680399e-01
      -6.0964798943630227e-01 -4.0805922645843812e-01
      1.8775022707170178e-01 2.0047359877988569e-01
      1.8174661361156014e-01 3.5570763816128753e-01
      9.4251941620774896e-02 2.7749726617922477e-01
      -1.9238766280400810e+00 -3.4880940365832683e-02
      5.5976756630298674e-01 1.4489993092842807e-01
      -3.5472010115501612e-01 -1.8819511232111211e-01
      6.2903330890561382e-01 -6.2760520380843487e-01
      -2.9360966035003094e-01 6.5905689100579368e-01
      1.0616912636215083e+00 -3.3625489572742495e-01
      -3.8150012614483242e-01 -9.9271224912317768e-02
      -9.1963568460504311e-02 -9.8648568365772196e-02
      1.7421246878482306e-02 -1.2890604240533401e-01
      -1.1687073217469125e-01 1.0876692725969475e-03
      6.9997334056722191e-02 -7.9521140787786582e-01
      -1.3770701566677782e-01 2.9103752287670859e-01
      8.3479991972951761e-01 -8.8424084683798621e-01
      1.0465107077971019e+00 -6.5914149013586154e-01
      3.0506980740486794e-01 2.8056855132030445e-01
      -6.1152582043835957e-01 2.2714209475563595e-02
      -1.6818779303330728e-01 -3.1900354677881138e-01
      2.2995655289536399e-01 9.7337527600484319e-01
      5.0523904786712280e-03 3.4342419839852872e-01
      6.0342982181049221e-02 1.4620488984127802e-01
      8.7916090148277462e-02 1.0427079238319874e-01
      4.8131823421853548e-01 3.3840722412019436e-01
      -3.3583341863388805e-01 -3.6897934677208727e-01
      9.2251529284039435e-01 -6.9489703555867011e-01
      1.0954803045991357e-01 1.4480982659121874e-01
      1.1681143616703931e+00 -6.6079895462889371e-01
      4.6120028930382220e-03 -5.5585948336867719e-01
      -2.9905682856133514e-01 -2.4477895080008114e-01
      1.1728327032293388e-01 1.7096135421028388e-01
      -2.5353930917688682e-02 -2.2782114807250236e+00
      1.7011042661625064e-01 -7.6862965568244590e-01
      -1.1977301946783145e-01 3.7774043786401207e-01
      -1.6770285125086154e-01 -1.0267145629894299e+00
      7.6349401692867558e-01 -9.1498787905285137e-02
      2.6043776201994367e-01 4.1061474075606919e-01
      -3.2614949297895812e-01 1.0769258056341161e-01
      1.0219873011723089e-01 -3.8688863574752763e-02
      -2.1421733226847411e-02 1.0232786564794851e+00
      -7.5000885700669429e-02 1.2899188544974086e-01
      -1.1523234809825166e-02 5.3870635409287060e-01
      2.6115823056536763e-01 -1.4187925013477720e-01
      1.3827996022379960e-01 4.0932779378054202e-02
      -7.5680426134860423e-02 7.3652887400727364e-04
      4.5904424397006066e-01 -1.0396036456665398e+00
      4.7502245396117260e-01 4.9274039279070025e-01
      5.8968156182772768e-01 -6.9887879561244104e-01
      -1.5443387714710866e-01 -2.0103154306289861e-01
      1.0489264366813761e-01 1.9632008610610267e-02
      2.6741001813966742e-01 2.4667187358169265e-01
      6.3839880622505507e-01 1.1847428996642988e-01
      1.3825117236800463e-01 3.4189319026977383e-01
      -5.4090776130873697e-01 2.2517290377361293e-01
      -3.3308728998258756e-02 -1.7296219201675841e-01
      -2.8349865763443571e-03 -4.3749336041549791e-01
      -1.9841231209413601e-01 8.2872393508382852e-02
      4.3248765725126626e-01 -1.2901680631172250e-02
      -3.7599438424740633e-01 -1.3520438722473160e-01
      2.3926350849865105e-01 1.2449093123482340e-01
      -3.5389528509474760e-01 1.5752359878263161e-02
      9.1052497842383423e-02 -1.1459545587609105e-01
      -8.2735878118651807e-01 3.3486428819203023e-01
      4.8701078460372504e-01 7.7849119858290988e-02
      3.2078561301292115e-02 3.5034754576885901e-01
      2.9241474556839697e-01 1.7843054909748698e-01
      1.5823281185066346e-01 -2.6945820485238026e-01
      -1.3105685000433137e-01 4.7456974889706455e-01
      2.1796913687875001e-02 3.7161811275348439e-01
      4.6492892705008698e-02 -5.7691471306790609e-01
      -1.2281779227433260e+00 4.5629094269162179e-01
      -2.6316553164903606e-01 -6.8776546696917606e-01
      5.3539089591831390e-01 6.3245417107763124e-01
      -9.0340370221680000e-01 1.7550187161653855e-01
      4.2857296360620689e-01 -2.7905843167685244e-02
      1.5661578492853292e+00 -1.8660838439561667e-01
      -1.4853265716656101e+00 -5.4811983237503670e-01
      -3.1603778118388118e-02 -3.0365096932952590e-01
      -6.9990645413081931e-01 -9.2991264557201658e-01
      -3.9859758350318519e-03 1.0513498480645633e+00
      4.5315420270291801e-01 -2.0462396166431035e-01
      4.7337575478570273e-02 4.8361724996409039e-01
      -1.1757911685686298e+00 3.9359923142061609e-01
      1.3348856041198993e+00 -1.6148415979024150e-01
      3.8888541641411423e-02 -7.4517193200844201e-01
      2.0905412262489648e-01 2.6986942385773789e+00
      2.0951756336603392e-01 -2.0778087074012447e-01
      -1.3384419640517218e+00 2.1830236058665999e+00
      3.2110557631564535e-01 2.8243643986897304e-01
      3.6651642838190573e-01 -5.5101362908618079e-01
      -1.2915984680685999e+00 2.3997307137969145e-01
      1.5817440792793336e-01 -5.8217831528521446e-01
      1.1456917092073657e+00 -2.9032008853530711e-01
      -3.8590101557846934e-01 7.9891420321941860e-03
      -2.0481190738627958e-01 8.4531784463951920e-01
      2.0925699879524116e+00 -4.9591374573546038e-01
      -7.1583722818674655e-01 -7.1485442320211456e-01
      7.8078500870646494e-01 2.4325874410054116e-01
      -1.4900304248877019e+00 -1.3808052041583381e+00
      -1.6007025181159995e-01 1.7463284781977937e+00
      -4.0578055074898027e-02 -3.6677411374298402e-01
      -4.0192106437892165e-02 6.2219010832587773e-01
      -1.6986323091981015e+00 7.3759778226311334e-01
      1.0106981750394872e+00 2.4671835544788454e-01
      -1.0819667841546577e-02 -1.2301915884997709e+00
      3.0791870262229271e-01 1.2250663914820343e+00
      6.8947779153747654e-02 1.4685629545226012e-01
      -1.5485475014098848e+00 2.0140075856931228e+00
      4.3482367798149311e-02 6.1885516268138974e-01
      -1.4708371424188532e-01 -1.2532656859672846e+00
      -1.7844558758675271e+00 -1.8383658463874486e-01
      -2.1940486532524245e-01 1.1976108020281626e+00
      1.2047449489534348e+00 -1.1509721504570685e+00
      6.3828748452384065e-01 -4.2011441260264704e-01
      -1.0361292390545362e+00 9.8695939762524576e-01
      1.1536000705398071e+00 -7.2935045291555656e-01
      -8.9411892949038596e-01 2.1208165612015945e-01
      4.3122606397878577e-01 5.1366513281976378e-01
      -4.4852850171037401e-01 -8.8710345370065968e-01
      5.2256963813815213e-02 1.6793376378198335e+00
      -6.4967631630060071e-02 1.3116164972602324e+00
      -8.3912838837330705e-01 -8.2760296822686763e-03
      -2.6101512530527513e+00 -8.0419531112670431e-02
      5.4304607822346818e-01 3.9111384800101695e-01
      6.2625807810047507e-02 -9.6088447487192852e-01
      -2.7132946855849505e-01 1.1957302755346624e+00
      -4.5690109401268975e-01 7.3757189639781451e-01
      -5.8966277002939316e-01 1.3144844608775381e+00
      4.1292786796746134e-01 -3.6640359534257999e-01
      -9.5450419065794256e-01 -1.6599414916258572e+00
      -1.4107378818753453e+00 -9.9913795612601330e-02
      -3.6047835323938952e-02 3.2627730326512929e+00
      6.5326873174713773e-01 -7.8569738748155982e-01
      8.3257239871440980e-01 3.6452152658808618e-01
      -2.2739237595863045e-02 -2.2632946390643199e-01
      -5.4922189520688736e-01 2.9655570855689328e-03
      -5.9489033857942430e-01 5.3616742039666743e-01
      7.9484584014474913e-01 -1.2009815763195771e-01
      7.6171696984169424e-02 -5.1913030228740287e-01
      4.1339545895507351e-01 1.1047631773176938e+00
      -4.9701426989588973e-02 9.4391051709317120e-01
      -6.5424019386828158e-01 -1.2356535339892527e-01
      -2.7023893242772949e+00 -8.9206868446196375e-01
      1.0024401485134580e+00 5.4500095974061791e-01
      -3.1001138872868417e-01 3.1875090478704915e-01
      -3.9136925311877130e-01 1.7691302804186067e-02
      -1.7702355491942071e-01 1.0175724130989925e+00
      -6.5517105482128146e-01 -6.7131224130233030e-04
      1.7937260615250434e+00 -2.7872233351376996e-01
      2.7876981394829879e-02 -7.7335591077038668e-01
      -1.5524544531024091e+00 8.8713026135225170e-01
      -2.5713124996262526e-01 4.9191727618297660e+00
      1.2504251262461639e+00 -1.2949034923227121e+00
      1.6412788261734446e+00 6.5826447270952582e-01
      1.7715681710843645e+00 9.0527512275252775e-01
      -4.2012168534077526e-01 2.0082369835450217e-01
      -1.9722325826832748e-01 9.0707459511925193e-01
      1.2767147134486756e-01 4.9697640351087513e-01
      6.6533806393237416e-01 -1.0049280231218776e+00
      5.5015638838542913e-01 5.0452343369073527e-01
      1.0242700811312261e-01 7.2119108499744444e-01
      -7.8095165285137247e-01 4.9987617735066564e-01
      -3.7834228648640842e+00 -9.6232987464745046e-01
      1.2183835657831514e+00 1.3940523029875183e+00
      -1.8577135641451467e-01 2.9800642205549571e-01
      -6.8180024265561268e-01 -4.4045771529996863e-01
      5.7989944840849317e-01 1.7694249367072528e+00
      9.8081589171680217e-01 -1.1069488507483584e-01
      2.0512556970602271e+00 -1.0859484411616861e-01
      3.6941200402073499e-01 -6.9890252221801819e-01
      -1.3315051738142978e+00 3.1215682648839194e-01
      1.6266624117420936e-01 3.3631720789513508e+00
      8.4590682394294203e-01 -2.4965194725094735e+00
      6.8355252737418548e-01 5.5434123556317072e-01
      1.3909499257655944e+00 5.4289606456651895e-01
      -1.3903502513389199e-02 -1.1048896370452370e+00
      -1.4339558342374667e-01 1.0563803127285312e+00
      4.9353624322275730e-01 1.0493990731858132e+00
      3.8212384112214137e-01 -1.6784084342302166e-01
      1.2286879585132904e-01 5.0502130545018502e-02
      -2.0110806738764256e-01 1.1705036780853169e+00
      -4.0045785934444067e-01 5.1691592984143186e-01
      -2.8617221559546402e+00 -2.2999933657206192e-01
      1.2971122165566569e+00 1.0200094890384870e+00
      -8.4057732189408124e-02 5.0441225386395550e-01
      6.3942637016659684e-02 4.1537885164366933e-01
      5.8817602703975191e-01 1.8777859632240137e+00
      1.7740973133541569e+00 4.4304188441782723e-02
      -1.5406435839679497e-01 1.7969165346711453e-02
      1.0151747191479381e-01 -1.2456922987281414e+00
      -1.1947570107575427e+00 -3.8353300686833208e-01
      1.1283820183748771e-02 1.4544766229503072e+00
      1.2644146163036729e+00 -2.6603666848125216e+00
      -1.2093308634380233e-01 2.7091135932720084e-01
      1.9224453079240675e+00 -5.3748180697396730e-01
      1.0473976704398558e+00 -6.2447990548439658e-03
      3.4198694882806835e-01 1.3365302365227298e+00
      7.0204742034636364e-02 1.1569913205052844e+00
      -2.2490078355856336e-01 -8.4302364638702365e-01
      -1.8769236143783100e-01 7.8069060630435361e-01
      4.8644384150058750e-01 1.1398822584872506e+00
      -4.2550364340472674e-01 1.2576369442582305e+00
      -1.6365801881717608e+00 -2.7337770531315331e-01
      5.8908459875043406e-01 1.7154614069154066e+00
      -1.0428666623946570e+00 -2.3739365414903432e-01
      5.6894757525450390e-01 3.3318009640634344e-01
      2.0497091436174353e-01 2.2003945035739876e+00
      1.6485708678833266e+00 1.8080040020564539e-01
      -2.7142404548017035e-01 -7.7307760286894711e-01
      1.3459284417193954e-01 -1.3845632000081269e+00
      -1.0348830717193813e+00 1.6892351135795844e-01
      -7.1340036938153203e-02 7.9371741706020849e-02
      5.5450803226556533e-01 -1.5665151604874108e+00
      -6.2034853132281931e-01 3.2542737146250056e-01
      6.9661537504376503e-01 -2.1050659290034903e+00
      1.4418687898874418e+00 -5.4144084256974190e-01
      1.6089849550925053e-01 4.7532157039737249e-01
      1.8650861656707204e-01 1.2525235588717822e+00
      -6.4495384214547680e-01 -8.4560740552794733e-01
      -2.8671221811062192e-01 1.2081910930961401e+00
      5.7580089610272367e-01 2.0374061583669129e-02
      -1.9495288458857166e-01 1.2350430317375447e+00
      -7.2805805625815534e-01 4.5545983167787163e-01
      5.5808220494115479e-01 4.4044075319311787e-01
      -1.2918326925576429e+00 -2.6988965915844337e-01
      1.0743284022333031e+00 -1.1667094603989743e+00
      3.2910507758007979e-01 1.1430103492807551e+00
      1.0091581375054948e+00 -7.0053264704974388e-02
      -5.5988964341145531e-01 -1.3817068306600455e-01
      2.8045265080481679e-01 -5.0332044503149831e-01
      -8.2067235641344077e-02 3.3592765003623509e-01
      1.7673828368488325e+00 -2.3586067360283858e+00
      2.8881481242875168e-01 -1.0896964412054684e+00
      -3.1522581191293107e-02 -3.2008330612106357e-03
      -5.7896260804194022e-01 -9.7826624724482425e-01
      6.8869676244817657e-01 -5.4594762680919051e-01
      4.1420713667490516e-01 -2.9493769710883640e-02
      -6.1663057100183394e-01 4.2457411724871202e-01
      7.3565281412581451e-02 2.3974066904626248e-02
      -1.5404591874588280e-01 7.6219921547125224e-01
      5.0181236326770788e-02 -6.0831673562716957e-03
      3.7621701346458575e-01 2.9508944490379435e-01
      1.7912914409167540e+00 -8.8944076184384643e-02
      3.6655818179221006e-01 -9.2231039412589852e-02
      -5.0133271752155850e-01 -6.3340752081811391e-01
      9.7686637873017179e-01 -7.2787173061188792e-01
      9.5831126699370585e-03 -7.8855913365364905e-01
      1.3009626570738042e+00 6.1142491009635158e-01
      -1.3439090822774480e-01 -2.6075681169671899e-01
      -1.6800831983898723e-01 -1.7228510024373192e-01
      -8.9000321928555906e-02 -2.3965608700059901e-01
      5.0222191320091780e-01 -8.6814719952099062e-01
      -8.6156983706004553e-02 1.9749844845461639e-01
      4.8255265883753201e-01 -1.0588479950835616e-02
      1.8652761483603369e-01 4.5057499529997957e-01
      1.6940349838996333e-01 2.2041030713311344e-01
      -2.1732987259720127e-01 -7.3589284242997111e-01
      5.8241014482370201e-01 1.9395749764047579e-01
      1.9705242693126870e-01 8.6249030833539797e-02
      -1.5286071254203454e-01 -1.6300831137066107e-02
      4.1016323425419959e-01 3.2794077776461489e-01
      6.5348673628898554e-02 -4.8815910209497923e-02
      1.6151422970304208e-01 -1.8853257886549676e-01
      -1.9085838541474301e-01 -9.7272823375205666e-02
      -7.7772387930739129e-01 -1.7380125763927420e-01
      -1.7240600170621350e-03 -1.4208838319724543e-01
      -1.4478115810940995e-01 -2.2970844174773750e-01
      -1.4729502022424348e-01 1.9916589023563938e-01
      -7.3041483241883157e-02 -9.8656827112975895e-02
      1.8129735284692869e-01 3.9097092366611563e-01
      -6.0388182504440324e-01 3.8765705987127530e-01
      -1.5861881529209479e-01 -5.2687590357510850e-01
      -1.1426076471341255e+00 -1.1551989874726984e-01
      -1.3394755559921728e-01 -8.7135251899176691e-01
      -2.3948233702082704e-02 -7.8127340015428182e-01
      2.9830083609708524e-01 1.8117063188342872e+00
      -6.6261952714514638e-01 -1.0380173592709528e-01
      2.3226339466137627e-01 -3.6734837344603527e-01
      -5.5418071717069563e-02 -5.4785919062865542e-02
      6.1111051769585734e-01 2.8478642781176716e-01
      -2.0500124830623218e-02 1.5760529008228910e+00
      9.2955473069566127e-02 9.8727514370639402e-01
      -5.0344528036946401e-01 -6.7982184885381380e-01
      -1.0221188963912664e+00 -5.4902638249982405e-01
      -1.7783673233187414e-01 -5.6316725780662957e-01
      -5.2006804613200897e-02 -6.9010898476725391e-01
      -5.2016830971683720e-02 -1.0487735061204195e+00
      -7.2869064155335594e-01 -1.4208350603548511e-01
      -2.0026558368713687e-01 -3.8897757783267699e-02
      -2.9418125265530054e-01 -6.8675002335218938e-01
      2.4034735100319260e-01 -1.0295331058298586e-01
      2.4582704259327323e-01 -2.9251926113616027e+00
      -1.2215635439108157e+00 -9.0907582815830723e-01
      -1.5294553381523219e+00 -6.9508910724450290e-01
      -1.2280820669379422e+00 -1.2480288915805691e+00
      -6.3844210249499889e-01 1.1908109282256776e+00
      -4.5562016981443010e-01 -1.0034515685565051e+00
      -3.8723267529965155e-01 4.3941833127605223e-01
      -7.0059275023650835e-01 -1.9437359510696281e-01
      -6.0282377524736597e-01 5.4017180312630231e-01
      -9.0165573036139271e-02 6.4773880503952674e-01
      1.8783574200747788e+00 1.2134557419749121e+00
      9.4908912062189033e-01 -3.0851831868028368e-01
      -1.5649770749274514e+00 -1.7643845274829126e+00
      -1.5703531165830259e-01 2.0970103560372177e-01
      -5.5405555972807170e-02 -5.7846075707465883e-01
      -2.5371780634537983e-01 -9.2727119152306248e-01
      -1.1268582063060844e+00 1.0181157165159946e+00
      1.6974000379026861e-02 -7.4981365750780538e-01
      -1.0967709765873881e+00 -1.1330610326360171e+00
      2.4238411960230030e-01 6.9946281743544680e-01
      -4.4373437715850228e-02 -2.7776822533919501e+00
      -1.2850822365909069e+00 -1.1047859243124680e+00
      -1.6704363922006620e+00 -6.9820739842110691e-01
      -1.2182759088818316e+00 -2.3409893448777555e-01
      9.1617053719861619e-02 1.0297830957531644e+00
      -5.8033326093829807e-01 -1.3618680326946144e+00
      -6.5365473199615221e-01 1.0127290734811365e+00
      -4.0211672715559410e-01 -1.9627287890227793e-01
      -5.2972113321906733e-01 2.0791292534389738e-01
      1.1765476841605932e-01 -2.1538915775165871e-01
      1.4755043998391422e+00 1.4881479444318046e+00
      2.9220979436022843e+00 -1.4751978252708606e-01
      -1.9440586525319754e+00 -1.5216356858378315e+00
      -5.6895680229838674e-01 1.3235388265372372e-01
      -6.6048571586007720e-01 -5.6462390816305674e-01
      -7.4500832159835065e-02 6.6080178227613906e-01
      -7.6876895036669432e-02 1.0496084696289232e+00
      8.0320324927980724e-01 -1.0392282916948297e+00
      -1.3916493645644439e+00 1.2540963653861779e-02
      -1.4899940018090993e-01 -1.3984843648911007e+00
      -1.1531212734132149e-01 -2.1521803200235547e+00
      -5.6731385690414105e-01 6.1494912952734918e-02
      -1.5049406692928309e+00 -1.1139548926605918e-01
      9.1939910460322079e-03 4.5775465910661972e-01
      1.1595929811991286e+00 1.3386321925751272e+00
      4.4793018907466403e-01 -2.0395810965367098e-01
      -1.2146081008622676e+00 -4.6447310226087823e-01
      -7.7957376311833126e-01 -7.2270539198296224e-01
      -8.5619994472478045e-01 2.0836667739109385e+00
      6.2244813615548211e-01 2.4662843875029028e-01
      1.6907366944149664e+00 1.5392641400000333e+00
      3.1211283410580148e+00 -1.3330022432026549e+00
      -2.2768951840179223e+00 -1.0296206014519819e-01
      -3.7547704208697841e-01 -3.1025574514979674e-02
      -1.1422925184236248e+00 -5.1753278083909782e-02
      3.0906970630595616e-02 -2.2984957017707992e-02
      8.2740826329865985e-02 1.0160790366993442e+00
      1.6868440657852937e+00 -2.4958074227234386e+00
      -1.5823380441389177e+00 -3.0370779703339063e-01
      -5.1137664252716075e-01 -3.1280892452226436e+00
      1.0307019706122920e-01 6.4880743545233299e-01
      3.6710395830526321e-01 2.5437190954390769e+00
      -7.7684161611219038e-01 2.8533500237162290e-01
      -3.1935332225999491e-01 5.9257704150723116e-02
      1.4923067419796978e+00 1.6925149726169075e+00
      4.2618325002044793e-01 -1.4785156398028603e+00
      -9.5686336721332688e-01 1.4463417758280543e+00
      -9.8252649035989159e-01 -8.1612134670423209e-01
      9.6022909488111052e-01 6.6126047878786609e-01
      1.4550067720937759e-01 5.1930890861962031e-01
      -1.3609140978952855e-01 1.7803924564050175e+00
      2.4267225183446390e+00 -1.1319534639567088e+00
      -2.3965573570948564e+00 4.2515555118266324e-01
      2.2207736708191023e-01 9.5229529142496283e-01
      -2.2805207687442106e+00 2.7016115103326799e-01
      -2.0214887112321142e-01 2.8216604770885403e-02
      5.0474647833635577e-01 3.7897226543088391e-01
      -3.0339480694668258e-01 3.3324524173230918e-01
      -1.4880610148298523e+00 -8.6811563860922669e-01
      2.5558757590640530e-01 -6.4606004435984654e-01
      9.5651563232347858e-02 -4.2025964474314209e-01
      5.4647712031855100e-01 3.4050077987592493e+00
      -2.9515865742556985e-01 1.3475224829533006e-01
      1.5031755097051539e-02 -2.9105243979828715e-01
      6.6646463812185464e-01 6.9731014602809727e-01
      5.8344751959241592e-01 -1.5983861248470335e+00
      -7.3710153940972867e-01 2.6928301956766481e+00
      -1.2670304880916421e+00 -1.3127875986223916e+00
      9.9507820160664995e-01 9.2742135562954042e-01
      -3.2469642497639895e-02 -7.3051258225940485e-01
      2.6851211036060196e-02 6.4939014310113230e-01
      2.7845077659169921e+00 -1.8381433980460010e-01
      -1.2572940435940152e+00 1.5464661527412607e-01
      2.1872402352897871e-01 1.0757131300990412e+00
      -1.9468135956708523e+00 1.7613479684253925e+00
      8.7967908101679176e-02 1.2450255958268710e+00
      3.5560142049176680e-01 5.5417690904763639e-01
      -1.2519150267777215e+00 1.5493402809169821e+00
      -1.3967692676690358e+00 -8.3455167978784284e-01
      4.0127042461569856e-01 -2.4654747537762778e-01
      2.5681431763380197e-01 2.0105200974806844e-01
      1.8550648599286193e-01 1.7200291495567874e+00
      2.1775144166147283e-02 9.4927266286350842e-01
      2.8923982108507984e-01 -1.0380349387300060e-01
      -1.2019791414601997e+00 -5.0345019279506575e-01
      7.7508113202702145e-01 -1.0007243862281594e+00
      1.1556700582477464e-01 1.5619704753635790e+00
      -1.1854834228013631e+00 -7.0435023433215796e-02
      1.4046509146963675e+00 1.6599055384431742e+00
      -1.0675825214305363e+00 -4.7924609378967725e-01
      6.0055653544052412e-01 -6.2932640712030335e-02
      3.1526111576789256e-01 -3.9657744091321356e-01
      4.5534283826593919e-01 1.6619290747298860e-02
      9.2685900095261098e-01 2.3910693285979634e+00
      -2.7192281076889091e+00 7.1585715156467711e-01
      7.5769041941758719e-01 9.7050240335652249e-01
      -6.2946935006513327e-01 -5.4070407277711696e-01
      -5.7257178812955145e-01 1.6642815933448443e+00
      -9.5181411690820816e-01 -7.2156717078360644e-01
      -4.0577573219066182e-01 -2.7551995308291718e-02
      2.2090444986800392e-02 3.6431579265612080e-01
      1.0862771953116250e+00 2.1251998922107265e+00
      1.2554124784406887e-01 7.8933527185332553e-01
      2.8438455942039603e-01 -2.2739789294694904e-02
      -1.1061635349169341e+00 2.3010161820258332e-01
      7.0152511359599057e-01 -5.0472372330323323e-01
      1.3844482073423949e+00 1.1129356150941465e+00
      -1.3596224544778321e+00 -6.3286308588208795e-01
      8.2077956403426000e-01 8.8380874720077085e-01
      -6.3880038073907142e-01 3.8313969347199706e-01
      1.8584309906271357e-01 -3.0898149744975395e-01
      -1.0239254496327670e+00 1.9362073738469984e-01
      3.4170048094287475e-01 1.1018488265548783e-02
      7.0223798733072107e-01 1.6194094390114804e+00
      -1.6257809125850020e+00 7.3090879218760141e-01
      -3.9327326598283402e-01 4.9317576487655257e-01
      -6.4477505179706485e-01 -1.4576641270782273e-01
      -8.8025195070920703e-01 6.5786064153934642e-01
      -7.4742052250612845e-01 -6.3828816607620287e-01
      -2.7742364784510432e-01 -4.4785170575115114e-02
      -1.0030493594587547e-01 9.1644565252267862e-01
      -3.6667330070387993e-01 6.0851833534275523e-01
      -2.7145265601819135e-01 1.8958771132895536e-01
      -2.2820081820155719e-01 -1.3905462515682185e-01
      2.6478936181888801e-01 -5.2034209825138600e-01
      -1.7620989768196949e-01 -8.1320137602575143e-02
      5.2274243884170468e-01 4.3295012439176724e-02
      -1.5598890706286050e-01 -5.5569895827218753e-02
      -4.6271114873096937e-02 5.7187562554060667e-01
      -2.3363045553117698e-01 -1.1152413122392749e-01
      2.4832998956550531e-01 1.6235123458421075e-01
      -1.4381835225522521e+00 5.6399204843798456e-01
      2.8880100556463228e-01 1.2008770340924846e-01
      -2.0243921859852063e-01 -6.0025205652954272e-02
      1.0335269796347021e-01 2.5742976601731124e-02
      -4.5802283908485608e-01 -1.3667779909826721e-02
      1.9080719142550373e-01 -5.1088949487937141e-01
      1.1374819891077724e-01 -8.8830411787769986e-02
      2.5467760563383829e-01 -2.3410678939675578e-01
      -5.6691060933264470e-01 1.9852379085691296e-01
      5.2685763560019827e-01 -5.0185653827180365e-01
      -1.5919254010582423e-01 -1.9222206205140446e-01
      -3.7557984323365018e-01 -6.2380499212333318e-01
      -2.0200530252055732e-01 -7.0373813301083374e-02
      -9.1404236318321813e-02 8.8565854235943342e-01
      -9.7723095182798966e-02 -6.2453802894602262e-01
      3.7248188055095721e-01 8.9250217089364814e-02
      -6.1119539371454049e-02 -4.4790528180702122e-01
      -6.6782342993500346e-02 -1.9953833550140705e-02
      1.7736612662841666e-01 -5.6016703342232146e-02
      -3.0653238603054711e-01 7.2453212420442267e-02
      5.3593616707295233e-01 -1.2482225253788626e-01
      -1.5076253573959225e-01 -1.2743584214919856e-01
      -1.5402261390911268e-01 -2.3205968073916583e-01
      -6.9401033648049823e-02 9.4449809276422589e-02
      -1.9838792324902346e-02 2.9921246345075608e-01
      2.3865266400564890e-02 -8.3267510328817032e-02
      -5.5602340480584977e-01 7.2441225708964552e-01
      -2.9995720980480656e-01 -4.9975093104368823e-01
      -5.4877790913677527e-01 8.8554563351780868e-01
      -2.1788774840412320e-01 -6.3723355589376385e-01
      -9.7392144729359753e-01 -6.3153395771147069e-01
      4.1498410423424575e-01 -1.5639524183420364e-01
      -4.8759810750114480e-01 -1.4828553956773720e+00
      -1.4130728241874364e+00 6.6896211751536894e-01
      4.7942136556707998e-01 -4.5932241578215838e-01
      3.7669174075536932e-01 3.4573524644571857e-01
      -5.2709426505984691e-01 -1.1604749762281179e+00
      1.0839515085161794e-01 -8.3956834909429234e-01
      -9.8900305563845502e-04 1.4114228624018924e-01
      -3.5132767046778973e-01 7.5416633774293251e-01
      6.8498534271992229e-01 1.3156589157493470e-01
      -1.1736133282146499e-01 -5.9457567237566999e-01
      4.4475844259397823e-01 5.5703053364156963e-01
      1.6383570507668305e-01 -1.5703169011201137e+00
      -8.7707507601984452e-02 2.1581210359095010e-01
      -3.7898918756976308e-01 -9.2675503256692965e-03
      -9.9371558117540093e-01 -1.5571941462002459e-01
      4.3871232009340483e-02 -1.5357239015775865e+00
      -2.2435535099672398e-02 7.8320687945523226e-01
      8.1192008158445621e-03 -8.5695941820147514e-01
      -1.5583360207778847e+00 -2.1882017162502487e-01
      -9.5419430491227830e-01 -5.0968948988449814e-01
      -5.0203998689845331e-01 -1.2798957390023915e+00
      -9.9877717057928950e-01 8.7816935888334102e-01
      -2.4455059077264729e-01 -2.1403982818170481e-01
      4.2145004858852420e-01 -7.4603618414032413e-01
      1.1977487120284782e+00 -1.2889164273751028e+00
      9.3431561228384796e-01 -1.2053797717154879e+00
      9.8176166000891685e-01 -8.2175047908260329e-02
      1.1222324370921923e-01 5.6930677950257358e-01
      2.4964347826126790e-01 -1.3238419867964033e+00
      -3.5308505032568710e-01 -1.4669086543404791e-01
      -2.4238431705297783e-01 1.0179849646246881e+00
      1.1907379698516392e+00 -1.3222900722012989e+00
      1.7945554449549239e-01 3.3912342809735929e-01
      4.0552079381758493e-01 2.7639577820546274e-01
      3.9753648847617529e-01 -1.6497473433486620e+00
      4.8683104408860656e-01 -7.6317362476799799e-01
      -1.8859276471697533e-02 3.4797725642868049e-01
      1.7706100444047101e-01 -3.0704250221742018e+00
      -3.1228779915956817e-01 -3.6825426248405690e-01
      -9.0279302046717225e-01 1.7541216864308615e-01
      5.3382596840020058e-01 -6.2635759826701187e-01
      6.9463559624073929e-03 4.9632001761773475e-01
      5.4709364899557425e-02 -1.2156874221303264e+00
      -1.0668745399657855e+00 -6.9425389208513621e-01
      -1.4074892263479560e-01 -2.3161037662869428e+00
      6.1431922784670989e-01 1.1036166993316678e+00
      6.9748708206590193e-01 -3.4206268937320476e-02
      1.7653835218446001e+00 5.3439412468356662e-01
      3.1831568205151373e-01 -7.4587476755774684e-01
      -5.3767716911396179e-01 7.0987846064060811e-01
      3.0427488027916277e-01 3.9864756646597072e-01
      1.8532262727278657e+00 -7.3165512698665480e-01
      3.4262609301759023e-01 -1.3704862133250755e+00
      8.8090401632660542e-01 5.9791672222971037e-01
      2.2265039222227756e+00 -1.9864203147933315e+00
      1.2843650770204533e+00 -1.4564211906679930e-01
      -5.2082435739706512e-01 -8.3834552106828553e-02
      -5.2103980008246974e-02 -1.5865625877747449e+00
      -7.0929888413916531e-01 -1.3375606618446776e+00
      -6.2420745154242607e-01 8.0184548610168727e-01
      2.6209642715721104e-01 -1.0937948671457623e-01
      -2.8184119815568526e-01 -1.5112007867279176e+00
      -8.8545695481872433e-01 -3.4152699821409499e-01
      -3.3027501161396833e+00 -1.1867584590191842e-01
      -7.4786759479291243e-01 -7.2288380950215558e-01
      4.9247294905204542e-01 -7.9636590281651279e-02
      9.8793948608854446e-02 -6.8849693983440330e-01
      2.6857568110446794e+00 3.4572067077782966e+00
      4.8114371659609301e-01 -3.6089937666714628e-01
      -1.2298695319459306e-01 -1.0139908430683613e+00
      3.1649219368195508e-01 -1.7596131449590509e+00
      1.8527040055496928e+00 -1.0605744592464947e+00
      5.2461838323992822e-02 1.0473435009214083e+00
      9.8963777833327826e-01 2.4168928719035621e+00
      4.2941041597047445e+00 -2.4105722956823112e+00
      -6.6929002552612721e-02 6.2700029169022553e-01
      -7.8604278279235451e-01 -5.5244694186325571e-01
      2.3531119021338417e-02 2.7796144820732018e+00
      2.2337004236520541e+00 1.0580874685796100e+00
      -1.8443269624721652e+00 1.8519694890309328e+00
      1.1174170553060738e+00 1.2544759932699689e+00
      7.5668634636640997e-01 -4.5283149195805121e+00
      -1.0772220638443961e+00 -1.5667949582734635e+00
      -2.3210532457524766e+00 3.6964092273325608e+00
      -2.3299626897268991e-01 -1.1042348614423874e+00
      -1.8224830978691495e+00 9.6099538383910332e-02
      3.5965806226473646e-01 -2.2098337627216820e+00
      2.1381914895454446e+00 2.8256856905493586e+00
      1.8844723924651345e+00 7.8519108756008005e-01
      -2.5251245603208206e-01 5.8352005919254324e-01
      -2.9341583710932340e-01 -1.8476226451808935e+00
      2.1227550181880419e+00 -6.4638799275132316e-02
      3.9432139989767168e-01 2.6849733532557418e+00
      2.6485723673101584e+00 1.9778001314558438e+00
      -1.3988635718317433e-01 -2.4592892256275811e+00
      -2.4006368351477896e+00 9.9183707463142112e-01
      2.1089066491368200e-01 -1.6743842292024302e+00
      -1.6208170899582855e-01 1.4299138023796993e+00
      -1.1456876310805875e+00 5.2142663554777808e+00
      -1.1919230118123436e+00 4.6959484696996356e-01
      -1.4483382454001668e+00 1.1195592085466546e+00
      7.9494070870582934e-01 4.2176240408616933e-01
      -1.3136098658044606e+00 -1.1428779045661197e+00
      -1.0718050163857931e+00 9.5248668942420456e-01
      -3.0434428945935882e-01 -2.4063555549610260e+00
      1.0916163107656416e+00 7.6877589863214957e-01
      7.5124497938927504e-01 1.0925733139342994e-01
      9.7315625991622534e-01 7.3072544724778435e-02
      1.2086689641132233e+00 -8.6729994084879680e-01
      -1.2614891792490945e+00 2.0696404851624979e+00
      -1.7971382959211037e+00 -3.2825430282668761e-01
      9.2470316107444095e-01 8.1644350817467870e-01
      -5.9224368443963737e-01 8.7076554727498723e-01
      -8.8317322414640043e-01 -7.0162516342393483e-02
      -1.0797158497537280e+00 -1.2441546670473436e+00
      -1.1424121184215532e+00 1.0539141500051714e+00
      1.1483026740268041e+00 -1.0379403975161996e+00
      9.8873384186760963e-02 2.4894357737091016e-01
      -2.9316824745357595e-01 7.2960605109864032e+00
      -1.0216578560623699e+00 8.2689900636061442e-01
      -1.6862995180291009e+00 2.0499259977051505e+00
      -2.3295399535511230e-01 4.7300531412537533e-01
      -8.0043404891926129e-01 -1.1784321861224740e+00
      -4.5137625543627258e-01 8.0503772013384722e-01
      -4.1055573032190690e-01 -1.8604626544643481e+00
      1.6068693650479560e-01 2.5100380133584049e-01
      1.1273687764644038e+00 -4.0535890919643841e-01
      -3.3159137585792592e-01 -5.4204722209489919e-01
      1.9237572217618335e+00 -1.0118215462230837e+00
      -1.9653215434542786e+00 5.5155398194062066e-01
      -2.1455549749072408e-01 -7.8162370285313393e-02
      3.2202643742021947e-01 1.1972466291585742e+00
      7.8317633168587952e-01 3.1168027772305512e-01
      -2.3206043515561627e+00 -4.2154553552609153e-01
      -1.5700242202855910e+00 1.7226914944719640e-01
      7.4856542870332177e-01 1.3043047914452977e+00
      5.9656370656529112e-01 -1.0180224863817098e+00
      1.6741111469120987e-01 3.0378437487273657e-01
      1.5521913896649045e-01 3.0883698984705257e+00
      -7.1215618528396707e-01 -3.1781124543138300e-01
      -8.9819465415608613e-01 9.8865975627364910e-01
      -1.1645003300445917e+00 2.5361281159320548e-01
      -6.9506988243832724e-01 -5.4277556963892126e-01
      4.4132609118874655e-01 1.1093968504758489e+00
      -3.5757539571960650e-01 -3.7478068508759699e-01
      8.1064986449974807e-01 -9.9225342057099608e-01
      1.2448933707512742e-01 -5.9146705121563981e-01
      -7.2459821024676530e-01 -1.2736537642181773e+00
      -5.5186288513174142e-02 -1.2360277044424608e+00
      -1.0666343010640786e+00 -6.4557963482737712e-01
      1.3689933342944627e+00 9.4065764193612333e-01
      -3.2685071510699121e-01 1.2884142801962228e+00
      6.0549843418265248e-01 4.1505322076485912e-01
      -2.7234373421771028e+00 4.8841139460893912e-01
      -1.2290879880735974e+00 7.4084881093670740e-01
      6.9563235181094918e-02 -1.2650253502085254e-01
      -3.3646372576318867e-01 3.0720656788474848e-01
      -3.5319331400925491e-01 1.1822530044560007e+00
      -4.9706689731151216e-01 3.6060306971685002e-01
      -1.3795640972362222e-01 -1.5233695712841541e-01
      2.5464866096506777e-01 2.1439803832457058e-01
      -8.9606452747364751e-01 1.9005477464922382e-01
      -2.7390130515681527e-01 5.7756054114806521e-01
      1.1989962044503026e+00 1.9119601194180519e-01
      -1.2706251896569576e+00 -1.2263402661483372e-01
      3.4928702277747836e-01 -1.8819895248488283e-01
      2.5020196287554699e-03 -7.2111259916972203e-02
      -2.2851561178152704e-01 5.5118285985406890e-01
      -1.8711102910453776e+00 -4.1151896536600263e-01
      -1.1583444380613514e-01 2.4901364056587444e-01
      -3.2386173178536294e-02 3.1133470059942847e-01
      -8.7133914135226795e-02 3.0799172522642349e-01
      1.9403379416404273e-01 1.5321612552352479e-01
      -7.1760568473039377e-01 2.4292485695429236e-01
      -1.3705066737606303e-01 -1.2744617248186929e-01
      -2.9767205219681891e-01 -1.6695761691599881e-01
      -1.6498622091339762e-01 3.3906386400447758e-01
      -1.0937640856553586e-01 -8.2437408204910079e-03
      8.7183345544297519e-02 -3.7526484421412203e-02
      3.3133787814839455e-01 -1.3388607725884535e-01
      4.2797577509694429e-01 -3.0505730064371850e-03
      6.1030323707259493e-01 4.0740436858729007e-01
      -2.2268203160451954e-02 -1.4075007910460413e-01
      -8.6527631382773987e-02 -3.6594549734887116e-01
      1.4031556515077290e-01 6.4304820572094989e-01
      6.0435952133707053e-02 7.3328826625322729e-01
      -6.3635776918690920e-02 5.2591396832458703e-01
      2.1113981049331737e-01 -1.7000363295707807e-01
      3.4699100278367989e-01 -3.4533265848235795e-01
      -1.1781276416958911e-01 3.7530064824619941e-01
      2.3542304457423430e-01 -2.9595436775894671e-02
      -1.3178881678697524e-01 7.1513646756061300e-01
      1.5456339005406600e-01 4.3344387424524268e-02
      2.3254420960486963e-01 3.4316028287053912e-01
      2.4217833026938104e-01 -3.6342804224117115e-01
      4.4918008598239195e-01 -1.1731819621721315e-01
      -9.2125507184613029e-02 8.0003400455686569e-01
      -1.9060074567258717e-01 -1.0192339571102809e+00
      1.5538501838404509e-01 -1.5327967066834551e+00
      1.3364780839155838e-01 1.8115517202500406e-01
      -7.4603940283189418e-01 1.0165770876411502e+00
      -1.7692050636575701e-01 -1.7212203540108260e+00
      2.2506649693869889e-02 1.3602773150124273e-01
      3.1973636960013064e-03 1.4043369218979866e+00
      1.0597354736216504e+00 -1.5775212580291825e-01
      -4.2498117987077216e-01 3.7648146371687502e-01
      3.2909813652178410e-01 -2.0072515230277732e-01
      1.1666973468371959e+00 -1.1992858314468282e+00
      1.0140785151018152e+00 3.9733762548196766e-01
      -2.4624618871973911e-01 4.5721094139911682e-03
      1.6448056668013580e-01 -6.2128074769462187e-02
      6.5897249934118540e-01 -4.6090980763140554e-02
      -2.8239454218253002e-01 1.9874841554183065e-02
      8.0549546463988167e-02 -2.3596498830158741e-01
      8.6598854099706757e-01 -1.2946355194578691e+00
      -9.0328393045314714e-01 9.9401433978893972e-01
      1.0865427558839988e+00 1.9496713230919518e+00
      1.3526887337861207e-01 -1.4026596007922150e+00
      -5.1873022981548422e-01 -8.6697168518186729e-01
      4.2773909928247943e-02 2.0518510243954155e-01
      2.5064157425117700e-01 1.2745787648978675e+00
      -5.6733601867805616e-01 -9.9983261620978081e-01
      -5.2326502237631978e-01 9.6319683630801275e-02
      5.4853549037182792e-01 4.3689617884138265e-01
      1.6231228597500897e+00 -1.2658674329433313e+00
      1.2334519224364764e+00 3.3978634888849019e-01
      7.1241718130565790e-01 -1.9250293031257878e-01
      5.9003288697768641e-01 -8.1282598301332809e-01
      2.1308805489232321e-01 1.3176038685643393e-01
      7.3196699089008255e-01 2.7856225211071295e-01
      -6.9482068665226970e-01 6.6034840747518975e-01
      -9.9602001943240953e-02 7.1965049450923713e-01
      1.2213298816577458e+00 2.2221517585433229e-01
      2.1841085201136754e+00 -6.1893836917058642e-01
      2.4672754669596531e+00 -3.2020771356214230e+00
      8.4976291388359182e-01 1.1942525099879213e+00
      1.4169968308986591e-01 -6.5315394096456064e-02
      1.1776351340986045e-01 -2.5154211294337299e+00
      -1.4185236018351732e+00 -6.9254020828053431e-01
      -1.8399278177925420e+00 5.1214951990538427e-01
      1.3783774054730149e+00 -4.0924934740148960e-01
      1.2492654829852584e-01 5.9218074994272552e-01
      1.5196499012832593e-01 7.7975268924160146e-01
      -7.2017320496363846e-01 -1.8416091820465845e+00
      7.2718640272078261e-01 -1.3222185002129388e-02
      1.1228908694199420e+00 6.2480275970876659e-02
      1.6857820204566136e+00 1.2875229017284981e-01
      2.6662808917448850e+00 1.0678913990994578e-01
      -8.4224086566607848e-01 -3.2309017318565492e-01
